3567 15
la -0.022808 0.061479 -0.0060254 0.00021444 0.0053023 -0.052148 -0.0081382 -3.4275e-06 0.010357 -0.047157 0.016346 -0.02793 0.076895 0.019736 0.016066 
de 0.017895 0.042865 0.025762 0.046962 0.015327 -0.049858 0.01474 0.012279 0.027073 -0.013021 -0.013212 0.011089 0.042566 -0.016815 0.041391 
</s> 0.023309 0.55552 0.39479 0.0068655 -0.10184 0.23525 0.12596 -0.40552 0.37494 -0.35068 0.33966 0.29605 0.23662 -0.32832 -0.21516 
que 0.041713 -0.083477 -0.039998 0.013663 0.016612 -0.034346 0.0080458 0.084021 -0.017809 0.06885 -0.057728 0.02509 -0.025535 -0.0069738 0.022308 
y 0.12931 -0.15385 0.1525 0.15838 0.15003 -0.14133 0.15999 -0.14582 0.16489 0.099085 -0.11605 0.14958 -0.15098 -0.20374 0.16318 
se 0.061062 0.14264 0.17702 0.08514 0.050612 -0.007702 0.091837 -0.13429 0.079905 -0.057607 0.058074 0.024439 0.025249 -0.02213 -0.0025038 
el 0.016813 -0.049946 0.0056937 0.0083218 0.011215 -0.018505 -0.0020277 -0.00050667 -0.00044518 -0.010414 0.043185 -0.11444 0.067063 0.17038 -0.011908 
_digit_ -0.020731 0.059607 0.031148 0.0018418 -0.017176 0.034442 0.0086091 -0.039924 0.037116 -0.031248 0.04164 0.0029969 0.038123 0.015955 -0.021896 
a -0.1289 0.21828 -0.062207 -0.11763 -0.15017 0.14087 -0.1117 0.06133 -0.070267 -0.023502 0.093328 -0.10226 0.20548 0.16437 -0.13633 
bien 0.003364 0.27566 0.20908 0.016019 -0.030079 0.11493 0.074912 -0.21465 0.24132 -0.18183 0.15318 0.12269 0.010519 -0.18217 -0.0091835 
en -0.04753 -0.038975 -0.10578 -0.062015 -0.045147 0.020078 -0.08618 0.11202 -0.11494 0.077282 -0.015616 -0.087205 0.018707 0.19474 -0.026734 
con -0.019734 -0.014084 -0.023612 -0.024976 0.014554 0.0013069 0.014059 -0.027764 0.026265 -0.031537 0.0086567 -0.026241 0.002634 0.056991 -0.025519 
le -0.049713 0.042448 -0.099953 -0.062661 -0.049505 0.023776 -0.085459 0.15042 -0.10705 0.094453 -0.025649 -0.082246 0.033786 0.16655 -0.032382 
me -0.014324 -0.099299 -0.016456 -0.00066757 -0.0060372 -0.01926 -0.044729 0.12872 -0.060377 0.018356 -0.059021 -0.088462 0.091564 0.12065 0.011568 
no 0.040865 -0.27731 -0.099003 0.030666 0.077682 -0.11628 -0.031516 0.11094 -0.16398 0.10877 -0.10402 0.077091 -0.16535 -0.015574 0.11778 
su 0.0076391 -0.096591 0.027103 0.082936 0.14224 -0.098585 0.10676 -0.031851 0.18698 -0.10279 -0.0028343 0.13867 -0.12992 -0.20415 0.16499 
por 0.025592 -0.0091644 0.050033 -0.0010357 -0.0045363 0.014657 -0.0049203 -0.009944 0.044396 -0.024587 -0.0051496 0.030848 -0.0091353 -0.0077591 -0.00075519 
esta 0.049857 -0.090142 0.031854 0.054258 0.045568 -0.08835 0.039889 -0.032278 0.056888 -0.036048 -0.026252 0.074542 -0.10819 -0.062913 0.11508 
para -0.069435 0.15475 0.083082 -0.022038 -0.07981 0.090038 -0.045143 0.019289 -0.027696 -0.042576 0.058525 -0.053273 0.090783 0.087035 -0.038122 
muy 0.025329 0.034295 0.14631 0.16482 0.18135 -0.089386 0.16526 -0.15846 0.26294 -0.18332 0.037666 0.19636 -0.17439 -0.27664 0.19661 
encuentra 0.029081 -0.0019337 0.072616 0.056625 0.066723 -0.0078296 0.047566 -0.058967 0.10183 -0.076603 0.031523 0.092326 -0.073927 -0.091381 0.092273 
un -0.034781 0.016768 -0.013319 -0.046438 -0.049119 0.019685 -0.045957 0.036042 -0.046616 0.024027 0.04094 -0.081367 0.063142 0.15254 -0.075138 
alimentos -0.042569 -0.098551 -0.10573 -0.050102 -0.060576 0.03375 -0.095894 0.11649 -0.11504 0.069996 -0.028025 -0.099205 0.03792 0.15463 -0.026091 
los -0.014329 0.23624 0.12745 -0.026618 -0.06877 0.11655 0.015982 -0.12972 0.068137 -0.048454 0.13217 -0.077318 0.16836 0.1704 -0.12755 
lo 0.0020088 0.203 0.15362 0.030951 -0.013042 0.054933 0.063478 -0.15936 0.0089453 -0.058637 0.085487 -0.039231 0.12052 0.1295 -0.022077 
tiene 0.026609 -0.12075 -0.040045 0.0225 0.046263 -0.063835 -0.0031297 0.061303 0.023916 0.04363 -0.046091 0.046225 -0.070814 -0.03522 0.071702 
domicilio -0.014307 0.044013 -0.011586 -0.024768 -0.053834 0.048292 -0.042553 0.019782 -0.022242 -0.015814 0.052369 -0.069253 0.10501 0.10162 -0.050463 
las -0.03157 0.1004 0.06378 0.030906 -0.0071803 0.039076 0.029916 -0.05677 0.049444 -0.079345 0.084336 -0.022692 0.094901 0.027765 -0.026249 
una -0.0098855 -0.19581 -0.14033 -0.020457 0.024965 -0.059859 -0.062419 0.15011 -0.12149 0.12062 -0.09405 0.014697 -0.13036 0.079657 0.062773 
ella -0.0090307 0.067393 0.035869 0.029635 -0.0068056 0.015494 0.0047978 -0.008502 -0.018538 -0.030346 0.045926 -0.052077 0.055127 0.081472 -0.0023009 
del 0.031971 -0.05852 -0.0048377 0.027348 -0.003657 -0.047504 -0.0084667 0.010076 -0.011711 -0.01396 0.029766 -0.058858 0.081274 0.075691 -0.017227 
pero 0.0061092 -0.17737 -0.075959 -0.0089571 0.019145 -0.044772 -0.046851 0.10336 -0.045219 0.060456 -0.053621 0.016604 -0.087662 0.018998 0.059406 
al -0.0089728 -0.28578 -0.20857 -0.038651 0.027321 -0.086165 -0.10292 0.22169 -0.20336 0.16923 -0.13893 -0.065446 -0.046347 0.13552 -0.0018376 
caja -0.17399 0.30366 0.11296 -0.13493 -0.23644 0.22066 -0.17744 0.10878 -0.16591 0.01089 0.13021 -0.27859 0.34184 0.40614 -0.22133 
ya -0.23202 0.25403 -0.18505 -0.20995 -0.24633 0.18093 -0.21976 0.18766 -0.19643 0.025641 0.10019 -0.23797 0.31866 0.35421 -0.20027 
es -0.001833 0.041963 0.036579 -0.052317 -0.023407 -0.018669 0.0044057 -0.025685 0.028369 -0.048987 0.066105 -0.060976 0.021793 0.077489 -0.0095949 
animo -0.0038388 0.1861 0.15578 0.052722 0.018887 0.062301 0.090285 -0.17124 0.17831 -0.15731 0.095145 0.10867 -0.091133 -0.14503 0.099881 
hoy 0.028629 -0.098316 -0.10122 -0.018251 0.043228 -0.042589 -0.0033593 0.049074 -0.021268 0.054763 -0.043083 -2.8428e-05 -0.070864 0.015786 0.05616 
dia -0.0092195 0.19484 0.14058 -0.0039866 -0.03829 0.092549 0.040785 -0.14607 0.20228 -0.1534 0.15108 0.13741 0.095772 -0.15498 -0.066722 
si 0.020895 0.0554 0.11666 0.013241 -0.016001 -0.0054331 0.042033 -0.11149 -0.16667 0.047932 0.019912 -0.16217 0.12581 0.25953 -0.048958 
todo 0.038602 -0.027759 0.18168 0.16276 0.15573 -0.062572 0.17282 -0.1875 0.23162 -0.21577 0.12983 0.13084 -0.10641 -0.1878 0.14904 
llamado -0.0058675 -0.017839 0.020267 0.036256 0.056974 -0.0054978 0.032492 -0.020256 0.027559 -0.045497 0.018958 0.0041503 -0.022391 0.009747 0.072882 
estaba 0.014414 -0.0078738 0.077497 0.056474 0.054339 -0.050939 0.068478 -0.087107 0.08482 -0.07071 0.030102 0.043474 -0.047579 -0.045863 0.063599 
como 0.0071801 -0.11368 -0.039488 0.015776 0.076375 -0.058352 0.026431 0.01202 0.079027 -0.0052005 -0.018094 0.073588 -0.093737 -0.085414 0.082568 
am -0.044061 0.24779 0.055059 -0.074556 -0.12138 0.14256 -0.052922 -0.033341 0.0083311 -0.059828 0.12765 -0.097793 0.19654 0.15399 -0.14088 
necesita -0.030868 0.11083 0.027478 -0.04031 -0.075832 0.062022 -0.035907 -0.026743 -0.013497 -0.034817 0.066345 -0.050281 0.10093 0.070251 -0.026137 
hable -0.01543 0.23451 0.12896 0.0029116 -0.042106 0.091256 0.038311 -0.11798 0.11007 -0.096383 0.11796 -0.024745 0.11621 0.040512 -0.061602 
senora 0.011059 0.051751 0.093348 0.025407 0.00021361 0.01662 0.016974 -0.062711 0.047631 -0.05043 0.038762 0.030765 0.0087062 -0.058156 0.04418 
sus -0.013862 0.19122 0.17629 0.071029 0.044322 0.031153 0.11264 -0.18891 0.18322 -0.17175 0.14859 0.014799 0.031917 -0.047677 -0.0031095 
porque -0.012976 0.059724 0.037954 -0.023504 -0.047151 0.043905 -0.038057 0.018779 -0.069104 0.026223 -0.0064225 -0.072062 0.079374 0.12173 -0.049231 
hija 0.083588 0.041762 0.19395 0.12646 0.096592 -0.042428 0.14518 -0.19952 0.2166 -0.15451 0.07092 0.10503 -0.041389 -0.1288 0.081851 
entrego -0.11729 0.12658 -0.044761 -0.092342 -0.099978 0.11548 -0.086956 0.061101 -0.082793 -0.0086102 0.056514 -0.10639 0.11537 0.18095 -0.054457 
mas 0.044276 -0.22613 -0.047687 0.048124 0.069039 -0.10248 0.0083318 0.068018 -0.026587 0.012398 -0.085186 0.092222 -0.14209 -0.11271 0.085893 
estan 0.019475 0.05732 0.087475 0.035273 0.0095277 -0.011572 0.046354 -0.096806 0.10855 -0.088041 0.080101 0.07141 0.0038013 -0.058004 0.0055173 
buen 0.0078557 0.2359 0.17503 0.0072004 -0.035013 0.10094 0.057873 -0.17923 0.17156 -0.14476 0.15766 0.04829 0.11962 -0.074857 -0.10632 
poco 0.033224 -0.35506 -0.17902 0.040545 0.098014 -0.15436 -0.028013 0.17017 -0.066293 0.058092 -0.17247 0.1366 -0.21764 -0.10845 0.14736 
semana -0.01965 -0.0065848 -0.001212 0.021501 -0.021256 -0.0052013 -0.013079 0.022095 -0.048624 0.011949 0.012129 -0.023071 0.025283 0.077793 -0.033426 
dias 0.047359 -0.13127 -0.070291 -0.011156 0.0093448 -0.091264 -0.036806 0.080475 -0.028057 0.023879 0.011086 -0.085809 0.075189 0.092786 -0.01917 
entrega -0.11632 0.14966 0.027566 -0.078715 -0.11471 0.14859 -0.096391 0.050955 -0.090067 -0.0043123 0.059244 -0.11865 0.13656 0.19181 -0.058169 
casa -0.011536 -0.075747 -0.0092884 0.0076088 0.063553 -0.014628 0.026106 0.0068624 0.11981 -0.094288 0.011117 0.10976 -0.071439 -0.1386 0.09086 
salud 0.024243 -0.24191 -0.14021 -0.0047498 0.055102 -0.095192 -0.052323 0.12083 -0.063728 0.103 -0.0821 0.021986 -0.075856 -0.012668 0.019172 
hijo 0.060488 -0.13369 0.032213 0.079093 0.12077 -0.11853 0.066166 -0.04876 0.13579 -0.024002 -0.057746 0.14316 -0.14279 -0.15788 0.13773 
hace -0.0034135 -0.074317 -0.074034 -0.0077471 0.0051306 -0.051622 -0.025169 0.1006 -0.066327 0.071912 -0.058204 -0.035858 -0.046238 0.075286 0.049357 
hacer -0.042259 0.015469 -0.011806 -0.035818 -0.047773 -0.0052965 -0.022251 0.019655 -0.037643 0.0090214 0.0047775 -0.04737 0.054276 0.065401 -0.004453 
puede -0.040129 -0.099479 -0.092824 -0.011531 -0.020312 -0.036592 -0.064303 0.12781 -0.078749 0.070143 -0.037798 -0.052234 0.018029 0.10156 -0.0032998 
sra -0.023329 -0.099256 -0.027361 -0.037219 -0.047054 0.0077206 -0.066768 0.092865 -0.086406 0.019675 -0.0071514 -0.046497 0.037031 0.11221 -0.051353 
hablamos -0.011314 0.054245 0.06316 0.019783 -0.0015764 0.025466 0.026619 -0.066885 0.058173 -0.053956 0.047238 -0.02988 0.037224 0.046798 -0.0096289 
dice 0.050486 -0.10138 0.038091 0.084614 0.078713 -0.10645 0.05645 -0.017152 0.0876 -0.024615 -0.09695 0.075476 -0.09995 -0.079549 0.097945 
dijo 0.025564 0.1031 0.13021 0.049445 0.043508 -0.0053139 0.079423 -0.13687 0.14394 -0.13958 0.10174 0.088433 0.0013738 -0.1477 0.047168 
fue 0.0077824 0.09922 0.10155 0.054943 0.050151 -0.0082114 0.054098 -0.076838 0.13978 -0.073772 0.036041 0.10452 -0.028826 -0.11265 0.027761 
llamo -0.0040678 0.066062 0.059062 0.046051 0.02223 0.0015493 0.032058 -0.052277 0.030595 -0.056325 0.051209 -0.030414 0.029649 0.057951 0.013719 
mucho 0.045966 -0.077298 0.0085147 0.042672 0.048998 -0.046698 0.04057 -0.041701 0.086728 -0.024717 -0.0084137 0.11279 -0.070587 -0.15215 0.025653 
llame 0.025814 0.084242 0.074503 0.063612 0.069797 -0.015363 0.073511 -0.077744 0.091874 -0.079064 0.030953 0.043676 -0.022941 -0.045768 0.050595 
sin 0.029599 0.12201 0.12078 0.027262 -0.017481 0.057139 0.041968 -0.12317 0.10284 -0.090284 0.12276 -0.060955 0.090105 0.065825 -0.073952 
ir -0.11449 0.29269 0.16097 -0.080018 -0.17045 0.18118 -0.10374 0.016873 -0.12913 0.0095869 0.1093 -0.21462 0.25919 0.33888 -0.17625 
ayuda -0.028417 -0.072998 -0.058474 -0.029536 -0.035367 -0.02407 -0.041484 0.072932 -0.083046 0.058633 -0.02318 -0.04823 0.03575 0.079024 -0.023267 
nada 0.026479 0.19816 0.1463 0.0053943 -0.027567 0.086119 0.058793 -0.17308 0.10442 -0.091953 0.062461 0.1351 -0.08085 -0.13425 0.06988 
encuentran 0.04881 -0.049363 0.07464 0.084284 0.098678 -0.046339 0.076268 -0.078322 0.13022 -0.097171 0.03268 0.11224 -0.10431 -0.12128 0.11536 
agradece -0.0087668 0.1344 0.089174 0.011114 -0.012002 0.055868 0.034834 -0.083284 0.069437 -0.079125 0.068591 0.030729 0.060261 -0.030399 -0.018863 
contacto 0.013972 0.021021 0.034218 0.0071258 0.027443 0.02174 0.038007 -0.059326 0.040244 -0.062441 0.021215 -0.00101 0.0031631 0.041462 -0.017912 
ver -0.01393 -0.06569 -0.057123 -0.10014 -0.078247 -0.020106 -0.059812 0.066072 -0.093412 0.046365 -0.051678 -0.10587 0.06625 0.14159 -0.034119 
momento 0.03758 0.090845 0.15002 0.072952 0.063377 0.02813 0.092875 -0.15173 0.13891 -0.15096 0.094026 0.050452 -0.015524 -0.065804 0.060077 
tambien -0.017056 -0.023846 -0.0082241 -0.016712 -0.013894 0.00066347 -0.014573 0.013286 0.0057311 0.014646 0.0021675 -0.016645 -0.012932 0.031391 -0.0026762 
hablar 0.038149 -0.061098 0.078598 0.084258 0.085648 -0.078455 0.09537 -0.074656 0.15373 -0.091606 -0.020479 0.097471 -0.087234 -0.11388 0.10547 
maria 0.039374 -0.038778 0.063846 0.044519 0.039717 -0.02584 0.048995 -0.069051 0.092689 -0.0915 -0.022685 0.095045 -0.044858 -0.11764 0.080487 
marido 0.025956 -0.1127 0.019637 0.030451 0.043999 -0.022849 0.02252 -0.0066096 0.024909 -0.034386 -0.018749 0.030208 -0.06224 -0.027355 0.061358 
cuando 0.017428 -0.0021237 -0.013366 -0.037101 -0.013695 0.026849 -0.0046207 0.0071011 0.0079281 -0.031268 0.018327 -0.02054 0.035294 0.036841 -0.029919 
va -0.031295 -0.044596 -0.00083311 0.018415 0.04518 -0.017644 0.0065916 0.0013402 -0.003612 -0.0080826 -0.038144 0.044203 -0.096843 0.015182 0.027689 
vive 0.044075 0.054741 0.078836 0.023924 0.028372 -0.0053936 0.038945 -0.055138 0.086914 -0.057038 0.023243 0.095863 -0.035731 -0.099254 0.034162 
comento 0.020524 0.021148 0.057346 0.020266 0.02567 0.017117 0.036835 -0.061806 0.051698 -0.050704 0.05164 -0.0084686 0.025454 0.022791 0.0040043 
sigue 0.028995 -0.11706 -0.047985 0.024584 0.041527 -0.05323 -0.018536 0.07327 -0.01347 0.02657 -0.048923 0.046331 -0.077137 -0.040295 0.061457 
pami -0.096815 0.12233 -0.00035438 -0.076404 -0.10338 0.10216 -0.066068 0.021217 -0.071432 -0.01379 0.073532 -0.1213 0.15406 0.17531 -0.075608 
familia 0.00098351 -0.0038335 0.04778 0.010577 0.045089 -0.002212 0.026512 -0.041217 0.1 -0.053572 0.037575 0.074988 -0.056621 -0.073217 0.065025 
q 0.017446 0.11062 0.13162 0.010599 -0.092164 0.095068 0.0185 -0.056593 -0.083826 0.0045236 0.045418 -0.097821 0.14521 0.14715 -0.059666 
siempre 0.0012618 0.0099547 0.050399 0.053294 0.062704 -0.037291 0.067242 -0.052807 0.098482 -0.056911 0.025299 0.079743 -0.064114 -0.10371 0.064212 
habia -0.027337 0.049756 0.036936 0.015408 0.026433 0.019391 0.025409 -0.042827 0.093701 -0.063085 0.039625 0.055767 -0.011301 -0.061538 0.056462 
asistencia 0.003284 -0.011179 0.024686 0.01338 0.0069918 -0.0055389 0.011716 -0.019606 0.027201 -0.022329 0.029595 0.026389 0.0038261 -0.0014881 -0.012695 
cuenta -0.02878 0.047806 0.0057043 -0.043165 -0.042869 0.056522 -0.039458 -0.0073375 -0.01443 6.7677e-05 0.013733 -0.0025729 0.0533 0.042992 -0.017137 
mi 0.052112 0.23816 0.24978 0.042446 -0.015561 0.085533 0.1018 -0.25282 0.15563 -0.17525 0.053595 0.13243 -0.031145 -0.18282 0.080503 
comunique 0.009512 0.016889 0.031197 0.0037601 0.0055339 -0.00046664 0.014872 -0.020432 0.044957 -0.028572 0.023807 0.027399 0.0037743 -0.023455 -0.011563 
hablo -0.013452 0.098896 0.056059 -0.013664 -0.048039 0.021539 0.0042698 -0.059358 -0.0062641 -0.033984 0.064392 -0.073159 0.093654 0.10874 -0.042823 
quedamos 0.028881 0.036349 0.087083 0.02891 0.014172 0.026259 0.043705 -0.084699 0.084442 -0.064416 0.060621 -0.0082507 0.035826 0.0037707 -0.0047932 
compras -0.0059348 0.063711 0.09248 0.016599 0.012144 0.017522 0.048738 -0.081654 0.074999 -0.084269 0.060139 0.047845 0.0054697 -0.047528 0.0052184 
- 0.072574 0.23478 0.29537 0.080538 0.01053 0.059254 0.144 -0.30059 0.32632 -0.29049 0.1996 0.23604 -0.042185 -0.31315 0.073241 
esposo 0.0017467 -0.0099367 0.048577 0.0097174 -0.0015923 -0.018776 0.0036057 -0.030105 0.024894 -0.021974 0.0081769 0.026962 -0.028022 -0.0094039 0.032974 
mejor 0.054449 -0.16993 -0.033402 0.087492 0.12915 -0.13299 0.052137 0.016561 0.14825 -0.027688 -0.095902 0.15408 -0.15067 -0.19695 0.1694 
contenta 0.0011472 0.16671 0.1256 -0.0050079 -0.0094959 0.09359 0.050867 -0.15066 0.12451 -0.12636 0.087884 0.059019 0.046294 -0.057351 -0.026811 
manana 0.014618 -0.12439 -0.062319 -0.0050895 0.021252 -0.041648 -0.014717 0.058283 -0.027023 0.047344 -0.054493 0.057277 -0.074215 0.0045117 0.0214 
telefono -0.0097416 0.042108 0.053517 0.019596 0.028362 0.0045078 0.041574 -0.061115 0.06657 -0.072539 0.030575 0.060947 -0.025015 -0.073086 0.040013 
hijos 0.034432 -0.042409 0.072553 0.099752 0.12367 -0.09123 0.090863 -0.091232 0.18692 -0.06904 -0.01743 0.15788 -0.13108 -0.2031 0.14779 
situacion -0.025562 -0.17571 -0.11809 -0.014282 0.0031545 -0.043577 -0.06174 0.12024 -0.097867 0.078529 -0.069437 0.031821 -0.058642 -0.0083282 0.030596 
ahora 0.13272 -0.15785 0.13923 0.17636 0.14423 -0.15527 0.16106 -0.16712 0.19921 -0.10946 -0.15285 0.18924 -0.15266 -0.22049 0.15819 
nuevamente -0.020701 0.01203 0.014972 -0.030659 -0.042105 0.045209 -0.046199 0.023802 -0.025007 0.024888 0.0041551 -0.071165 0.061987 0.095105 -0.016887 
conto 0.046081 0.028153 0.077803 0.047441 0.074271 -0.0074608 0.090589 -0.11779 0.10808 -0.12181 0.040345 0.035883 -0.0237 -0.043244 0.040147 
vez 0.023679 -0.13717 -0.076096 -0.028628 0.036471 -0.031618 -0.027013 0.083467 -0.010907 0.028757 -0.085039 -0.014403 -0.099695 0.015297 0.0045966 
llamada 0.0084177 0.02765 0.02765 0.038117 0.056269 -0.0048936 0.041551 -0.043469 0.043032 -0.034745 0.0073827 0.056003 -0.091107 -0.034447 0.085746 
agradecida -0.0068435 0.11034 0.10232 0.021212 0.010343 0.035227 0.054748 -0.10753 0.092708 -0.087772 0.071087 0.079249 0.0014773 -0.068906 0.0067873 
estado 0.021574 -0.17718 -0.041865 0.030741 0.055148 -0.088391 0.0046094 0.032486 0.0038508 0.0096916 -0.029812 0.019768 -0.054396 -0.012756 0.088293 
asi -0.020688 -0.066556 -0.0017501 0.023521 0.072612 -0.07128 0.0508 -0.031774 0.035893 -0.0029483 -0.0077077 0.060375 -0.08115 -0.054589 0.086532 
atencion -0.030991 -0.027294 0.005771 -0.011561 -0.021035 0.0040291 -0.01104 0.010515 -0.052005 0.02067 -0.011676 -0.038253 0.03071 0.074423 -0.023632 
mail 0.031523 -0.15214 -0.069948 7.2021e-05 0.018555 -0.051719 -0.035733 0.082547 -0.056101 0.048262 -0.085114 0.0036579 -0.0041237 0.040297 0.031215 
hay -0.063666 -0.091912 -0.12555 -0.058778 -0.10075 -0.050965 -0.096908 0.13086 -0.12243 0.036612 0.0031066 -0.13762 0.1462 0.19095 -0.045597 
quien 0.013088 -0.090705 -0.07733 -0.010783 -0.007811 -0.011338 -0.047275 0.080773 -0.044843 0.051478 -0.03604 -0.04325 0.0030988 0.076589 0.0059323 
vacuna 0.0059552 0.067142 0.056888 0.012357 0.0042802 0.016771 0.022585 -0.057851 0.075887 -0.052554 0.034307 0.049662 -0.010283 -0.052869 0.036313 
medico 0.024496 -0.1022 -0.026996 0.030373 0.04914 -0.070908 0.0081683 0.026567 -0.013328 -0.001428 -0.017658 0.00071981 -0.040114 0.017765 0.045185 
sobre 0.0061781 -0.039899 -0.0015488 0.018161 0.034274 -0.023227 0.027009 0.0058073 0.016701 -0.00069184 -0.0084377 0.022984 -0.091616 -0.025782 0.03694 
charlamos -0.025044 -0.014415 0.01992 0.010393 0.0061505 0.0031479 -0.0053223 0.0005311 -0.013295 0.0095688 0.0050066 -0.018786 -0.003378 0.03445 -0.014555 
esposa -0.0040192 -0.080698 -0.040299 -0.0016317 -0.0085887 -0.032583 -0.047038 0.059981 -0.017058 0.0081554 -0.045457 -0.0063682 0.0050653 0.028769 0.013696 
este -0.0090429 -0.1349 -0.0603 -0.0092144 -0.0013238 -0.063715 -0.061845 0.12028 -0.027429 0.084039 -0.061889 0.0024291 -0.041271 0.045938 0.048812 
pudo 0.025863 -0.11172 -0.00047701 0.026402 0.024645 -0.036755 -0.0059592 0.02262 -0.03209 -0.011291 -0.00057041 0.011022 -0.0069558 -0.0026871 0.030669 
solo 0.0041591 0.026967 0.08333 0.030599 0.013963 -0.025807 0.05591 -0.082227 0.0015945 -0.036795 0.025092 -0.0097943 0.0056884 0.018629 0.049623 
nos 0.008815 0.12129 0.094113 0.00028853 -0.02188 0.058351 0.018909 -0.094158 0.056309 -0.050971 0.062016 0.063252 0.029946 -0.051236 0.00035044 
estar 0.026561 -0.23403 -0.10639 0.012479 0.043645 -0.11993 -0.036534 0.11277 -0.084173 0.075439 -0.082101 -0.02498 -0.076636 0.068544 0.10229 
indica 0.005097 0.013686 0.0059782 -0.029862 -0.018657 0.022008 -0.0095849 -0.0009339 -0.028949 -0.010923 0.028257 -0.03533 0.0143 0.077341 -0.011199 
x 0.010424 -0.31242 -0.19547 -0.022088 0.047856 -0.10371 -0.086103 0.20882 -0.19052 0.17553 -0.15557 -0.018628 -0.20793 0.1485 0.12085 
fecha -0.024374 0.10748 0.11063 0.083713 0.049559 0.0099255 0.10342 -0.12637 0.13217 -0.089665 0.060266 0.11217 -0.040288 -0.16231 0.07072 
quiere 0.023891 -0.021061 0.032691 0.03448 0.045137 -0.035687 0.054836 -0.029277 0.06922 -0.016379 -0.013181 0.040375 -0.042992 -0.048634 0.046762 
todos 0.0051803 -0.005199 0.11147 0.10169 0.09907 -0.02158 0.10188 -0.11495 0.15799 -0.10282 0.032348 0.10613 -0.079469 -0.11669 0.094655 
salir 0.05421 -0.074498 0.035952 0.040096 0.058763 -0.048246 0.038093 -0.061242 0.092181 -0.022578 -0.012299 0.053484 -0.054999 -0.047247 0.067608 
tema 0.0030956 0.06452 0.024945 0.001244 -0.065441 0.032881 -0.038929 -0.029787 -0.047343 0.018161 0.033519 -0.086424 0.084724 0.14675 -0.07176 
poder -0.026709 0.0176 -0.0088952 -0.040707 -0.063453 0.018221 -0.058774 0.061895 -0.062502 -0.001331 0.0097641 -0.077153 0.080437 0.12145 -0.039752 
desde -0.003093 -0.20919 -0.13723 -0.011325 0.021999 -0.10527 -0.064783 0.16242 -0.12923 0.10944 -0.055087 -0.095182 -0.035786 0.14114 -0.0022466 
cuarentena -0.0015667 -0.027101 0.0013082 0.00306 0.021638 -0.0032215 -0.0096126 0.0028836 0.018911 -0.010094 -0.0044722 0.031827 -0.042497 -0.028538 0.025523 
yo 0.021922 -0.2321 -0.055183 0.035084 0.062944 -0.10695 -0.01622 0.065699 0.046472 0.012595 -0.037588 0.12427 -0.1138 -0.11354 0.044972 
comunico 0.0037628 0.12471 0.10303 0.0095535 -0.013239 0.049207 0.037629 -0.1063 0.090723 -0.099458 0.098757 0.029498 0.052796 -0.026961 -0.042938 
les -0.077572 0.20204 0.045989 -0.07891 -0.12167 0.086649 -0.045951 -0.047823 0.018122 -0.067474 0.14214 -0.083793 0.19627 0.11702 -0.15883 
medicamentos -0.0061396 0.0032308 0.0026657 -0.013159 -0.010592 0.017137 -0.027738 0.018556 -0.039435 0.0071297 0.014908 -0.057761 0.026114 0.099732 -0.012842 
pedido -0.011977 -0.03818 -0.031979 -0.013943 -0.026933 0.014741 -0.037498 0.046168 -0.053443 0.013226 0.021655 -0.063712 0.039725 0.08043 -0.025567 
preocupada 0.0044739 -0.26121 -0.16197 0.015124 0.072346 -0.10236 -0.032033 0.13628 -0.091005 0.13202 -0.12972 0.066923 -0.19261 0.0013673 0.090183 
ayer -0.063556 -0.0023103 -0.088635 -0.06421 -0.10067 -0.0068238 -0.069965 0.096934 -0.10564 0.053916 -0.009734 -0.11466 0.1123 0.15897 -0.057198 
comenta -0.0040042 0.086701 0.073472 -0.0011032 -0.0099538 0.058444 0.026897 -0.078958 0.062044 -0.067502 0.064636 0.030375 0.042202 -0.020956 -0.012829 
siente 0.025768 -0.1919 -0.079635 0.020574 0.060646 -0.072123 -0.019425 0.10929 -0.0035425 0.067987 -0.08785 0.067487 -0.13262 -0.042246 0.10718 
informacion -0.06905 0.16401 0.091123 -0.033292 -0.082674 0.10191 -0.030056 -0.033717 -0.0079371 -0.034367 0.078005 -0.093002 0.13987 0.14195 -0.09501 
unos 0.018333 -0.0016667 0.024191 0.040564 0.046016 -0.027034 0.032942 -0.042344 0.081477 -0.049718 0.019369 0.087574 -0.084901 -0.10153 0.060751 
recibio -0.0075847 -0.076852 0.0060262 0.017135 0.01514 -0.028498 0.026734 -0.01081 0.021903 -0.05081 -0.0013953 0.00057824 0.011925 -0.0018563 0.02755 
animada 0.0090371 0.13321 0.10149 0.042318 0.018512 0.049209 0.07601 -0.13503 0.12413 -0.10493 0.051453 0.11864 -0.10207 -0.13741 0.10289 
anos -0.0091869 -0.12076 -0.09408 -0.011252 0.0065534 -0.028235 -0.044659 0.089 -0.064646 0.072971 -0.053859 0.0098391 -0.091108 0.027846 0.024263 
persona -0.010942 0.13638 0.076933 -0.0037397 -0.03859 0.06794 0.0090603 -0.07795 0.068031 -0.068528 0.065704 0.029639 0.049627 -0.015956 -0.012888 
retirar -0.0047909 0.20472 0.14261 -0.0027911 -0.059792 0.090022 0.042605 -0.15054 0.10049 -0.10475 0.13824 -0.065823 0.12983 0.067958 -0.12487 
donde 0.014335 0.13369 0.11163 0.00030889 -0.025613 0.058047 0.018769 -0.080123 0.045712 -0.07559 0.076545 -0.05004 0.087601 0.080464 -0.043105 
luego -0.014714 -0.2227 -0.15216 -0.034829 0.018433 -0.058461 -0.070687 0.16328 -0.11949 0.10808 -0.093263 -0.021902 -0.11277 0.11064 0.054913 
tenia -0.011139 -0.093334 -0.033468 0.0048526 0.058743 -0.042001 0.0050528 0.035029 0.031798 0.010926 -0.0081036 0.058293 -0.072682 -0.044654 0.037244 
eso 0.024711 -0.082269 0.0077187 -0.011832 -0.029997 -0.088892 0.007437 0.0033628 0.014027 -0.021349 -0.0039492 0.0089038 -0.076665 -0.0047238 0.1028 
municipalidad -0.01939 0.096195 0.051105 -0.00058936 -0.033081 0.045939 -0.0070437 -0.034603 0.024845 -0.04092 0.055085 -0.037957 0.047891 0.054263 -0.042543 
tablet -0.12811 0.20322 -0.063674 -0.11799 -0.1701 0.13931 -0.13411 0.080239 -0.1153 0.019339 0.074918 -0.19959 0.23585 0.28627 -0.14227 
problemas 0.00075174 -0.065139 -0.017987 0.02163 0.033784 -0.03551 0.0053191 0.0096434 -0.0043244 -0.0056372 -0.025102 0.032794 -0.05608 -0.022197 0.029554 
viernes -0.019663 0.069495 0.067999 -0.026827 -0.047278 0.036785 -0.0097652 -0.039332 0.0018 -0.015688 0.053712 -0.069142 0.086549 0.088381 -0.066322 
veces 0.0051153 0.037661 0.053819 -0.029586 -0.011925 0.01525 0.0085751 -0.044085 0.035836 -0.019034 0.045017 -0.047764 0.049965 0.029868 -0.022962 
tuvo 0.059742 -0.22842 -0.021965 0.055675 0.096467 -0.11594 0.031915 0.029685 0.10096 -0.06259 -0.066481 0.14976 -0.16194 -0.17091 0.14737 
bolson -0.082377 0.18664 0.11678 -0.044123 -0.13315 0.12913 -0.10274 0.06141 -0.10554 0.0099926 0.054419 -0.16223 0.15988 0.23072 -0.098532 
carmen -0.011004 -0.032373 0.022307 0.025526 0.037107 -0.016535 0.024479 -0.0052672 0.05996 -0.043841 0.0022459 0.02331 -0.025122 -0.037427 0.043981 
hospital -0.012206 -0.16404 -0.11686 -0.024748 -0.0058957 -0.066425 -0.05752 0.10785 -0.093276 0.088002 -0.07348 -0.031071 -0.0078835 0.067838 0.0044143 
angela 0.020146 -0.19797 -0.091978 0.029522 0.067168 -0.094332 -0.013991 0.09062 -0.042243 0.033162 -0.07147 0.034649 -0.11093 -0.006834 0.099479 
informo -0.017554 0.15127 0.11166 0.0095692 -0.032389 0.078124 0.011598 -0.07545 0.045427 -0.070407 0.09733 -0.0519 0.10479 0.081829 -0.064306 
datos 0.0080932 0.069309 0.043614 -0.00071178 -0.0035765 0.039548 0.012287 -0.064694 0.049971 -0.040963 0.036628 0.053382 -0.030741 -0.037608 0.027177 
aun -0.042329 -0.13015 -0.12236 -0.038482 -0.036109 -0.03636 -0.096427 0.14323 -0.14771 0.098512 -0.0098221 -0.16508 0.039961 0.25567 -0.060927 
todas 0.013228 0.073588 0.11494 0.028768 -0.0031553 0.04287 0.053554 -0.10676 0.092708 -0.096174 0.091877 0.023366 0.013899 -0.029795 0.0017278 
saludos -0.010686 -0.10652 -0.083247 -0.012204 -0.0054471 -0.019661 -0.058063 0.083398 -0.040745 0.062138 -0.04906 -0.038586 0.027973 0.067653 -0.0024416 
celular 0.0040777 0.036827 0.069818 0.027164 0.012502 -0.0094491 0.031141 -0.042139 0.062253 -0.046845 0.05343 0.0047934 -0.0073164 -0.026002 0.011444 
otro -0.0015089 -0.11057 -0.05035 -0.0029642 -0.00056662 -0.021834 -0.035527 0.056719 -0.057612 0.026592 0.0013901 -0.068856 0.029318 0.1535 -0.010279 
saber -0.10484 0.16157 0.047168 -0.066402 -0.14493 0.11414 -0.11941 0.073332 -0.11181 0.027359 0.057268 -0.16403 0.19745 0.24484 -0.10753 
cosas -0.003861 -0.029103 0.00084984 0.00017861 -0.0045625 0.011644 -0.010059 0.013934 0.03435 -0.0092757 0.013211 0.0068285 0.017817 -0.0054222 -0.0064334 
envio -0.048037 -0.12352 -0.11567 -0.050627 -0.035128 -0.020723 -0.075577 0.12541 -0.10569 0.064503 -0.044305 -0.080024 0.014475 0.1351 0.0057985 
alimentaria -0.046994 -0.043732 -0.073894 -0.052146 -0.070321 0.051261 -0.079359 0.080413 -0.11406 0.043682 -0.01642 -0.11481 0.10638 0.15647 -0.032493 
dni -0.0057148 0.27163 0.14136 -0.033845 -0.087042 0.11811 0.016743 -0.14735 0.042691 -0.082451 0.14555 -0.13977 0.20534 0.18268 -0.13109 
agradecio 0.0088484 0.099836 0.12351 0.039342 0.019726 0.021959 0.078521 -0.13033 0.12995 -0.12617 0.082621 0.10805 -0.0039012 -0.12128 0.022076 
lunes -0.018255 0.063207 0.046428 -0.015357 -0.049206 0.016482 -0.011147 -0.02932 0.016474 -0.042313 0.064558 -0.081732 0.084646 0.081366 -0.059185 
acompanada -0.0040117 0.075718 0.056006 0.0098034 0.0045724 0.03129 0.026844 -0.069384 0.064388 -0.059939 0.042807 0.073371 -0.025937 -0.071602 0.024124 
material -0.024989 0.004242 -0.0080826 -0.02094 -0.027573 0.012221 -0.043028 0.037963 -0.054697 0.024851 -0.017539 -0.064295 0.051064 0.098703 -0.010295 
charla -0.024211 -0.012964 0.041016 0.026172 0.034263 -0.036608 0.017383 -0.0092989 0.0027372 -0.013942 -0.010222 0.057684 -0.052095 -0.048735 0.028697 
haciendo 0.0040514 0.048879 0.062877 -0.010599 -0.024098 0.038209 0.016044 -0.050192 0.058047 -0.064764 0.05563 0.031494 0.017628 -0.0036434 0.001931 
orden 0.00046837 0.13147 0.10653 0.01699 0.00034879 0.055163 0.04506 -0.10929 0.10115 -0.096991 0.091636 0.059994 0.04322 -0.040211 -0.02413 
tienen 0.0086012 -0.099942 -0.059787 -0.0053744 0.00050562 -0.024519 -0.030459 0.06812 -0.0163 0.043619 -0.024869 -0.0015458 -0.01838 0.034739 0.033364 
social -0.025323 0.15343 0.16743 0.12984 0.13056 0.015547 0.1638 -0.20622 0.26048 -0.21366 0.086611 0.19516 -0.14694 -0.26788 0.16759 
_digit_- 0.0014814 -0.022146 -0.0010323 0.011805 0.019318 -0.0094516 0.0018072 -0.023202 0.068404 -0.013317 0.0025772 0.046296 -0.00891 -0.049754 0.037123 
necesidades 0.0059629 0.077312 0.082054 0.020382 0.011174 0.0030395 0.036473 -0.081037 0.050488 -0.069879 0.07645 -0.0033579 0.03362 0.0043404 0.0062075 
sale 0.022473 0.10292 0.079584 0.023696 0.022102 0.013063 0.041908 -0.09506 0.16413 -0.072135 0.038342 0.10965 -0.073192 -0.12141 0.091759 
turno 0.025649 0.082074 0.093807 0.018837 0.0018157 0.035573 0.035401 -0.09328 0.084335 -0.074861 0.094876 0.01289 0.030139 0.0061339 -0.034839 
cual 0.0054542 -0.12117 -0.085845 -0.012945 0.018187 -0.027375 -0.039097 0.094023 -0.039189 0.05854 -0.052021 -0.036117 -0.032215 0.022704 -0.0031628 
atiende 0.01807 -0.10586 -0.018145 0.016312 0.058648 -0.046939 0.011581 0.033204 0.014862 0.0080623 -0.046143 0.058932 -0.087246 -0.049528 0.091595 
tranquila 0.031031 0.14928 0.14929 0.028455 0.0093321 0.046064 0.067775 -0.15301 0.19182 -0.14895 0.097563 0.14553 -0.039255 -0.19306 0.057653 
encontraba 0.046432 -0.10302 0.0043171 0.048539 0.083867 -0.061934 0.052233 -0.036004 0.081989 -0.044571 -0.01854 0.081458 -0.10416 -0.09644 0.078377 
tiempo 0.00049485 0.050565 0.088096 0.075777 0.057103 -0.018361 0.074121 -0.093547 0.14253 -0.10627 0.051501 0.10365 -0.061021 -0.12867 0.07866 
whatsapp 0.007358 0.037826 0.036587 0.0092083 0.0029287 0.014651 0.022245 -0.036284 0.061987 -0.037255 0.0153 0.038542 -0.015044 -0.050403 0.028259 
paso 0.061614 0.02223 0.13599 0.081155 0.071308 -0.050972 0.072056 -0.11828 0.18255 -0.12769 0.058453 0.12752 -0.10808 -0.18562 0.13194 
nuevo -0.0046892 0.050891 0.078039 0.0074952 -0.029227 0.038973 -0.0039036 -0.030655 0.02917 -0.022064 0.056182 -0.057883 0.053415 0.071933 -0.012364 
cognitivo -0.061405 0.10312 -0.070513 -0.09327 -0.11488 0.08835 -0.10872 0.077138 -0.097343 0.024231 0.054978 -0.15155 0.16362 0.22075 -0.11368 
solicita -0.093943 -0.00013484 -0.0057894 -0.050226 -0.087756 -0.0035493 -0.042775 0.016946 -0.023944 -0.032941 0.057611 -0.090612 0.11438 0.11351 -0.032129 
voy -0.11785 0.17446 -0.15094 -0.094231 -0.15351 0.15186 -0.1574 0.14652 -0.15364 0.035739 0.051725 -0.20519 0.19404 0.31326 -0.12277 
ni -0.054569 0.14448 0.050966 -0.061029 -0.093371 0.10418 -0.065567 0.0091612 -0.22424 0.090159 0.020678 -0.32422 0.32598 0.42132 -0.15062 
requiere -0.030861 0.031467 -0.0029078 -0.028692 -0.033513 0.020333 -0.018879 0.035559 -0.020659 0.018675 0.0083559 -0.06179 0.052587 0.083355 -0.02649 
algo 0.021463 -0.02339 0.057212 0.038958 0.030218 -0.016257 0.039352 -0.056279 0.06478 -0.047352 0.028183 0.061831 -0.04371 -0.058163 0.027001 
nietos 0.02074 -0.018049 0.033034 0.017868 0.04388 0.011342 0.020077 -0.040093 0.053666 -0.023484 0.010741 0.050784 -0.052967 -0.036942 0.043308 
llamados 0.017356 -0.058676 0.043691 0.067351 0.084938 -0.041464 0.060288 -0.043421 0.075075 -0.035199 -0.02444 0.053516 -0.077322 -0.050651 0.094985 
senor 0.0067406 -0.066138 -0.018025 0.011727 0.011315 -0.017662 -0.020828 0.0232 -0.036963 0.026464 -0.017328 -0.030994 0.0081348 0.019013 0.025388 
pidio -0.040792 0.062736 0.059519 0.0028305 -0.029414 0.015959 -0.00059268 -0.052938 0.033055 -0.087238 0.11366 -0.054621 0.072028 0.081061 -0.0595 
sola 0.020328 0.0059202 0.11103 0.099477 0.10229 -0.064495 0.10174 -0.086147 0.14774 -0.093175 0.027607 0.14229 -0.12978 -0.177 0.13066 
dolor -0.0016568 -0.2047 -0.14002 -0.033729 0.0023321 -0.060078 -0.074012 0.13427 -0.1065 0.13327 -0.10526 -0.019878 -0.076742 0.061029 0.033178 
suerte 0.03886 0.039291 0.10579 0.10524 0.12004 -0.046377 0.10061 -0.097444 0.21008 -0.11844 0.026185 0.16661 -0.14236 -0.23721 0.16345 
cognitiva -0.072001 0.22793 0.014148 -0.081927 -0.12852 0.13081 -0.069003 -0.0025212 -0.031869 -0.049405 0.11316 -0.11316 0.20359 0.16961 -0.14943 
son 0.028267 0.11351 0.10675 0.059476 0.019668 0.026807 0.071591 -0.15189 0.10698 -0.11133 0.057592 0.036222 -0.028654 -0.037307 0.051812 
toda 0.009973 -0.058912 0.0041045 -0.00045611 0.004418 -0.00019089 -0.0019875 0.0015261 -0.018827 0.001197 0.0098906 -0.021362 -0.028922 0.055397 0.016319 
buscar -0.012354 0.15616 0.12497 0.027489 -0.02086 0.056091 0.056064 -0.11729 0.0713 -0.095325 0.090502 -0.03589 0.059433 0.020488 -0.039996 
ser -0.018376 0.059573 0.030884 -0.02167 -0.044812 0.019101 -0.0097781 -0.029076 -0.05482 0.0036965 0.031812 -0.085109 0.082033 0.13585 -0.03337 
psicologica -0.035098 -0.14554 -0.12981 -0.069389 -0.046871 -0.0159 -0.10257 0.14975 -0.16298 0.10954 -0.062767 -0.10994 0.018112 0.17697 -0.027143 
pase 0.019966 0.19724 0.2191 0.11451 0.087513 0.024323 0.13536 -0.18892 0.20968 -0.16504 0.10121 0.14064 -0.066308 -0.19512 0.10374 
actividades -0.0053844 0.046289 0.031276 -0.01209 -0.021414 0.015759 0.0014383 -0.030846 0.014069 -0.023838 0.058281 -0.044602 0.063283 0.074489 -0.060455 
novedades -0.011726 0.11712 0.079167 -0.0041525 -0.041829 0.053117 0.0083439 -0.073429 -0.009131 -0.024167 0.062262 -0.087227 0.11389 0.11765 -0.073115 
respecto 0.0060094 0.084691 0.081268 -0.0027758 -0.020384 0.030027 0.030076 -0.087292 0.054078 -0.055695 0.078294 -0.017592 0.065719 0.050915 -0.035772 
viene 0.024144 0.079175 0.10004 0.031876 0.01505 0.018733 0.046074 -0.073168 0.10653 -0.048149 0.042058 0.037183 -0.012991 -0.056106 0.019644 
cada -0.039842 0.019722 -0.092553 -0.08613 -0.087843 0.062939 -0.09864 0.10867 -0.13393 0.064393 0.0055322 -0.086442 0.095007 0.16034 -0.070384 
hs 0.012676 -0.036091 -0.037225 -0.023648 -0.014674 -0.020634 -0.037794 0.068428 -0.062124 0.037852 0.017351 -0.11158 0.078583 0.15401 -0.051075 
pude 0.030757 -0.0040048 0.052335 0.049703 0.045109 -0.023459 0.031862 -0.010908 0.04619 -0.031172 0.0082493 0.036076 -0.0344 -0.039035 0.066849 
limpieza -0.066749 0.051073 -0.042027 -0.065653 -0.10924 0.051499 -0.082823 0.072023 -0.058402 0.0065629 0.05506 -0.11627 0.15257 0.1651 -0.09945 
problema -0.0077011 -0.048637 -0.024863 0.0056829 0.01417 -0.028018 -0.0065168 0.014638 -0.016031 0.0068624 -0.030026 0.014217 -0.033704 0.0048397 0.012319 
hasta 0.024231 -0.14337 -0.083695 0.017119 0.033296 -0.050998 -0.012293 0.063626 -0.021941 0.048948 -0.065735 0.097536 -0.10665 -0.10396 0.063877 
vacunacion -0.025245 0.083967 0.055184 -0.012077 -0.034822 0.05565 0.0049436 -0.06021 0.04147 -0.036387 0.044886 -0.031313 0.059309 0.052577 -0.024885 
estimulacion -0.068857 0.043598 -0.026598 -0.041857 -0.075347 0.034454 -0.058078 0.05304 -0.060142 0.0057279 0.025184 -0.084331 0.086708 0.13085 -0.044221 
esperando 0.0078129 -0.0082259 0.016174 -0.021463 -0.035718 0.015506 -0.023967 0.0080739 -0.044004 -0.0047037 0.026494 -0.039103 0.042532 0.085137 -0.042302 
respuesta -0.019098 -0.059582 -0.039249 -0.028215 -0.028771 -0.029101 -0.024676 0.050324 -0.040861 0.045584 -0.012943 -0.043365 0.019395 0.075224 0.0022476 
iba 0.0042437 0.12055 0.13239 0.041809 0.016235 0.025358 0.080057 -0.13686 0.14911 -0.13221 0.064904 0.1131 -0.047351 -0.16021 0.049565 
tener 0.027116 -0.27515 -0.11761 0.0073676 0.055838 -0.11902 -0.039077 0.14451 -0.040806 0.074646 -0.10826 0.12996 -0.15275 -0.12805 0.11219 
mal 0.036336 -0.4725 -0.25142 -0.0034407 0.092753 -0.17417 -0.095761 0.27066 -0.24043 0.21662 -0.2487 -0.014618 -0.25351 0.16337 0.15408 
atendio 0.015915 -0.090029 0.0344 0.028827 0.053683 -0.057937 0.031886 -0.0066626 0.033209 -0.042833 -0.00038791 0.082237 -0.073194 -0.085037 0.060364 
otra -0.009974 -0.097823 -0.030243 -0.014445 -0.0023248 -0.021541 -0.048923 0.08391 -0.050141 0.05444 -0.030794 -0.039548 0.010373 0.09109 -0.015749 
comida -0.042319 -0.066924 -0.11831 -0.058905 -0.045558 0.0057308 -0.096098 0.14066 -0.14568 0.07449 -0.02416 -0.08812 0.042262 0.15502 -0.041148 
necesidad 0.017814 0.096013 0.10465 0.039511 0.034176 0.0011406 0.05954 -0.1075 0.075295 -0.084919 0.080745 0.029186 -0.012024 -0.0443 0.042895 
llego -0.067061 0.096251 0.04777 0.0094881 0.0098026 0.041354 0.032241 -0.05227 0.068273 -0.089616 0.061834 0.017076 0.0075148 -0.024308 0.023828 
hizo 0.016719 0.17951 0.16507 0.039115 0.00067783 0.055625 0.080949 -0.17011 0.17217 -0.15368 0.12116 0.10945 0.024901 -0.12212 0.035595 
sr 0.044398 -0.36182 -0.15691 0.021507 0.087441 -0.14733 -0.045567 0.17088 -0.13108 0.12897 -0.13069 0.022612 -0.23449 0.087373 0.11105 
recetas -0.0056924 0.0067137 0.0079271 -0.00074727 -0.027783 0.015115 -0.0062021 -0.0028242 -0.020597 0.0039772 0.014211 -0.068379 0.066383 0.065539 -0.024147 
consulta -0.054587 0.051445 -0.014427 -0.058816 -0.073969 0.060031 -0.062393 0.044342 -0.053812 -0.0013186 0.016731 -0.084528 0.1038 0.11727 -0.043975 
llama -0.010032 -0.08082 -0.054583 0.0024923 0.032677 -0.053914 -0.022453 0.0587 -0.051468 0.03417 -0.044271 -0.031076 -0.06613 0.09227 0.046806 
alguna 0.0044647 -0.041796 -0.011001 0.016151 0.018037 -0.013031 -0.0061611 0.015023 0.034863 0.0054864 -0.0082208 0.048521 -0.044318 -0.030387 0.037743 
dar -0.0072739 0.055727 0.041658 -0.012646 -0.062811 0.02093 -0.03779 -0.033246 -0.04846 -0.00037456 0.03646 -0.11338 0.09013 0.14056 -0.058533 
gracias 0.028004 0.13427 0.10006 0.0058055 -0.037665 0.039606 0.035352 -0.099087 0.087124 -0.091461 0.11058 0.0064539 0.088515 0.010986 -0.062524 
via -0.043446 0.12174 0.032774 -0.052866 -0.077088 0.10542 -0.031633 -0.030834 0.055791 -0.052966 0.08004 -0.016286 0.12659 0.061044 -0.10367 
ana -0.057434 0.0039713 -0.030191 -0.0088597 0.0020603 0.0042718 -0.011271 0.015052 -0.021624 0.0092374 0.011241 0.0088178 -0.028396 0.042682 0.00066803 
beatriz -0.038201 0.08234 0.010806 -0.031944 -0.048963 0.040964 -0.037495 -0.010254 -0.01621 -0.014746 0.029685 -0.05676 0.06396 0.092058 -0.034572 
pueda -0.039632 0.055314 0.0078899 -0.022422 -0.070237 0.045807 -0.043348 0.0073627 -0.051813 0.012946 0.040573 -0.10647 0.12721 0.15446 -0.06486 
antes -0.0075239 -0.016386 -0.014011 -0.0076882 -0.025411 0.026806 -0.010963 0.031165 -0.039197 0.020343 0.015416 -0.056687 0.033642 0.070649 -0.03129 
estuvo 0.023645 -0.27431 -0.10519 0.011162 0.053376 -0.11747 -0.041322 0.13554 -0.025189 0.038517 -0.095795 0.091612 -0.15521 -0.092574 0.12549 
solicito -0.081966 -0.0006537 -0.0026934 -0.041966 -0.083571 -0.0034556 -0.036977 0.014452 -0.022315 -0.033233 0.064349 -0.10835 0.12681 0.14194 -0.041952 
van -0.0039666 -0.0952 -0.071321 -0.033849 0.0024457 -0.018373 -0.044752 0.066124 -0.070568 0.063521 -0.048233 0.0080595 -0.041867 0.049384 -0.0028838 
medica 0.020458 -0.052574 -0.01217 0.0050247 0.035611 -0.049178 0.0093741 0.005986 -0.011607 -0.017233 -0.022113 0.0044212 -0.025075 0.014974 0.048657 
asistida -0.0032561 0.14632 0.11695 0.012893 -0.010133 0.060669 0.042636 -0.1194 0.08046 -0.088713 0.11405 0.026567 0.045758 0.019096 -0.060528 
informa -0.027622 0.21022 0.13935 -0.014442 -0.056836 0.091065 0.019683 -0.11008 0.044464 -0.073533 0.1108 -0.065735 0.12925 0.098206 -0.094477 
cualquier 0.003884 -0.047003 -0.022272 0.0031882 0.015007 -0.026928 -0.013863 0.024883 0.0055713 0.020395 -0.031721 0.0054858 -0.014363 -0.0024561 0.027693 
vacunas 0.015341 -0.003651 0.030994 0.018778 0.011956 -0.0066027 0.02176 -0.023402 0.06449 -0.035419 0.010692 0.040158 -0.035783 -0.035865 0.047551 
ningun 0.0054717 0.2535 0.18741 0.010992 -0.041291 0.10663 0.041639 -0.16797 0.077451 -0.10819 0.13559 -0.1538 0.17633 0.10742 -0.12749 
cuadernillo 0.0036964 -0.023631 -0.033423 -0.011289 -0.015836 0.00038439 -0.030566 0.037713 -0.048712 0.030875 0.017436 -0.061838 0.048497 0.10565 -0.027616 
pide -0.11558 0.13955 -0.0092896 -0.081646 -0.11383 0.070393 -0.1009 0.1051 -0.13417 0.041727 0.070992 -0.19767 0.1852 0.28052 -0.13875 
ines 0.0078146 0.082588 0.12103 0.020591 0.027736 0.0015611 0.074346 -0.1237 0.1285 -0.12855 0.10284 0.011026 0.026548 -0.054769 0.0016035 
mes 0.026418 -0.11542 0.015755 0.030377 0.028534 -0.078788 0.014721 -0.020072 0.010364 -0.047538 -0.015752 -0.057948 0.04763 0.052984 -0.00524 
ok 0.015413 0.36732 0.26105 0.0045397 -0.067338 0.15556 0.083285 -0.26814 0.25262 -0.23722 0.16179 0.18045 -0.033611 -0.17863 0.057137 
comunicar 0.025479 0.054484 0.12237 0.050847 0.038122 -0.0085721 0.074293 -0.11551 0.12968 -0.13115 0.058005 0.079309 -0.021565 -0.087254 0.032276 
dije 0.0051032 0.17475 0.0347 0.011683 -0.040103 0.054178 -0.017471 -0.023903 -0.013329 -0.044982 0.075743 -0.049741 0.091117 0.068373 -0.041898 
caso 0.0066668 -0.081952 0.026947 -0.00080382 0.022848 -0.044826 -0.0038733 -0.0082002 0.077757 -0.051418 0.044529 0.032292 -0.039992 -0.058855 0.056528 
vacunarse 0.013898 -0.026333 0.0023541 -0.00052869 0.010909 -0.0093441 -0.0055704 0.013277 -0.013751 0.024343 -0.024145 0.0096806 -0.050201 0.021333 0.018732 
frio 0.012779 -0.095619 0.022125 0.050329 0.051303 -0.070298 0.038153 -0.015795 0.032311 -0.047945 0.010644 -0.0059189 -0.017009 -0.005701 0.018521 
ha -0.014679 0.094105 0.0076579 -0.013145 -0.063486 0.067375 -0.022239 -0.014169 -0.014988 -0.022115 0.038887 -0.023926 0.095134 0.055681 -0.038607 
_digit_-_digit_ -0.018324 0.055851 0.0345 -0.00047215 -0.014401 0.033389 0.0059503 -0.04074 0.036546 -0.025079 0.034419 -0.0041863 0.035464 0.018502 -0.015163 
despues -0.016552 -0.035287 -0.039676 -0.035333 -0.053696 -0.033161 -0.050767 0.050764 -0.053613 0.023196 0.016071 -0.094073 0.098958 0.13199 -0.064556 
necesitan -0.037065 0.039939 -0.0019214 -0.02075 -0.040791 0.023565 -0.027195 0.00419 -0.0002446 -0.007937 0.036253 -0.030523 0.062732 0.049651 -0.0042946 
tarde -0.015882 -0.016814 0.029965 0.016985 0.033844 -0.033238 0.036477 -0.0066292 0.047607 -0.0485 -1.8374e-05 0.054404 -0.022036 -0.055628 0.052869 
programa -0.028386 0.077863 0.063197 0.0037198 -0.031902 0.04131 0.0020716 -0.050548 -0.012584 -0.023849 0.038438 -0.056905 0.051188 0.094994 -0.034655 
ese -0.030784 0.10025 0.011805 -0.059415 -0.072466 0.027197 -0.04471 0.024556 -0.10228 0.048849 0.010939 -0.096653 0.094684 0.16865 -0.048429 
recibir -0.062293 0.063532 -0.03256 -0.044865 -0.075047 0.076013 -0.020972 0.035204 -0.081746 0.021064 0.040849 -0.12307 0.12898 0.16704 -0.067617 
dijeron 0.0046199 -0.034043 -0.023908 0.027992 0.014376 -0.026424 -0.0090639 0.01089 -0.026456 -0.0075154 0.019179 -0.034226 -0.0055292 0.064685 -0.015392 
cansada 0.0057026 -0.2899 -0.19772 -0.037795 0.031868 -0.085694 -0.087997 0.2043 -0.16044 0.16664 -0.13294 0.019608 -0.13273 0.058345 0.06533 
mismo 0.046494 -0.046011 0.04827 0.038338 0.04886 -0.019987 0.045888 -0.044341 0.070535 -0.060244 -0.026344 0.11389 -0.13047 -0.14481 0.1215 
mayor -0.0091052 -0.16951 -0.078386 0.0018218 -0.0046717 -0.082995 -0.03115 0.082342 -0.041014 0.029294 -0.061782 0.033343 -0.062311 -0.013649 0.030495 
correspondiente -0.0043311 -0.016794 0.0066795 0.0019109 0.0024812 -0.0016245 -0.002027 -0.005311 0.036959 0.0075778 -0.0034929 0.011709 -0.013751 0.0013793 0.018769 
dieron 0.033773 -0.070719 0.0050536 0.024233 0.033906 -0.047934 0.010844 -0.018026 0.038636 -0.0024122 -0.0054397 0.014963 -0.043686 -0.0031379 0.046593 
espera -0.0079335 0.013789 0.032789 -0.01578 -0.045519 0.014219 -0.032764 0.01634 -0.045522 0.0068543 0.010459 -0.020638 0.041429 0.065995 -0.024737 
humor 0.014731 0.0574 0.03919 -0.0015832 0.0047049 0.032411 0.023754 -0.046042 0.063447 -0.040457 0.047561 0.064137 0.00054639 -0.053433 0.0074065 
encuesta 0.013622 -0.090217 -0.01394 0.029319 0.017241 -0.053281 -0.00322 0.024385 0.0076832 0.0058468 -0.013964 0.024175 -0.030521 -0.005325 0.053605 
farmacia -0.027551 0.063531 0.053674 0.019402 0.0037559 0.026466 0.012339 -0.019545 0.053242 -0.050839 0.036444 0.038665 -0.0093378 -0.033246 0.015454 
muchas 0.032932 -0.21962 -0.068466 0.033878 0.061527 -0.091054 -0.00095764 0.076593 -0.023743 0.065749 -0.089058 0.062323 -0.1362 -0.075009 0.057236 
volver 0.017912 -0.093685 0.00403 0.0066643 0.011109 -0.066467 0.0021198 0.0056921 0.00033094 -0.0083882 -0.032813 -0.00053421 -0.046298 0.026371 0.060839 
nieta 0.025204 0.10795 0.14556 0.043243 0.028749 0.059184 0.071474 -0.12908 0.13771 -0.10687 0.068089 0.066601 -0.0069784 -0.08796 0.040406 
nueva -0.012323 0.15033 0.13553 0.019468 -0.012439 0.047326 0.032403 -0.10944 0.07945 -0.074328 0.077143 -0.031636 0.072328 0.028483 -0.0032766 
hermana -0.0085737 -0.098013 -0.070649 -0.016477 0.01205 -0.023998 -0.031189 0.075749 -0.060594 0.045895 -0.034179 0.045269 -0.066207 -0.0046892 0.014136 
voluntario 0.01275 0.16749 0.13214 0.0078994 -0.022582 0.077519 0.042728 -0.12676 0.08297 -0.10779 0.11588 -0.035777 0.090671 0.037167 -0.070078 
informe -0.036115 0.21458 0.17423 0.033197 -0.0092707 0.071174 0.053452 -0.11823 0.10722 -0.10886 0.12033 -0.0069813 0.076577 0.018004 -0.042618 
habla 0.0027502 0.12069 0.13699 0.05479 0.045156 0.0072816 0.090287 -0.14527 0.14882 -0.14046 0.067412 0.070324 0.0077967 -0.079854 0.033209 
asiste 0.016716 -0.021369 0.02443 0.035668 0.052984 -0.033098 0.027517 -0.0093714 0.09873 -0.010006 0.0075231 0.077331 -0.05919 -0.074904 0.05712 
nieto 0.035968 0.085936 0.13112 0.049018 0.052401 0.047199 0.089131 -0.1404 0.14056 -0.10853 0.085769 0.046009 0.0043574 -0.063214 0.029967 
gusta -0.011517 0.043628 0.066747 0.084113 0.088071 -0.015266 0.080391 -0.097953 0.19656 -0.098957 0.012992 0.18409 -0.14916 -0.2417 0.15979 
voluntaria 0.011512 0.12731 0.092676 0.00014797 -0.020119 0.074349 0.029559 -0.094929 0.054197 -0.076452 0.074766 -0.03639 0.08169 0.045536 -0.052336 
bastante 0.051639 -0.22237 -0.10895 0.025744 0.074178 -0.078981 -0.014726 0.11031 -0.020401 0.080205 -0.099586 0.12022 -0.15565 -0.13184 0.10854 
indico 0.017038 0.023178 0.033368 0.0065878 0.0016904 0.010172 0.011586 -0.024842 0.0094548 -0.031823 0.052432 -0.025721 0.010785 0.040146 -0.021545 
dentro -0.010584 -0.055111 0.022584 0.013486 0.030543 -0.011449 0.011478 -0.021872 0.028699 -0.027306 0.0080151 0.0168 -0.05171 0.0011437 0.065616 
bolsa -0.051208 0.033166 0.053651 -0.030657 -0.055646 0.05081 -0.079063 0.077002 -0.012849 0.0021559 0.019886 -0.048832 0.052369 0.067654 -0.028662 
remedios -0.0057277 -0.094173 -0.027388 0.033273 0.057263 -0.060095 0.025648 0.012205 0.019032 -0.010587 -0.018917 0.068417 -0.0892 -0.077476 0.075076 
estos -0.035994 -0.20969 -0.12421 -0.053151 -0.021568 -0.033815 -0.097609 0.17525 -0.13779 0.10615 -0.076636 -0.082388 -0.0098035 0.15014 0.038109 
flores -0.020382 0.0035457 0.037656 0.008659 0.031895 -0.023553 0.036961 -0.083259 0.11784 -0.030404 0.025953 0.057308 -0.027601 -0.085344 0.048098 
cuanto 0.044335 0.018544 0.011661 0.024875 0.019345 0.046605 0.014246 -0.016108 0.020913 -0.031989 0.026104 -0.0095932 0.0065592 0.021902 0.0034998 
seguir 0.0089599 0.0030713 0.015245 0.016459 0.005314 0.011666 0.00017951 -0.028509 -0.032371 0.020588 0.011614 -0.062785 0.025638 0.097626 -0.032466 
vecina 0.018474 0.0057632 0.041753 0.009234 0.012644 0.0026943 -0.0048795 -0.0086019 0.025553 -0.0085535 0.0035489 0.0074139 -0.010893 -0.013661 -0.005486 
algun 0.0043347 -0.030091 0.017816 0.027269 0.02467 -0.010476 0.0060873 -0.00070946 0.059138 -0.02073 0.0079038 0.027908 -0.043602 -0.038944 0.029566 
tratamiento 0.0074948 -0.22068 -0.1282 -0.017414 0.039059 -0.05402 -0.064147 0.14032 -0.094179 0.1177 -0.10364 0.014594 -0.14402 0.069563 0.10742 
receta -0.0044275 0.070587 0.051702 -0.021657 -0.027759 0.037887 0.012287 -0.054131 0.02795 -0.031645 0.035535 -0.016525 0.033367 0.00049025 -0.020055 
vecinos 0.03581 -0.0043774 0.057554 0.022217 0.039941 0.010536 0.024231 -0.041349 0.093554 -0.043117 0.021944 0.05633 -0.038142 -0.092864 0.029271 
malatesta -0.0061911 -0.098348 -0.032455 0.012236 0.010096 -0.039035 -0.016264 0.044679 -0.039443 0.029685 -0.043461 0.0078046 -0.057413 0.034954 0.057049 
forma -0.026855 0.19612 0.16364 0.04471 0.027026 0.064418 0.095645 -0.17779 0.13656 -0.13276 0.11205 0.041131 0.037413 -0.044735 -0.0067311 
era -0.0066558 0.22318 0.184 -0.0045973 -0.061542 0.10644 0.021869 -0.12951 0.08014 -0.1157 0.12001 0.085071 0.10593 -0.056885 -0.093763 
psicologa -0.034201 -0.15381 -0.11707 -0.047786 -0.030075 -0.023126 -0.094955 0.13801 -0.15864 0.11763 -0.065428 -0.10217 0.01327 0.16248 -0.023617 
vacunar 0.013805 -0.026583 0.017388 0.0045736 0.012894 -0.010915 -0.0012021 -0.011449 0.023156 -0.011059 -0.003867 0.033364 -0.054101 -0.017656 0.052826 
realiza -0.0090071 0.15239 0.095688 -0.0021109 -0.036142 0.063854 0.032969 -0.10901 0.077205 -0.081465 0.091392 -0.010429 0.068656 0.032165 -0.046278 
_digit_hs -0.017994 0.10192 0.060067 -0.003622 -0.023011 0.049449 0.016277 -0.064951 0.054033 -0.041309 0.06333 -0.0042721 0.072588 0.021096 -0.01787 
dio 0.058756 -0.12482 0.070565 0.069472 0.11432 -0.1225 0.10414 -0.096406 0.16171 -0.12948 0.011966 0.15278 -0.11696 -0.1963 0.11621 
calle -0.02971 -0.053323 -0.079325 -0.04244 -0.023297 0.0080389 -0.069131 0.10843 -0.089168 0.069744 -0.032834 -0.074224 0.048785 0.11814 -0.033168 
gripe 0.0062071 0.065791 0.048104 -0.0099835 -0.0090147 0.022976 0.029655 0.0076683 0.019564 -0.020085 0.018976 0.022018 0.057897 -0.017484 -0.00251 
averiguar -0.00021207 0.075118 0.059162 -0.0059879 -0.019781 0.026907 0.0035126 -0.047722 0.02348 -0.046733 0.039275 -0.019441 0.060026 0.030542 -0.020058 
particular -0.017085 0.1126 0.1021 0.012498 -0.0031566 0.021031 0.0393 -0.075731 0.084058 -0.067819 0.060282 0.012686 0.030697 -0.026493 0.015911 
conmigo -0.043836 -0.16298 -0.1123 -0.055529 -0.029866 -0.063866 -0.070008 0.11702 -0.11546 0.076447 -0.080514 -0.099776 0.049948 0.11349 -0.0064702 
realizar -0.0046139 0.016533 0.019324 -0.006513 -0.014838 0.0060339 0.0027938 -0.022962 0.0062711 -0.015846 0.028881 -0.028415 0.030617 0.062871 -0.037718 
realizo -0.0070407 0.15343 0.12113 0.017218 -0.014888 0.055489 0.057712 -0.13177 0.11656 -0.10651 0.099679 0.05193 0.034967 -0.04069 -0.0065462 
solicitud -0.08405 -0.035214 -0.051985 -0.06126 -0.093346 -0.0094217 -0.069651 0.076045 -0.093267 0.020593 0.029059 -0.13765 0.1238 0.18897 -0.055752 
pueden -0.03176 -0.16276 -0.13065 -0.028632 -0.023699 -0.038618 -0.089383 0.1503 -0.13001 0.097942 -0.05328 -0.095457 0.0096741 0.16407 -0.028661 
familiares 0.011954 -0.043519 0.011169 -0.0011652 0.034044 -0.034195 0.015598 -0.014891 0.073705 -0.027271 0.0085655 0.040108 -0.04835 -0.035438 0.053971 
slaukin -0.0024195 0.17301 0.14573 0.03332 0.00075787 0.05665 0.074695 -0.16002 0.15732 -0.12531 0.095308 0.069394 0.010337 -0.11723 0.023487 
posible -0.01565 -0.033131 0.001135 0.0089189 0.029887 -0.019957 0.013706 0.016978 0.020744 -0.017201 -0.013273 0.041582 -0.051368 -0.025543 0.026554 
comunicarme 0.01031 0.065645 0.12654 0.066619 0.053821 -0.0087226 0.085793 -0.10635 0.14431 -0.11936 0.050355 0.090329 -0.034514 -0.11085 0.050374 
encierro 0.028365 -0.22618 -0.083631 0.011179 0.049973 -0.093376 -0.021423 0.093684 -0.039156 0.058937 -0.071851 0.051325 -0.12885 -0.028855 0.099188 
conversamos 0.019323 -0.016912 0.074815 0.030496 0.050785 -0.0095761 0.061193 -0.071528 0.11027 -0.082896 0.025893 0.055538 -0.034433 -0.073356 0.039556 
puedo -0.0493 -0.10527 -0.086413 -0.030514 -0.060863 0.0057655 -0.082135 0.10837 -0.096866 0.046568 0.0008222 -0.098334 0.095986 0.14803 -0.034459 
conseguir -0.052494 -0.0022062 -0.04429 -0.052229 -0.060114 0.053795 -0.071887 0.06533 -0.10629 0.035595 0.0052636 -0.12846 0.10344 0.1874 -0.07922 
pandemia -0.042864 -0.11546 -0.10401 -0.047849 -0.045198 -0.021473 -0.089774 0.12055 -0.1075 0.061686 -0.033491 -0.066101 0.028443 0.11205 -0.049651 
segun 0.033942 -0.020141 0.013922 0.025501 0.04377 -0.018905 0.020419 -0.063576 0.032513 -0.022674 0.018164 -0.017219 -0.011175 0.026166 -0.0050736 
pasado 0.017359 -0.24183 -0.095485 0.016212 0.059064 -0.08809 -0.03553 0.11755 -0.051308 0.068471 -0.073303 0.014593 -0.10415 0.016969 0.081136 
tomar 0.04686 -0.17343 -0.0087776 0.071858 0.088037 -0.089707 0.034017 0.020892 0.019383 -0.016757 -0.015895 0.049998 -0.12938 -0.030297 0.091398 
manera 0.031883 0.16097 0.17687 0.02999 -0.011011 0.067864 0.059556 -0.15078 0.16214 -0.14747 0.10239 0.15195 0.043493 -0.16175 -0.026242 
debe -0.073442 0.088606 -0.048557 -0.059153 -0.10458 0.066332 -0.10133 0.071322 -0.080123 0.02574 0.041247 -0.13169 0.15787 0.18851 -0.091477 
retiro -0.015569 0.17214 0.08208 -0.013274 -0.079757 0.081986 0.010533 -0.09485 0.059648 -0.078969 0.14137 -0.10144 0.15577 0.13489 -0.12688 
madre 0.015487 -0.15635 -0.10542 -0.0041606 0.037352 -0.043012 -0.020473 0.1128 -0.091497 0.069206 -0.10133 -0.035792 -0.07368 0.070845 0.011717 
necesitaba -0.026322 0.094196 0.041832 -0.027135 -0.061504 0.051474 -0.024776 -0.030667 -0.014749 -0.029175 0.061454 -0.057324 0.1017 0.08184 -0.039733 
favor -0.014887 -0.30207 -0.18601 -0.023115 0.044828 -0.11549 -0.080819 0.19989 -0.15911 0.16484 -0.1532 -0.009078 -0.18016 0.11595 0.088834 
fin -0.017626 0.088388 0.073343 0.015948 0.0058916 0.057217 0.026412 -0.073921 0.08985 -0.087928 0.085692 -0.022617 0.05028 0.011384 -0.046179 
podia 0.0017784 0.11808 0.098778 -0.0084102 -0.0045671 0.06611 0.03135 -0.070412 0.11006 -0.11183 0.059672 0.073268 0.013995 -0.079537 0.011729 
falta -0.024716 -0.049466 -0.036865 0.0033269 -0.00012236 -0.0024111 -0.0301 0.042708 -0.043584 0.035877 -0.032322 0.027402 -0.082713 0.013256 0.043732 
llamaron -0.011928 0.0055971 0.057671 0.064407 0.073901 -0.037745 0.057393 -0.066209 0.084667 -0.077279 0.025405 0.043362 -0.077035 -0.037118 0.086874 
hemos -0.0032116 0.11136 -0.00075362 0.0067628 -0.055377 0.078396 -0.033604 -0.016465 -0.019278 -0.0023727 0.065243 -0.084587 0.10412 0.12326 -0.093861 
cerca 0.0074375 0.20695 0.13421 -0.01313 -0.031552 0.078598 0.047322 -0.14842 0.1368 -0.13966 0.1025 0.098555 0.049323 -0.10672 -0.0034225 
comunicando -0.014124 0.10906 0.07685 -0.01977 -0.042136 0.071468 0.0083538 -0.059387 0.041985 -0.076635 0.091267 -0.023384 0.084234 0.041035 -0.059019 
trabajo 0.01722 -0.13924 -0.071209 -0.0022821 0.040276 -0.043634 -0.025316 0.078058 -0.014015 0.041522 -0.049173 0.045674 -0.097048 -0.019068 0.057232 
feliz -0.093213 0.24947 0.25618 0.17926 0.17633 0.018458 0.22709 -0.28027 0.33499 -0.27722 0.15989 0.20855 -0.14369 -0.30175 0.18188 
dib -0.022204 0.048473 0.044298 0.010979 0.021166 -0.0076436 0.034741 -0.050097 0.091395 -0.056877 0.037262 0.06281 -0.038358 -0.083472 0.052916 
avise -0.055203 0.2072 0.060643 -0.033253 -0.11019 0.098782 -0.05651 0.0086948 -0.071132 0.0096005 0.061991 -0.15505 0.18414 0.21674 -0.10353 
consulto -0.042419 0.053016 0.001549 -0.037021 -0.060355 0.060442 -0.05511 0.038477 -0.057496 -0.0050209 0.03449 -0.11722 0.12443 0.16077 -0.067768 
acerca -0.0052993 0.14805 0.10608 -0.012486 -0.013217 0.045447 0.04664 -0.10124 0.12223 -0.10248 0.077121 0.082507 0.039004 -0.089692 0.0028915 
todavia -0.071471 0.038547 -0.050993 -0.059442 -0.10237 0.078403 -0.087535 0.068701 -0.071661 0.0064516 0.051723 -0.12106 0.13642 0.17746 -0.074139 
aunque 0.0093729 -0.26262 -0.16638 -0.011564 0.054547 -0.096691 -0.068943 0.19185 -0.14038 0.15495 -0.12718 -0.030377 -0.15382 0.089919 0.082795 
general 0.012738 -0.052342 0.010095 0.0025602 0.010966 -0.014629 -0.011982 0.014857 0.011889 -0.017531 -0.013492 0.018329 0.0057921 -0.047727 0.012889 
pasar 0.032771 -0.080598 0.025904 0.047078 0.045134 -0.057252 0.010433 -0.0070064 0.077084 -0.029454 0.0062824 0.096568 -0.089864 -0.10424 0.049952 
direccion -0.028544 8.3655e-05 -0.023539 -0.0035486 -0.044335 0.010061 -0.030649 0.027985 -0.039037 0.028705 -0.001569 -0.058882 0.054329 0.087494 -0.023763 
triste 0.026141 -0.43011 -0.2652 -0.024697 0.075829 -0.15159 -0.1143 0.29831 -0.18215 0.24106 -0.22139 0.10715 -0.22721 -0.044119 0.13762 
dado -0.013603 -0.10308 -0.071598 -0.053251 -0.040384 0.014892 -0.059113 0.050448 -0.11901 0.039131 0.010037 -0.14744 0.1327 0.19305 -0.049446 
primer 0.010926 0.022991 0.06643 0.043773 0.019664 -0.011062 0.031409 -0.053837 0.061231 -0.062961 0.013252 0.055134 -0.0093196 -0.05744 0.035718 
pagar 0.0047127 0.11698 0.12989 0.013738 -0.014348 0.052562 0.048809 -0.098836 0.079932 -0.095944 0.065319 0.0032135 0.039945 -0.017316 -0.024649 
derivacion -0.040176 0.055912 0.0024459 -0.0094238 -0.067532 0.049045 -0.040761 -0.0084834 -0.028095 -0.010504 0.031013 -0.080925 0.11695 0.11662 -0.071168 
tramite -0.03594 -0.014922 -0.066404 -0.026702 -0.04714 0.014699 -0.069181 0.089 -0.065793 0.058832 -0.017974 -0.048866 0.027761 0.10711 -0.0058962 
caminar -0.0050057 0.017453 0.048233 0.0023558 0.011533 0.012914 0.013814 -0.025443 0.031092 -0.041115 0.0327 0.024762 -0.030654 -0.017064 0.043596 
refiere -0.015454 0.0028153 0.022111 0.013303 0.041745 -0.017013 0.042868 -0.029144 0.056448 -0.015075 0.018472 0.02991 -0.037802 -0.035872 0.019906 
coordinar -0.052946 0.087183 0.015316 -0.033082 -0.065626 0.065161 -0.051384 0.031101 -0.056414 -0.0035441 0.044821 -0.065134 0.083017 0.1093 -0.071459 
alguien 0.024741 -0.17231 -0.0849 -0.0011065 0.050023 -0.065574 -0.028076 0.078014 -0.0020669 0.062959 -0.072601 0.06439 -0.10211 -0.061989 0.066531 
acompanado -0.010255 0.046276 0.045977 0.0034662 0.0064861 0.029522 0.015785 -0.045812 0.046143 -0.061197 0.040334 0.022974 0.029768 -0.025848 8.3378e-05 
ninguna -0.0049173 0.18379 0.12955 -0.0035923 -0.046175 0.086135 0.0091545 -0.095784 0.027368 -0.057211 0.095526 -0.13893 0.15481 0.12659 -0.10982 
banco -0.015699 0.045392 0.0305 0.013424 -0.048688 0.045246 -0.029777 0.023207 -0.11443 0.042906 0.014223 -0.10806 0.08689 0.14399 -0.092952 
neumonia -0.033092 0.0020913 -0.036531 -0.039419 -0.054367 0.02979 -0.045279 0.041487 -0.061962 0.012078 0.023516 -0.091468 0.10906 0.13905 -0.069159 
mis 0.026872 0.2111 0.20456 0.03824 -0.0071884 0.073769 0.088155 -0.20901 0.21289 -0.19127 0.073157 0.16911 -0.081894 -0.21239 0.12168 
adulto -0.0027505 0.16312 0.1382 0.0031625 -0.031313 0.079772 0.027063 -0.10088 0.024893 -0.06337 0.095335 -0.084086 0.10464 0.09732 -0.072201 
contenida -0.0061936 0.057073 0.068856 0.02892 0.045833 0.016272 0.061324 -0.092799 0.10526 -0.092738 0.042211 0.088082 -0.066428 -0.0938 0.0402 
estoy -0.024972 -0.066009 -0.076509 -0.043808 -0.041616 0.00075733 -0.060457 0.099787 -0.095822 0.039948 -0.017924 -0.083205 0.040153 0.13061 -0.00071409 
bueno 0.030793 0.035611 0.062153 -0.0020451 -0.015152 0.0077517 0.010954 -0.048666 0.060155 -0.065631 0.063893 0.009785 0.076291 -0.035923 -0.036404 
gente 0.010007 -0.13668 -0.06305 -0.012588 0.030666 -0.027929 -0.052703 0.11091 -0.04265 0.082219 -0.081828 0.024071 -0.078063 -0.01577 0.024909 
interesa 0.013727 -0.076551 -0.029379 1.7576e-05 0.031409 -0.030818 -0.00030252 0.028691 0.10205 -0.002617 -0.025926 0.12571 -0.07551 -0.1581 0.069477 
angustiada 0.0091733 -0.29673 -0.19578 -0.012004 0.0524 -0.1013 -0.07948 0.19472 -0.14078 0.16009 -0.14356 0.00096169 -0.16792 0.089295 0.094026 
area -0.066962 0.11023 -0.001205 -0.056726 -0.098118 0.061346 -0.030514 0.011933 -0.041393 -0.020377 0.059985 -0.061785 0.12576 0.12871 -0.095014 
deje 0.035098 0.1911 0.14716 0.061904 0.025385 0.020122 0.076835 -0.13534 0.16679 -0.13578 0.085436 0.10091 -0.038947 -0.14376 0.076164 
vicente -0.010225 0.068027 0.023002 -0.0029569 -0.030037 0.050491 -0.02974 0.0060467 0.018494 -0.0080894 0.021466 -0.024913 0.035538 0.034851 -0.026631 
pedir -0.018649 0.046573 0.059137 0.0036153 -0.011472 0.041487 0.0029785 -0.043659 0.0016827 -0.016307 0.029202 -0.038245 0.016888 0.056859 -0.01141 
mayores -0.014184 -0.095024 -0.051571 0.00034429 -0.0043244 -0.064597 -0.0094049 0.014951 0.023104 0.01059 -0.018036 0.013762 -0.0031186 -0.011227 0.012904 
pregunto -0.046035 0.13865 0.039697 -0.03156 -0.057881 0.10729 -0.028156 -0.0043852 -0.02096 -0.046791 0.086094 -0.10568 0.12009 0.14254 -0.072645 
cosa -0.014741 -0.16061 -0.11674 -0.031814 0.004472 -0.023326 -0.071661 0.13057 -0.028073 0.039537 -0.061487 -0.0031916 -0.0031522 0.027653 -0.010162 
permiso 0.01448 0.038055 0.067459 0.019281 0.016002 0.010002 0.03283 -0.059976 0.099986 -0.06902 0.027591 0.11056 -0.060081 -0.13967 0.092053 
mantiene 0.033977 -0.024911 0.045407 0.046404 0.054591 -0.018178 0.044712 -0.040369 0.10159 -0.049442 -0.0022599 0.10844 -0.080683 -0.12277 0.076275 
voluntariado 0.013194 0.076154 0.066361 0.0012569 -0.011341 0.053479 0.02147 -0.068912 0.034007 -0.058321 0.062601 -0.042444 0.068613 0.051063 -0.030695 
centro -0.012667 0.085819 0.090999 0.0097843 0.0014142 0.061423 0.031416 -0.091417 0.071349 -0.082346 0.070775 -0.0062162 0.013753 0.0073444 0.021746 
manifiesta 0.022389 0.025889 0.042556 -0.0053609 -0.024717 0.014631 0.0036799 -0.02318 0.0099094 -0.004552 0.0042986 0.010426 0.011566 0.019738 -0.0024968 
hacen -0.023556 0.070066 0.045611 0.015179 -0.0029888 0.010241 0.031145 -0.050574 0.052882 -0.054931 0.052412 -0.019187 0.01995 0.0024754 0.0032991 
lic -0.15117 0.17663 -0.11431 -0.13694 -0.21961 0.13077 -0.19578 0.17173 -0.18221 0.032166 0.096359 -0.26542 0.30114 0.38338 -0.19022 
mujer 0.018562 -0.20814 -0.087009 0.0046962 0.039028 -0.091523 -0.030075 0.096824 -0.044224 0.075194 -0.0998 0.025128 -0.1177 0.0042564 0.039402 
abl -0.0048885 0.037784 -0.046056 -0.018333 -0.06936 0.054274 -0.069976 0.044076 -0.063162 0.023297 0.037544 -0.14794 0.14652 0.20408 -0.080564 
salio 0.027861 -0.13742 -0.043612 0.023739 0.049162 -0.070726 -0.013282 0.028349 0.087562 -0.0015373 -0.01311 0.084525 -0.075178 -0.095863 0.081355 
contenidos 0.0064863 0.0068244 0.052846 0.046387 0.060988 -0.011792 0.06693 -0.08425 0.11921 -0.084023 0.018466 0.085622 -0.067098 -0.1045 0.057206 
nadie 0.012941 -0.026952 -0.0076669 0.002244 0.023323 -0.023268 0.00044549 0.021487 0.00063755 0.031864 -0.043149 0.035126 -0.098145 -0.012602 0.072137 
hacerse -0.0099458 0.034658 0.010807 -0.019474 -0.024664 0.00041491 -0.0041096 0.0030035 -0.032485 0.017349 0.0041318 -0.036625 0.029387 0.052024 -0.01083 
reclamo -0.016823 -0.05534 -0.03073 0.0015614 -0.011021 -0.034627 -0.018928 0.03038 -0.060242 0.033151 0.014428 -0.087292 0.021638 0.11336 -0.0070506 
cuida -0.026367 -0.099191 -0.052309 -0.01045 0.035705 -0.041354 -0.0083111 0.052985 -0.032254 0.043466 -0.032447 0.0067091 -0.069394 0.011982 0.017441 
cabecera -0.058037 0.098888 0.024363 -0.041016 -0.093562 0.071338 -0.057837 0.0083738 -0.04606 -0.012811 0.069477 -0.096788 0.14678 0.13397 -0.095306 
estaban -0.022038 0.077809 0.061304 0.026035 0.0013386 0.0080394 0.044395 -0.070566 0.02201 -0.035706 0.053809 -0.046227 0.034803 0.079839 -0.0012507 
ganas 0.0068662 -0.13639 -0.059411 0.019903 0.040319 -0.055305 0.0016295 0.073897 0.02866 0.032659 -0.061071 0.062162 -0.08382 -0.050727 0.05942 
buena 0.0074995 0.23944 0.16402 -0.0071455 -0.051666 0.10979 0.042616 -0.16698 0.16263 -0.1455 0.1521 0.081847 0.10806 -0.097962 -0.10841 
comente 0.026296 -0.094625 -0.012041 0.021487 0.055451 -0.039969 0.017363 0.022415 0.049867 0.0046373 -0.026986 0.062959 -0.070199 -0.061904 0.057504 
finaliza -0.020506 0.009548 -3.5978e-05 -0.014792 -0.028713 0.027222 -0.02696 0.012193 -0.022484 -0.0027918 0.012187 -0.078641 0.050742 0.09466 -0.017072 
luisa -0.012292 0.059714 0.025578 -0.023151 -0.026252 0.038369 -0.0091683 -0.024468 0.09208 -0.064735 0.032646 0.047734 0.031245 -0.067555 -0.014787 
llamarla 0.0037459 -0.013537 0.020572 0.026699 0.037941 -0.030917 0.0082482 0.010809 -0.012245 -0.0068836 0.00019028 0.0067367 -0.04318 0.026421 0.040058 
horas 0.087399 -0.13516 0.01441 0.076877 0.094111 -0.10521 0.078432 -0.034219 0.094764 0.019559 -0.059464 0.11212 -0.11103 -0.1279 0.091557 
medio 0.035012 -0.08735 0.083965 0.10641 0.1187 -0.092856 0.10947 -0.093423 0.13044 -0.10636 0.018407 0.11525 -0.084654 -0.15601 0.11425 
control -0.0039168 -0.1392 -0.086228 -0.0060458 0.051919 -0.035927 -0.012814 0.061329 -0.054402 0.036569 -0.083269 -0.0078901 -0.075016 0.038548 0.033932 
continua 0.011813 0.0077133 0.019753 -0.0086649 0.0050065 0.01073 0.021226 -0.045165 0.039146 -0.047338 0.00020042 -0.0054092 0.0042131 -0.0061656 -0.013751 
he 0.068015 -0.15598 -0.051385 0.019546 0.085379 -0.11058 0.012076 0.10595 0.039555 0.068956 -0.072589 0.13353 -0.13692 -0.13664 0.076713 
envie -0.051942 0.073984 -0.039216 -0.056093 -0.063157 0.049308 -0.061407 0.068137 -0.056889 0.048852 0.00084166 -0.068735 0.075008 0.1273 -0.041422 
pacta -0.025259 0.1543 0.11587 0.0057651 -0.023905 0.07371 0.025987 -0.11817 0.097868 -0.10796 0.066766 0.045012 0.016933 -0.050324 -0.00083608 
esa -0.020576 -0.2187 -0.10423 -0.025836 0.023897 -0.095468 -0.035336 0.096407 0.093129 0.021834 -0.073487 0.10354 -0.11037 -0.10428 0.1081 
tramites -0.032189 -0.011071 -0.022843 -0.01119 -0.03381 0.004753 -0.037575 0.031995 -0.043515 0.018811 0.0081598 -0.041973 0.018625 0.08815 -0.0032305 
debido -0.066916 -0.00030161 -0.045626 -0.042172 -0.071365 0.05765 -0.071065 0.043992 -0.084607 0.0089036 0.054423 -0.11931 0.11352 0.16026 -0.071183 
igual 0.03356 0.0495 0.051663 0.030812 0.044273 0.0064526 0.031446 -0.050715 0.060575 -0.072223 0.025727 0.0551 -0.019462 -0.068716 0.030457 
paciente 0.0067336 0.026039 0.047764 0.018693 0.027235 0.013887 0.025112 -0.037315 0.10231 -0.048073 0.011013 0.094193 -0.08009 -0.099983 0.081842 
marta 0.010181 -0.093387 -0.0098415 -0.0046024 -0.019049 -0.049285 -0.020371 0.024996 -0.016037 0.0038458 -0.04547 0.0053668 -0.016188 0.023953 0.037344 
martes 0.010753 -0.20443 -0.087194 -0.021146 0.0038051 -0.10085 -0.047716 0.10281 -0.074166 0.060037 -0.083681 -0.019299 -0.046649 0.055767 0.039076 
activa -0.025682 0.22657 0.14557 0.00086621 -0.03937 0.086519 0.048859 -0.15609 0.13897 -0.12751 0.12851 0.050765 0.10037 -0.037214 -0.07846 
adultos -0.0048298 0.068916 0.049694 -0.0055018 -0.016888 0.045922 0.0022723 -0.026975 -0.020343 0.0042931 0.032851 -0.059978 0.042261 0.093261 -0.037868 
hacia -0.012937 0.20355 0.12495 -0.0040657 -0.055824 0.10989 0.030626 -0.12131 0.14024 -0.13028 0.13155 0.082539 0.10022 -0.080402 -0.06475 
necesitar -0.032024 0.045988 -0.0011935 -0.027628 -0.058244 0.031368 -0.043126 0.012985 -0.040515 -0.0057249 0.037102 -0.052662 0.0777 0.081556 -0.013734 
mirando 0.034849 0.1289 0.14132 0.0090226 -0.024563 0.058667 0.045341 -0.1318 0.10189 -0.12475 0.097637 0.040397 0.044697 -0.045851 -0.027161 
habian -0.018341 0.0037086 -0.01225 -0.006046 0.003127 0.00847 -0.011354 0.01028 0.02707 -0.0027063 0.0043098 0.0093002 -0.010708 0.017834 0.006277 
extrana 0.025906 -0.38197 -0.20302 -0.006715 0.070747 -0.13817 -0.077902 0.21932 -0.16477 0.16499 -0.16563 0.029281 -0.24522 0.078801 0.15987 
miedo 0.019907 -0.26029 -0.11862 0.0027536 0.043097 -0.07925 -0.043148 0.13067 -0.085555 0.090492 -0.12101 0.031095 -0.15714 0.036831 0.12806 
escucha 0.0033833 -0.041109 0.0092356 0.012 0.032691 -0.020835 0.030982 -0.024468 0.048648 -0.012638 -0.010385 0.079559 -0.077304 -0.097577 0.057402 
recibido -0.080328 0.0020616 -0.081902 -0.081904 -0.084041 0.072136 -0.075967 0.087416 -0.10062 0.026263 0.04169 -0.13067 0.12643 0.17068 -0.073511 
novedad -0.0079732 0.14207 0.096362 0.0026823 -0.046041 0.071036 0.017197 -0.085197 -0.019229 -0.015273 0.058133 -0.093092 0.089738 0.11974 -0.063402 
amigas -0.012414 0.13512 0.096102 -0.001882 -0.031261 0.074089 0.028524 -0.091817 0.091875 -0.092265 0.085784 0.044818 0.065301 -0.040802 0.020841 
varios -0.0070409 -0.074393 -0.037267 -0.019246 0.0073171 -0.021583 -0.026752 0.055536 -0.033373 0.038451 -0.029149 -0.0070094 -0.021939 0.017924 -0.0052819 
jubilacion -0.044421 0.028936 0.0048346 -0.012535 -0.019559 0.022386 8.2962e-05 -0.012047 0.037841 -0.018668 0.020384 0.0067933 0.033073 0.0057662 -0.015027 
barrio 0.022239 -0.089689 -0.0093698 0.0082245 0.021605 -0.052703 -0.0058204 0.030971 -0.0147 -0.00096196 -0.021633 -0.0020389 -0.032001 -0.0092378 0.0074317 
conversacion -0.010254 -0.051763 0.031198 0.017488 0.032377 -0.019134 0.036772 -0.040693 0.079469 -0.065792 5.3802e-05 0.055034 -0.03358 -0.06113 0.042938 
hice -0.028287 0.12335 -0.07568 -0.027218 -0.080888 0.071935 -0.078766 0.088557 -0.072523 0.011696 0.03371 -0.095613 0.11446 0.15131 -0.053424 
i 0.011455 0.2546 0.13303 0.0011731 -0.069845 0.12174 0.070366 -0.16635 -0.014195 -0.021232 0.0696 -0.06499 0.16696 0.11075 -0.12026 
charlar -0.0022532 -0.088182 0.0091713 0.039082 0.050097 -0.063246 0.021573 0.022513 0.010554 0.0090969 -0.037856 0.057985 -0.082023 -0.062666 0.058093 
cocina -0.023478 0.12034 0.07104 0.0032803 -0.023864 0.060898 0.013651 -0.08167 0.054756 -0.077977 0.074051 -0.023154 0.068615 0.032099 -0.062877 
compra -0.028306 0.026707 0.05383 -0.008521 0.0007237 0.015444 0.0054093 -0.015535 0.032691 -0.06359 0.026427 0.050531 0.0077723 -0.045078 0.0086954 
manifesto 0.010579 0.016151 0.065432 0.034767 0.022855 -0.010888 0.021031 -0.054099 0.057911 -0.054816 0.02239 0.025068 -0.0085025 -0.018565 0.0087349 
alicia -0.045623 0.075978 0.012017 -0.044169 -0.080728 0.044635 -0.039074 0.013704 0.018172 -0.016652 0.070144 -0.029136 0.11688 0.066549 -0.081201 
mayo 0.019863 -0.21977 -0.052424 0.041751 0.052861 -0.13594 0.013914 0.043143 0.022922 -0.014729 -0.083616 0.077735 -0.10872 -0.089515 0.082694 
primaria 0.0053122 -0.029772 0.0052071 0.008887 0.012449 -0.0019734 0.0041155 -0.00010071 0.012008 -0.023756 -0.0033947 0.014407 0.027614 -0.018562 0.010249 
vuelvo 0.075093 -0.19359 0.012908 0.083522 0.11457 -0.12819 0.071345 -0.050574 0.14257 -0.024422 -0.096558 0.13146 -0.14911 -0.16283 0.14262 
meses -0.043248 -0.074006 -0.053603 -0.0457 -0.046754 -0.039109 -0.051533 0.064 -0.097416 0.028356 -0.016717 -0.14488 0.13364 0.18062 -0.056275 
hora 0.098458 -0.12045 0.030069 0.089047 0.098689 -0.10935 0.094963 -0.062172 0.13436 -0.012056 -0.074534 0.15353 -0.1102 -0.19101 0.11121 
envia -0.086073 0.028939 -0.095391 -0.074134 -0.075575 0.059477 -0.083299 0.091523 -0.063909 0.028309 0.022241 -0.075836 0.078187 0.15055 -0.045995 
pasa 0.017979 -0.21308 -0.074971 0.026097 0.076314 -0.10043 -0.017628 0.082924 0.041478 0.0019918 -0.078034 0.09923 -0.16332 -0.094447 0.10742 
hermano 0.011505 -0.18184 -0.09009 0.0088109 0.051135 -0.068818 -0.026614 0.097387 -0.038829 0.055638 -0.064136 0.098775 -0.12741 -0.078172 0.075594 
largo 0.01213 -0.19208 -0.11383 0.013948 0.053348 -0.086139 -0.024145 0.12826 -0.071104 0.083333 -0.094202 0.036377 -0.12405 0.0031631 0.091664 
comunica 0.0097083 0.10034 0.091251 0.003328 0.003085 0.031888 0.044119 -0.098255 0.10076 -0.10689 0.077447 0.052589 0.018362 -0.05184 -0.0080975 
queda 0.00038513 0.047257 0.040889 0.010616 -0.0073066 0.02408 0.015695 -0.044609 0.035488 -0.030129 0.034666 0.0011512 0.036867 0.014687 0.00215 
internet 0.018394 -0.056323 -0.021261 0.0092699 0.013601 0.0010142 -0.025924 0.037606 0.0057908 0.016874 -0.011205 0.050448 -0.059547 -0.049278 0.028752 
medicos 0.010141 -0.048767 -0.018351 0.013527 0.030805 -0.036072 0.0025328 0.010953 0.012145 -0.0058909 -0.010669 0.008611 -0.020351 0.002156 0.02749 
misma 0.0055311 0.036914 0.084302 0.01473 0.017754 0.0010786 0.049984 -0.078433 0.090658 -0.088341 -0.0090634 0.1145 -0.10066 -0.14114 0.12053 
seguimiento 0.012473 -0.084619 -0.041075 0.003703 0.025952 -0.010039 -0.024563 0.035345 -0.043499 0.045307 -0.028826 -0.0078549 -0.046232 0.042697 0.034291 
cama -0.016685 -0.13522 -0.087147 -0.046175 -0.024782 -0.027839 -0.070263 0.11048 -0.098565 0.062364 -0.03566 0.0027329 -0.016206 0.0554 0.023684 
agradecido -0.0061609 0.10896 0.11075 0.025698 0.011259 0.043867 0.063114 -0.11757 0.10845 -0.11286 0.086544 0.066207 0.021432 -0.079052 0.0062398 
mucha 0.03282 -0.2027 -0.061766 0.031437 0.067809 -0.090363 0.013016 0.046907 0.0054579 0.050556 -0.098715 0.10464 -0.13765 -0.11898 0.073085 
realice -0.036659 0.083703 0.014489 -0.028858 -0.064924 0.026375 -0.016748 -0.0093195 -0.0098163 -0.011982 0.054015 -0.058445 0.10027 0.11354 -0.072611 
tampoco 0.020268 -0.23356 -0.12027 0.00053986 0.039429 -0.094013 -0.036838 0.10806 -0.081688 0.07531 -0.11186 0.027146 -0.11517 0.016313 0.061589 
nuera 0.012126 0.13759 0.12151 0.011753 -0.020731 0.038559 0.016254 -0.086785 0.040786 -0.059887 0.058043 -0.0040487 0.061869 0.0066959 -0.011401 
recien -0.010842 -0.044059 -0.043433 -0.026798 -0.01839 -0.005919 -0.018135 0.016517 0.0049361 0.020079 -0.0008941 -0.025201 0.00969 0.014586 0.0072708 
amiga -0.017472 0.14362 0.094852 0.007439 -0.03017 0.085565 0.0053084 -0.095288 0.085969 -0.083396 0.072247 0.058246 0.065458 -0.053403 0.011803 
nombre -0.0084799 0.054862 0.01665 -0.016627 -0.052679 0.046018 -0.027802 0.029155 -0.098554 0.046911 0.010167 -0.11342 0.083849 0.16256 -0.068245 
abril 0.011657 -0.086527 0.0026557 0.040852 0.068577 -0.052311 0.029147 -0.0021872 0.057129 -0.031234 -0.0027143 0.02684 -0.030859 -0.044683 0.066828 
llevar -0.071375 -0.012412 -0.10019 -0.099218 -0.10502 0.029036 -0.11789 0.13634 -0.14158 0.055609 -0.00081715 -0.14435 0.12463 0.21332 -0.085242 
realizado -0.0051203 0.064527 0.052082 -0.00080614 -0.016653 0.037668 0.017066 -0.060698 0.03509 -0.053326 0.062388 -0.027387 0.071065 0.05343 -0.035349 
gestion -0.075292 0.094799 0.043157 -0.039942 -0.091053 0.058433 -0.0365 -0.0072643 -0.069852 0.015426 0.043686 -0.13384 0.14939 0.20767 -0.097561 
ve 0.058829 -0.10171 -0.045489 -0.006081 0.067984 -0.053095 0.0015502 0.098398 -0.025323 0.0636 -0.094056 0.042608 -0.1204 -0.059907 0.05545 
tenga 0.0096933 -0.14871 -0.089304 0.0082522 0.015135 -0.047928 -0.056811 0.088688 -0.081905 0.068148 -0.075029 -0.022214 -0.030281 0.032161 0.021334 
volvio 0.059866 -0.14464 0.040187 0.079431 0.092459 -0.092582 0.063145 -0.042969 0.078776 -0.06525 -0.0094314 0.079084 -0.13588 -0.083933 0.10937 
pesar -0.0034172 -0.096366 -0.031718 -0.022082 -0.011017 -0.040827 -0.039176 0.062435 0.010891 0.021641 -0.014333 0.038499 -0.0091483 -0.017306 0.0057612 
estudios 0.0012288 -0.20971 -0.11716 -0.0044582 0.031351 -0.075333 -0.05676 0.14063 -0.10076 0.09156 -0.080556 0.0070206 -0.10277 0.010167 0.052395 
proximo 0.0022096 0.01402 0.042405 0.028015 0.020854 -0.0058885 0.027946 -0.018654 0.036167 -0.041933 0.025366 0.032718 -0.030716 -0.041795 0.03116 
uno 0.04159 -0.084022 0.0059013 0.055726 0.070702 -0.061015 0.019545 -0.01557 0.035365 -0.023687 -0.014953 0.091863 -0.10649 -0.1095 0.094549 
amable 0.0011309 0.23104 0.14173 -0.0012471 -0.038985 0.09534 0.036813 -0.13108 0.11754 -0.088116 0.12629 -0.011565 0.122 0.02754 -0.084282 
mama -0.0011716 -0.078377 -0.026167 0.0086031 -0.011359 -0.036949 -0.02987 0.052356 -0.059123 0.032331 -0.057489 -0.0266 -0.027543 0.087657 0.027629 
urgencia 0.0041705 -0.21524 -0.12278 -0.023695 0.017735 -0.070619 -0.062329 0.13917 -0.10918 0.10502 -0.081994 -0.0072443 -0.10175 0.06509 0.048155 
pasando 0.01333 -0.037665 0.021214 -0.0030814 0.0098905 -0.0020553 -0.0061947 0.0060432 0.012674 -0.014517 0.026793 -0.01652 0.023 0.045603 -0.020545 
discapacidad 0.0003632 -0.061529 -0.031155 0.0030702 0.031405 -0.037298 0.00038219 0.023131 -0.014319 0.020785 -0.018981 0.01525 -0.076584 0.0040246 0.039522 
desarrollo 0.010151 -0.084359 -0.042369 -0.0062731 3.393e-05 -0.034683 -0.032633 0.049454 -0.050744 0.040981 -0.031639 -0.022276 -0.0031099 0.055304 0.023596 
varias 0.024739 -0.08584 -0.061255 -0.020589 -0.0082259 -0.058522 -0.031496 0.066442 -0.052067 0.020231 -0.024492 -0.058429 0.029202 0.088391 0.0047474 
vecino 0.059799 -0.072414 0.06858 0.061196 0.076598 -0.030956 0.047469 -0.054506 0.10605 -0.067894 0.011669 0.082355 -0.069488 -0.13668 0.073408 
necesario 0.024941 0.094644 0.12084 0.021202 -0.0067088 0.025735 0.042933 -0.1138 0.11525 -0.10146 0.089606 0.041708 0.066758 -0.083633 0.00122 
otros -0.0012092 -0.21074 -0.14253 -0.01992 0.018631 -0.064549 -0.074769 0.15226 -0.12233 0.1221 -0.092388 -0.034983 -0.075295 0.116 0.018362 
ofreci -0.013952 0.11636 0.068522 -0.012505 -0.011987 0.042996 0.037067 -0.088589 0.052605 -0.066177 0.055269 0.0055664 0.04953 0.0020057 -0.034429 
nunca 0.020544 -0.044354 -0.019093 -0.012748 0.020802 -0.022992 -0.007641 0.011234 -0.019518 0.025067 -0.020337 0.041345 -0.035906 -0.03359 0.0089506 
personas 0.00084018 0.084678 0.091784 0.029308 0.012718 0.021473 0.049243 -0.08847 0.11409 -0.089668 0.054782 0.065987 -0.0048774 -0.072395 0.035472 
martin 0.027145 0.076361 0.10748 -0.0023535 -0.029424 0.013357 0.025521 -0.10133 0.015963 -0.049453 0.044629 -0.089674 0.10847 0.10479 -0.064308 
fueron 0.016295 -0.027534 0.046535 0.064685 0.067527 -0.05677 0.052692 -0.05511 0.0966 -0.069063 0.022395 0.078109 -0.076078 -0.084643 0.067048 
carlos -0.039956 0.19427 0.13172 -0.0078277 -0.072502 0.099491 -0.0089517 -0.089063 0.012289 -0.058851 0.098159 -0.089794 0.14706 0.10421 -0.1076 
lindo -0.018353 0.1259 0.12432 -0.0030604 -0.038376 0.084948 0.020889 -0.073366 0.044779 -0.0839 0.1166 -0.052207 0.10592 0.083139 -0.051488 
dolorida 0.0039208 -0.2983 -0.18922 -0.041955 0.021814 -0.087402 -0.098866 0.20415 -0.20843 0.18135 -0.1382 -0.075334 -0.085303 0.1631 0.0063288 
cuidandose 0.0028617 0.012444 0.022705 -0.010645 0.0061407 0.0094785 0.0066628 -0.01103 0.00015412 -0.014233 -0.0010641 0.012188 0.0027167 -0.0067933 -0.012562 
estamos 0.014488 -0.0023435 0.031494 0.01572 0.012399 -0.00085721 0.010907 -0.035225 0.037386 -0.013992 0.02912 -0.018275 -0.0027418 0.029423 0.011109 
toma 0.015901 -0.13291 -0.028199 0.036554 0.052798 -0.0676 0.0068974 0.027846 -0.010479 0.010802 -0.032875 0.024632 -0.091733 -0.0077036 0.075393 
sobrina -0.010942 0.076006 0.083378 0.024614 0.018586 0.024195 0.04023 -0.072099 0.067744 -0.06973 0.043743 0.020161 -0.030956 -0.045479 0.069379 
turnos 0.013202 0.12477 0.096226 0.0023508 -0.018473 0.061143 0.026029 -0.096607 0.06968 -0.052385 0.087244 -0.0242 0.04795 0.057139 -0.048852 
posibilidad 0.0057651 -0.028168 0.038189 0.025088 0.055488 -0.028066 0.049937 -0.036112 0.072305 -0.05782 0.012423 0.053524 -0.066707 -0.069888 0.048236 
susana -0.013426 -0.066695 -0.035496 0.0050105 0.016583 -0.038978 -0.011553 0.028101 0.00096848 0.0086499 -0.0121 0.00796 -0.03692 0.0066562 0.031496 
ii -0.00047112 0.17522 0.1115 -0.0055583 -0.026103 0.064001 0.057863 -0.13994 -0.021138 -0.020432 0.060427 -0.029709 0.10673 0.066642 -0.058611 
lado -0.040147 -0.044011 -0.03849 -0.001759 -0.009552 0.0054442 -0.0034767 0.035274 -0.077657 -0.0035302 0.022021 -0.10802 0.11118 0.13081 -0.010977 
siendo 0.021758 -0.082251 0.0033765 -0.0011163 0.007744 -0.025759 0.0050319 0.013773 0.0044055 -0.010972 0.0019102 0.011888 -0.017769 0.025558 0.032416 
ocupada 0.026017 -0.07578 -0.038645 0.02851 0.046022 -0.038851 0.024843 -0.0090605 0.056493 0.016024 -0.031735 0.14134 -0.094 -0.12172 0.032212 
video 0.014728 0.028504 0.057719 0.016874 0.011597 0.010215 0.030819 -0.052332 0.038177 -0.035728 0.054103 0.028219 0.034967 -0.0143 -0.029836 
norma -0.026578 0.11512 0.069341 -0.009357 -0.033591 0.051007 0.0032514 -0.067001 -0.025026 -0.021543 0.04388 -0.067297 0.076773 0.081432 -0.043523 
psicologico -0.034261 -0.15826 -0.12428 -0.050552 -0.036431 -0.02629 -0.094521 0.14374 -0.15832 0.11201 -0.052905 -0.1111 0.0040434 0.16751 -0.037477 
algunos 0.02113 -0.088131 -0.03054 0.020648 0.030157 -0.034039 -0.0098984 0.026009 0.03103 0.0069258 -0.027161 0.050607 -0.083038 -0.062375 0.038927 
estuvimos 0.017697 -0.0037428 0.040527 0.013357 0.0040388 -0.0026888 0.011922 -0.024477 0.046799 -0.02825 0.021115 0.027348 -0.025855 -0.041282 0.030458 
taller -0.037454 -0.052062 -0.062582 -0.049926 -0.041981 -0.0166 -0.055392 0.074506 -0.067924 0.047948 -0.033949 -0.031352 0.02482 0.061524 -0.0051713 
presion -0.038076 -0.17737 -0.10649 -0.0050339 0.01702 -0.073263 -0.040952 0.10687 -0.067508 0.072578 -0.073725 0.022389 -0.079815 0.020545 0.065743 
urgente 0.018397 -0.29012 -0.16986 -0.017576 0.058637 -0.089618 -0.079733 0.19615 -0.1376 0.16529 -0.15382 0.0035648 -0.1812 0.072595 0.075685 
traves -0.018893 -0.10921 -0.081602 -0.053407 -0.033686 -0.048344 -0.059473 0.090498 -0.074609 0.069831 -0.042185 -0.058485 -0.021628 0.090516 -0.002554 
agosto 0.023856 -0.10906 -0.043739 0.010586 0.033422 -0.035757 -0.014151 0.046264 -0.033259 0.021784 -0.038495 0.0087323 -0.059448 0.024838 0.033411 
menos 0.013249 -0.093041 -0.045772 -0.0033827 0.00032862 -0.032054 -0.033998 0.056834 -0.032165 0.010468 -0.032309 -0.027577 0.024854 0.041013 0.024308 
amigos -0.0013202 0.13171 0.077129 -0.0089781 -0.035736 0.066425 0.012856 -0.077595 0.085608 -0.074851 0.076597 0.054367 0.040096 -0.056114 8.1529e-05 
pone 0.039705 -0.13502 -0.019249 0.068583 0.084023 -0.10213 0.040389 0.047994 0.026091 0.0020781 -0.078637 0.10322 -0.11672 -0.098363 0.06243 
primera -0.0020876 0.13813 0.12379 0.028896 -0.014876 0.054312 0.036396 -0.092397 0.076822 -0.086607 0.07887 0.05207 0.063821 -0.059919 -0.014612 
durante 0.055917 -0.15655 -0.043017 0.038874 0.073693 -0.07111 0.022612 0.060257 0.027561 0.029646 -0.064128 0.083625 -0.12889 -0.09858 0.091008 
enojada 0.014508 -0.24424 -0.15247 -0.012058 0.044524 -0.083384 -0.059704 0.14946 -0.15101 0.14198 -0.11553 -0.0017277 -0.14095 0.097526 0.075054 
nota 0.016582 0.11153 0.078852 -0.01356 -0.014141 0.063382 0.019426 -0.093736 0.036624 -0.056429 0.040275 0.024182 -0.012958 -0.023786 0.037437 
voluntarios 0.0029992 0.11414 0.079275 -0.0089635 -0.021018 0.066189 0.017559 -0.068391 0.037376 -0.05215 0.070146 -0.028804 0.05686 0.038875 -0.055057 
motivo 0.039574 -0.0023464 0.054807 0.033559 0.040953 -0.0016556 0.03393 -0.065095 0.070488 -0.047673 0.034385 0.016382 -0.010904 -0.028099 0.00628 
han -0.020177 0.10779 0.025064 -0.012879 -0.052865 0.06604 -0.010588 -0.029657 -0.022907 -0.036699 0.065288 -0.092362 0.099662 0.1405 -0.084913 
haber -0.083305 0.17861 0.063116 -0.060381 -0.11796 0.10559 -0.064081 0.016415 -0.064708 -0.012749 0.058176 -0.12365 0.17424 0.1844 -0.08006 
algunas 0.025298 -0.096266 -0.015388 0.029416 0.03881 -0.041465 0.0086167 0.026891 0.047044 -0.0026211 -0.026667 0.057154 -0.07877 -0.044272 0.06123 
talleres -0.041613 0.010919 -0.0010959 -0.017602 -0.017497 -0.0044367 -0.002692 -0.001227 0.022937 -0.022365 0.012887 0.0034172 0.012594 -0.0022444 0.01152 
sol 0.0096715 -0.016095 0.037287 0.046223 0.054814 -0.029863 0.027477 -0.038323 0.035772 -0.046579 0.014428 0.030348 -0.048775 -0.030199 0.071576 
mirta 0.017748 0.10178 0.11486 0.0049235 -0.01263 0.041715 0.050991 -0.10097 0.083895 -0.076571 0.031954 0.06047 -0.0082194 -0.051385 0.055115 
aviso -0.014704 0.16837 0.1464 -0.014931 -0.060716 0.063219 0.01856 -0.10385 0.069803 -0.081854 0.078672 -0.025406 0.05465 0.032264 -0.017944 
lleva -0.056143 0.021955 -0.044566 -0.061087 -0.055795 0.030398 -0.059549 0.064425 -0.065598 0.0076639 0.014656 -0.073991 0.08664 0.11583 -0.055374 
hacerle -0.060349 0.13059 -0.0052846 -0.037622 -0.076638 0.052887 -0.034096 -0.0024877 -0.065252 0.0094104 0.032221 -0.10937 0.12348 0.1498 -0.069513 
medicamento -0.0069172 0.091256 0.071596 -0.0018328 -0.02511 0.049137 -0.0037487 -0.045665 -0.0074874 -0.039729 0.060683 -0.072105 0.085566 0.10828 -0.028476 
sentia 0.0078739 -0.12936 -0.046877 -0.0044164 0.028406 -0.017848 -0.036226 0.055896 -0.067893 0.058951 -0.039861 0.065373 -0.070727 -0.03265 0.025825 
salita 0.018136 -0.08179 -0.054789 0.01216 -0.0030152 -0.02209 -0.036697 0.033996 0.015841 0.033031 -0.022569 0.022411 -0.01229 -0.015783 0.033587 
dificil 0.00079904 -0.15417 -0.10669 -0.024573 0.024709 -0.053145 -0.051648 0.11746 -0.015566 0.072408 -0.0638 0.067019 -0.066276 -0.061937 0.036405 
puedan -0.03447 0.065905 0.0062621 -0.026789 -0.074588 0.046481 -0.050955 0.014375 -0.060596 0.012675 0.042064 -0.10965 0.13575 0.17253 -0.083065 
necesite -0.017486 0.07319 0.023452 -0.017378 -0.040745 0.02832 -0.020312 -0.011316 0.0073746 -0.015426 0.045522 -0.02386 0.069057 0.036464 0.0033869 
productos 0.0033339 -0.064773 -0.022745 0.00041665 0.014898 -0.014325 -0.010059 0.038708 -0.018578 0.031761 -0.015477 0.0093641 -0.030559 0.043111 0.012183 
etc -0.019576 0.10376 0.01778 -0.0077528 -0.078205 0.083215 -0.05037 -0.023565 -0.017849 -0.03678 0.065225 -0.057751 0.085978 0.123 -0.021391 
brevedad -0.033218 0.1183 0.064898 -0.012123 -0.063023 0.083035 0.005913 -0.04657 -0.014936 -0.019152 0.045464 -0.08132 0.10168 0.092784 -0.064621 
trabajar 0.00074908 -0.076116 -0.041808 -0.013302 0.0058681 -0.011217 -0.035172 0.066295 -0.042204 0.045678 -0.021224 -0.021115 -0.048989 0.069477 0.01294 
contra 0.0042427 -0.04371 0.01532 0.014118 0.045339 -0.015076 0.027338 -0.01843 0.058658 -0.059311 -0.014981 0.035863 -0.0493 -0.048469 0.031049 
clases -0.027489 0.1345 0.087451 -0.0074963 -0.042039 0.05815 0.011829 -0.08142 0.038394 -0.085008 0.095385 -0.040477 0.11368 0.055337 -0.053575 
jueves -0.008418 0.18393 0.13559 -0.020681 -0.057686 0.078106 0.017544 -0.10898 0.10139 -0.095489 0.12007 -0.044964 0.1163 -0.0065257 -0.08153 
demas -0.00091691 -0.12501 -0.06315 0.016136 -0.009352 -0.053744 -0.035377 0.065675 -0.056623 0.025716 -0.0087466 -0.02705 0.0022723 0.056351 -0.0014512 
trabaja -0.013516 0.070545 0.043167 -0.01399 -0.019532 0.052916 -0.0092517 -0.01862 0.0023693 -0.0048904 0.038545 -0.034788 0.025742 0.082706 -0.026273 
consigue -0.0096183 -0.13006 -0.097053 -0.034215 0.0096678 -0.028984 -0.057791 0.1027 -0.067629 0.046924 -0.058002 -0.0060714 -0.026546 0.032998 0.018713 
grupo 0.031624 0.1742 0.16818 0.06007 0.018613 0.043438 0.10444 -0.20552 0.2072 -0.1541 0.094277 0.16152 -0.021644 -0.20591 0.063457 
ayudar -0.048756 -0.030739 -0.053287 -0.019716 -0.070529 9.7667e-05 -0.073244 0.085904 -0.10386 0.052298 -0.01083 -0.10118 0.079054 0.13712 -0.041848 
patricia -0.014534 0.14311 0.091863 -0.0076258 -0.034448 0.072927 0.008227 -0.082007 0.079719 -0.078991 0.090982 0.028 0.07296 -0.00073022 -0.03462 
tel 0.0058792 -0.10416 -0.00706 0.056003 0.03465 -0.067241 0.016674 0.012882 0.0052536 -0.010287 0.0091075 0.0015306 0.0047096 -0.0015644 0.020964 
pierna -0.0093151 -0.19485 -0.11936 -0.030492 0.0068003 -0.066846 -0.071647 0.14262 -0.087303 0.10135 -0.075181 -0.01486 -0.081479 0.045569 0.019807 
entretiene -0.0077519 0.10965 0.083425 0.0013714 -0.013196 0.052907 0.017582 -0.066073 0.084128 -0.064268 0.052145 0.050927 -0.0094193 -0.047241 0.033213 
leticia -0.049591 0.15987 0.021934 -0.058377 -0.096987 0.10446 -0.050667 -0.016513 0.030487 -0.040685 0.099995 -0.035989 0.15246 0.078936 -0.11751 
comunicarnos 0.00079055 0.10016 0.10238 0.024887 0.0073271 0.027679 0.047542 -0.10016 0.10945 -0.10416 0.074509 0.058333 0.0094067 -0.05927 -0.0052782 
tranquilo 0.035575 0.069902 0.10017 0.026237 0.016959 0.020944 0.048734 -0.10459 0.12426 -0.092423 0.049858 0.10235 -0.05899 -0.12487 0.072435 
dan -0.0071365 0.010309 -0.039005 -0.045226 -0.044444 0.023369 -0.050043 0.005473 -0.084315 0.044068 0.021974 -0.082127 0.056971 0.15493 -0.085316 
interesada 0.011401 -0.057563 -0.031237 -0.0014037 0.023577 -0.019748 -0.0017903 0.018029 0.049553 0.018972 -0.013854 0.092898 -0.062371 -0.093631 0.044772 
solicite -0.097855 -0.020249 -0.075526 -0.074514 -0.10882 -0.0037039 -0.090489 0.10078 -0.081339 0.025066 0.027673 -0.13271 0.14496 0.18357 -0.057008 
consultar -0.039365 0.021289 -0.014848 -0.046807 -0.057209 0.042514 -0.056526 0.047426 -0.046314 -0.00083501 0.0073959 -0.063127 0.069911 0.091714 -0.022071 
covid -0.0053136 -0.27649 -0.19578 -0.042204 0.020376 -0.075059 -0.10071 0.20939 -0.13713 0.15031 -0.10301 0.053994 -0.1201 -0.027604 0.020348 
agradecidos 0.012318 0.079083 0.10813 0.034092 0.030454 0.012126 0.070327 -0.11588 0.1235 -0.10021 0.058428 0.087392 -0.012893 -0.10656 0.026746 
estaran 0.012406 -0.086242 -0.022293 0.019353 -0.0027572 -0.048032 -0.023379 0.052164 -0.044099 0.018009 -0.020691 -0.05392 0.011968 0.079132 0.025138 
viviendo 0.0018227 -0.014822 0.017566 -0.033174 -0.031667 0.012683 -0.022059 0.0057543 -0.034808 0.010622 0.015041 -0.045624 0.053413 0.10436 -0.0433 
domingo 0.001979 0.098673 0.082425 -0.0017556 -0.026906 0.055439 0.020248 -0.082546 0.049784 -0.07595 0.072931 -0.012835 0.052975 -0.016115 -0.0064904 
cuadras 0.0019154 0.041991 0.024769 -0.00073522 -0.015384 0.021642 0.008018 -0.020092 0.0090578 -0.032503 0.044358 -0.014853 0.026928 0.032675 -0.032241 
prefiere -0.023692 0.093998 0.089166 0.033776 0.040073 0.020104 0.06779 -0.091261 0.11727 -0.07501 0.060205 0.064738 -0.025512 -0.085639 0.026312 
martina -0.0038612 0.071134 0.09462 -0.020187 -0.056632 0.031316 -0.019261 -0.033962 -0.046629 -0.0092344 0.024995 -0.11671 0.11182 0.15734 -0.061872 
tres -0.041668 -0.071376 -0.10013 -0.048187 -0.057748 -0.0039526 -0.049101 0.10431 -0.065287 0.051769 -0.0062134 -0.089755 0.034045 0.14514 -0.014873 
angustia -0.003365 -0.32417 -0.22277 -0.025935 0.043042 -0.096203 -0.10528 0.23223 -0.15598 0.17148 -0.15504 -0.014747 -0.16602 0.1123 0.10732 
telefonica 0.0059558 0.0041405 0.043855 0.00971 0.039538 -0.020463 0.051211 -0.065137 0.080092 -0.068547 0.013462 0.068459 -0.051238 -0.07191 0.054522 
psiquiatra -0.010521 -0.17163 -0.096741 -0.025707 0.014648 -0.059007 -0.060522 0.12564 -0.09457 0.092513 -0.08115 -0.047686 -0.06096 0.080271 0.01336 
llevo -0.058459 -0.019696 -0.054621 -0.045249 -0.062774 0.031846 -0.086152 0.10578 -0.080164 0.036939 0.014562 -0.095768 0.076326 0.15749 -0.058379 
tengo 0.035102 -0.11097 -0.022298 0.029165 0.034371 -0.060714 -0.0034157 0.033205 -0.021607 0.0047416 -0.025717 0.019097 -0.038741 -0.025009 0.023237 
cambio 0.022288 -0.007473 0.069059 0.040334 0.0083608 -0.00072368 0.031006 -0.049443 0.05439 -0.069725 0.051687 -0.0050699 0.01978 1.6166e-05 0.006505 
explique 0.012833 -0.054153 -0.0030525 0.018023 0.06104 -0.042547 0.021764 0.012373 0.021764 0.0051661 -0.025715 0.048545 -0.075214 -0.050095 0.061766 
contencion -0.0083147 -0.089181 -0.034659 -0.0026236 0.021353 -0.02552 1.7942e-05 0.018274 0.011822 -0.0079058 -0.037323 0.055734 -0.046448 -0.048321 0.017645 
contento 0.0025771 0.10489 0.099594 0.0039353 0.0096378 0.065056 0.04884 -0.11001 0.091349 -0.096388 0.069537 -0.0010041 0.034685 0.015781 -0.013754 
hecho 0.021898 -0.064669 -0.02651 0.037532 0.045481 -0.046316 0.027002 -0.008449 0.025263 0.025811 -0.01267 0.053512 -0.047664 -0.086001 0.01904 
alta -0.023844 -0.025926 -0.013458 -0.017227 -0.010379 0.010907 -0.017967 0.013657 -0.010239 0.0044446 -0.018674 0.072592 -0.058248 -0.067569 0.029948 
partir -0.018313 0.16578 0.12556 -0.012976 -0.039596 0.04913 0.028793 -0.1097 0.016303 -0.041353 0.072126 -0.09195 0.095022 0.1226 -0.049495 
tipo -0.016515 0.055823 0.050041 0.049307 -0.014181 0.0026574 0.02225 -0.02458 0.020232 -0.046862 0.034851 -0.037238 0.039116 0.060455 -0.0025285 
economica -0.0097241 -0.20903 -0.15106 -0.050562 0.009489 -0.07361 -0.075234 0.15001 -0.14613 0.11293 -0.098654 -0.076001 -0.018361 0.12989 0.0040864 
esperar -0.010768 -0.072632 -0.048884 -0.02652 -0.037026 -0.020662 -0.055229 0.07457 -0.096048 0.051986 -0.032437 -0.054044 0.0065194 0.10721 -0.01952 
encontre 0.021068 -0.10813 -0.035628 0.017088 0.062647 -0.062701 0.019509 0.02827 0.010367 -0.0017662 -0.043692 0.0335 -0.089475 -0.026772 0.061631 
otras 0.022202 -0.1854 -0.074871 0.011518 0.039819 -0.068095 -0.024092 0.090434 -0.053406 0.06087 -0.045507 -0.015794 -0.064996 0.069019 0.021894 
ayudarla -0.034759 -0.0040854 -0.012135 -0.018134 -0.038131 -0.001954 -0.042748 0.055328 -0.085509 0.038774 -0.0037052 -0.062642 0.044727 0.094953 -0.034078 
contacte -0.00035788 0.040524 0.026869 -0.00026733 0.02055 0.021397 0.028877 -0.040696 0.052398 -0.04311 -7.2502e-05 0.042317 -0.00842 -0.016078 0.0017332 
certificado -0.0069206 -0.10282 -0.066435 -0.021672 -0.0030905 -0.023722 -0.04498 0.079629 -0.086368 0.058826 -0.038874 -0.055878 0.0057116 0.099318 -0.016297 
cristina -0.041459 0.086946 0.034144 -0.03166 -0.06802 0.07282 -0.037178 0.024982 -0.070504 0.010416 0.030326 -0.083135 0.10321 0.13397 -0.074979 
ayudan -0.030815 0.031159 0.0017159 -0.023962 -0.050552 0.020394 -0.024165 0.003134 -0.028881 0.0067896 0.028542 -0.053209 0.082002 0.080726 -0.060302 
horario 0.057929 -0.070075 0.040771 0.055483 0.076619 -0.064759 0.076168 -0.053096 0.10236 -0.031577 -0.016217 0.093348 -0.058572 -0.13118 0.06238 
tele 0.020892 0.091829 0.076968 0.025887 0.043238 0.0059657 0.067952 -0.083622 0.11837 -0.093485 0.029847 0.083913 -0.050852 -0.10085 0.067089 
llega -0.080836 0.053642 -0.016474 -0.062643 -0.088223 0.089359 -0.081385 0.054265 -0.076962 0.011219 0.027957 -0.10281 0.1295 0.14683 -0.06865 
entregan -0.1037 0.13365 -0.0028548 -0.081264 -0.11603 0.13423 -0.1048 0.075681 -0.10138 0.011155 0.052937 -0.13154 0.13547 0.21449 -0.076005 
obra -0.045369 0.0034726 -0.037572 -0.063388 -0.103 -0.011335 -0.083527 0.081487 -0.10367 0.019255 0.018796 -0.08536 0.12387 0.17473 -0.065522 
comunicado -0.0053689 0.051753 0.056304 2.8319e-05 -0.0023936 0.026809 0.020377 -0.050186 0.051497 -0.07157 0.067341 0.011741 0.042407 -0.0014824 -0.018214 
familiar 0.023407 -0.077467 0.011087 0.017911 0.063335 -0.051756 0.020124 -0.01018 0.075392 -0.028095 -0.0069838 0.080648 -0.099652 -0.079636 0.087568 
seria -0.008122 0.013339 0.044728 -0.0044035 -0.017069 0.023562 -0.0056107 -0.024877 -0.0085634 -0.0098935 0.034783 -0.069739 0.095823 0.10019 -0.039621 
termine 0.019904 0.047387 0.082314 0.042155 0.066973 -0.016146 0.063788 -0.078486 0.11857 -0.081199 0.034774 0.11421 -0.077332 -0.15989 0.087101 
marini -0.0011748 0.061586 0.086418 0.0054596 0.005806 0.016439 0.046488 -0.075601 0.0464 -0.074792 0.037418 -0.018929 0.045539 0.013283 0.0043626 
pregunta -0.031773 0.17824 0.092432 -0.022617 -0.054886 0.11463 -0.0052532 -0.058929 0.026424 -0.070253 0.093146 -0.040009 0.10372 0.059317 -0.063198 
casi -0.026039 -0.13344 -0.060878 -0.036278 -0.0042772 -0.043554 -0.042822 0.081419 -0.082619 0.046062 -0.023233 -0.049307 -0.0092783 0.092 -0.016143 
pasada 0.026786 -0.21552 -0.096842 0.022516 0.065022 -0.092166 -0.026089 0.10087 -0.051004 0.08915 -0.087183 0.075086 -0.16419 -0.026627 0.081181 
puso 0.0061836 -0.092689 -0.0035987 0.010515 0.02684 -0.04913 -0.0072743 0.026689 -0.01726 0.010912 -0.039106 0.012988 -0.055006 0.011694 0.043018 
momentos 0.026705 -0.057416 0.025845 0.045795 0.070198 -0.018664 0.033163 -0.022187 0.05246 -0.056259 0.018407 0.040213 -0.084583 -0.034556 0.062257 
articulos -0.044469 0.11839 0.021237 -0.040695 -0.087214 0.057752 -0.04481 0.0014477 -0.034099 0.0010394 0.053106 -0.10275 0.15067 0.14287 -0.079632 
uap 0.0058051 -0.013944 -0.059086 -0.0094844 -0.033756 0.031615 -0.05905 0.057063 -0.071622 0.029764 -0.0035077 -0.067409 0.040733 0.11148 0.0073373 
retirarla -0.011704 0.19669 0.14338 0.00052028 -0.04462 0.077081 0.043005 -0.1324 0.074998 -0.085013 0.11844 -0.046203 0.10101 0.044521 -0.09641 
muchos 0.026115 -0.13345 -0.068898 0.012201 0.03536 -0.048013 -0.0088969 0.036633 0.019047 0.039433 -0.053908 0.083302 -0.077237 -0.090946 0.025567 
entretenida -0.032615 0.12638 0.098144 0.0093726 0.01117 0.05778 0.032768 -0.091726 0.076349 -0.086672 0.075016 0.056506 -0.039235 -0.043876 0.038036 
hacerlo -0.012207 0.13958 0.086365 -0.0029541 -0.050155 0.056949 0.023619 -0.10105 -0.01848 -0.031973 0.061958 -0.10494 0.11613 0.10726 -0.070748 
di -0.024776 0.12027 0.098215 0.022334 0.030447 0.0015631 0.062719 -0.11018 0.063206 -0.0613 0.048593 0.02024 -0.00048159 -0.029312 0.043968 
igualmente 0.020744 -0.01617 0.010451 0.017838 0.043925 -0.0067923 0.0029553 0.0049723 0.03833 -0.024421 -0.0002916 0.060657 -0.05889 -0.060017 0.048313 
muestra -0.015547 -0.025692 0.035185 -0.0069279 -0.0058822 -0.022238 -0.019847 0.011446 0.042678 -0.005258 -0.00062582 0.03144 -0.00041712 0.0037271 0.016053 
hogar 0.032455 0.021918 0.059289 0.017153 0.035778 -0.02717 0.046357 -0.068967 0.087264 -0.0512 0.025117 0.047877 -0.05192 -0.074428 0.072218 
telefonico -0.0038024 0.052375 0.067963 0.015518 0.025721 0.0035249 0.054551 -0.087723 0.085581 -0.077727 0.051153 0.034934 -0.014069 -0.041134 0.010504 
edad -0.025627 0.037233 0.026314 0.0020597 -0.0057639 0.01928 0.019965 -0.041082 0.0037565 -0.0084899 0.011028 -0.028834 -0.0067054 0.055685 -0.0029083 
escucho 0.0087647 -0.017711 0.020659 0.015334 0.031697 -0.018441 0.038349 -0.043862 0.074966 -0.040226 0.018873 0.076545 -0.064178 -0.096713 0.040363 
dormir -0.012837 -0.066209 -0.038552 -0.021111 -0.0065589 -0.021604 -0.029882 0.043478 -0.053796 0.029043 -0.021226 0.021236 -0.0075309 0.0052638 0.016958 
temas 0.01734 -0.046354 -0.0042396 0.034047 -0.006108 -0.012057 -0.021351 0.0058118 -0.051927 0.019109 -0.0008461 -0.023629 -0.0069312 0.052094 -0.0097151 
estimada -0.042638 0.060996 -0.013151 -0.042556 -0.057616 0.049031 -0.049329 0.033563 -0.048926 0.0040841 0.025464 -0.033185 0.025002 0.087224 0.004086 
actividad -0.00013875 0.077123 0.055134 0.0018372 -0.0064366 0.026367 0.023779 -0.060065 0.043642 -0.039342 0.067648 -0.013062 0.025802 0.028275 -0.034011 
online 0.0074722 0.15601 0.13617 0.047388 0.0073472 0.03142 0.080678 -0.131 0.12237 -0.089982 0.1008 0.011281 0.058907 -0.0059872 -0.031632 
pago 0.012227 0.10012 0.14104 0.06161 0.039747 0.020933 0.080509 -0.12739 0.14532 -0.13639 0.045067 0.11956 -0.059458 -0.15621 0.084065 
ano 0.0040571 -0.2256 -0.12899 0.014975 0.041053 -0.083368 -0.039326 0.12186 -0.10861 0.080021 -0.081867 0.01306 -0.12142 0.038834 0.088997 
circular 0.0058347 0.042531 0.057246 0.013427 0.020816 -0.010621 0.044891 -0.03484 0.092132 -0.052567 0.037518 0.043652 -0.021758 -0.063031 0.027391 
vio 0.050947 -0.049045 0.084092 0.065308 0.062144 -0.02705 0.066271 -0.081667 0.10787 -0.094198 0.044294 0.084404 -0.07881 -0.090122 0.024774 
haga -0.032242 0.00056201 -0.016333 0.009476 -0.053892 0.010804 -0.039905 0.02011 -0.030655 0.0068596 -0.0085245 -0.034624 0.068098 0.051669 -0.030936 
negocio 0.021897 -0.11438 -0.020005 0.041467 0.054976 -0.051104 0.027488 -0.0025965 0.013716 -0.020441 -0.015485 0.080119 -0.07407 -0.096662 0.045179 
zoom -0.0050953 0.08263 0.057564 0.01876 0.0050092 0.035292 0.019256 -0.052999 0.062265 -0.061303 0.037871 0.02288 0.042139 -0.022735 0.0091528 
quiso 0.032746 -0.051771 0.0025794 0.0016804 -0.011835 -0.022799 0.0063317 0.00063721 0.0014042 -0.0056451 -0.0046677 -0.020955 0.012825 0.021618 0.034212 
yrigoyen -0.0059895 0.082777 0.040504 -0.017822 -0.040723 0.047284 -0.0067818 -0.040781 -0.002151 -0.023675 0.044588 -0.072247 0.08033 0.08354 -0.038607 
perfecto 0.0056151 0.31068 0.25536 0.044396 -0.010819 0.11761 0.1086 -0.25516 0.26754 -0.22972 0.17096 0.18064 -0.0087245 -0.22026 0.062542 
estuve 0.025481 -0.14103 -0.024398 0.014486 0.058121 -0.076392 0.0086869 0.064891 -0.00012869 0.012417 -0.052227 0.070525 -0.11759 -0.083698 0.10978 
isabel -0.012292 -0.015629 -0.019669 -0.003743 -0.0014436 -0.0030798 -0.017309 0.02006 0.012345 0.0041548 0.018105 -0.017529 0.028384 0.010431 -0.012898 
dra -0.0278 0.083574 -0.0030096 -0.073536 -0.085064 0.047948 -0.083455 0.072811 -0.08448 -0.00066522 0.024414 -0.078183 0.11975 0.14036 -0.081081 
aislamiento -0.00083742 -0.15232 -0.089407 -0.0073179 0.035792 -0.037273 -0.041106 0.092484 -0.084501 0.081412 -0.064578 -0.016041 -0.10131 0.097842 0.078386 
tomo 0.059374 -0.15835 0.0040134 0.073333 0.10975 -0.076309 0.042704 0.011145 0.078314 -0.034548 -0.016233 0.11503 -0.15183 -0.13075 0.1238 
buenas 0.023889 0.13221 0.12347 0.027447 -0.016119 0.048895 0.049802 -0.11724 0.15726 -0.11747 0.10364 0.063711 0.046143 -0.084253 -0.044148 
visita -0.0096037 0.17358 0.089785 -0.014464 -0.064098 0.089438 0.0029809 -0.093377 0.069378 -0.076374 0.10057 -0.027737 0.10025 0.04142 -0.065851 
llamara -0.033925 0.029083 0.0098801 -0.013915 -0.017708 0.012838 -0.037682 0.040416 -0.040893 -0.0038152 0.0090685 -0.052121 0.034751 0.098535 -0.006053 
estudio 0.015223 -0.15598 -0.056458 0.018099 0.03391 -0.075375 -0.02121 0.078439 -0.047657 0.026456 -0.028068 -0.0034829 -0.068714 -0.0019981 0.040325 
cocinando -0.0041566 0.09749 0.07274 -0.0076835 -0.030268 0.059553 0.0086 -0.066692 0.056854 -0.07854 0.080967 -0.028121 0.07426 0.032968 -0.0659 
estable 0.00054959 0.11828 0.094181 0.036824 0.0051427 0.015938 0.04899 -0.092531 0.095235 -0.07159 0.077672 0.0085875 0.021699 0.0078112 0.011733 
rosa 0.0014381 -0.26936 -0.17156 -0.034687 0.027459 -0.09095 -0.078478 0.18515 -0.082911 0.10616 -0.13667 0.017915 -0.097913 0.004631 0.077199 
recibi -0.070858 0.055459 -0.023982 -0.058513 -0.065209 0.069527 -0.028721 0.015542 -0.060795 0.010306 0.043971 -0.09115 0.12623 0.11693 -0.047283 
pregunte -0.023088 0.050282 0.006404 -0.014161 -0.022697 0.050464 -0.031133 0.044377 0.00081565 -0.0042134 0.026331 -0.045381 0.032234 0.060457 -0.02064 
