4047 100
la -0.004096 0.01384 -0.004623 -0.008281 0.015337 0.019399 -0.001549 -0.0048624 0.01372 0.013877 -0.014165 0.011458 -0.0062922 0.013901 0.00277 -0.011585 -0.0073571 -0.013696 0.0093489 -0.0020759 0.014257 0.013549 0.0071996 -0.013975 -0.011434 -0.0055293 0.017911 -0.014218 -0.0045061 0.013671 0.0042875 -0.0031331 -0.010543 0.0060284 -0.013785 0.0074816 0.003199 -0.00019509 -0.0040812 -0.0064429 0.0072704 0.0072686 0.0031924 0.0020925 0.0013301 -0.0055926 0.0026847 -0.0053204 -0.0058815 0.0044547 -0.014003 0.0099338 -0.0081072 0.0031073 -0.00040171 -0.0042752 0.00067686 0.0035883 0.0052986 0.0036246 0.0049309 0.0024908 0.0025531 0.0040431 -0.0031435 0.0009524 -0.0068494 0.0053372 0.0064758 0.0041604 -0.0075612 -7.4788e-05 -0.0029334 0.0024657 0.00070096 -0.0021203 0.0083444 -0.00054367 -0.011115 -0.002667 -0.01377 0.0058248 0.0036217 -0.0032243 -0.0078744 -0.010008 -0.002049 -0.0042667 0.00098493 0.0018367 0.0023029 0.0077173 0.0066547 -0.0081904 0.0021714 -0.0043498 0.00061325 0.013686 -0.0071988 -0.0056185 
de 0.0033241 0.0055411 0.0085276 -0.0090022 0.0034734 0.0040954 -0.0057555 0.0021089 -0.0023501 -0.0012637 -0.00039348 -0.0080468 -0.0027686 0.00015064 -0.0053123 -0.0059216 0.0039422 0.007949 -0.0092046 -0.0019198 -0.00945 0.0065399 0.0044884 0.0093463 -0.0063402 -0.0069126 -0.0093191 0.00079113 -0.0024568 -0.0069485 -0.0055284 -0.0013443 0.0038726 -0.0053273 -0.0064039 -0.0021507 -0.0080273 0.0020556 0.00081424 -0.00084374 -0.0093378 0.0092651 -0.0052571 0.0044522 0.0092581 0.00039338 0.010051 -0.0041566 -0.0039754 0.003011 0.0030163 -0.003218 0.0022061 0.006648 -0.0092698 0.0054985 -0.0093221 -0.00076129 0.0080792 -0.0045309 0.0076142 0.0014211 0.002446 0.0078178 0.0093059 -0.0030711 -0.007197 -0.00622 -0.0044549 -0.0093378 0.0045419 0.0058888 0.0047301 -0.0026136 -0.0018167 0.0024715 -0.0037292 0.0051532 0.0094885 0.0050591 0.003978 -0.0049801 0.0071876 0.00096116 0.0093579 0.0038159 -0.00079332 -0.0044759 -0.0094741 0.0013429 0.0072216 -0.00061319 0.013462 -0.00095284 0.0014677 -0.0029401 0.0014563 0.00044289 -0.0080349 -0.0064422 
que 0.0023519 -0.013699 -0.0015299 0.0018021 -0.0067812 -0.013619 -0.0044764 -0.006888 0.0056074 0.0056599 -0.0022639 -0.0060364 0.0052263 -0.012114 -0.0059798 0.0091202 0.0053831 0.005128 -0.01045 0.00046971 -0.0028165 -0.012503 -0.0075568 0.0077568 0.0061438 -0.00063665 -0.001543 -0.002981 -0.0063399 -0.00033531 -0.0011092 0.0081103 -0.0032504 -0.002958 -0.0021698 -0.011579 -0.0079522 0.0020302 0.010323 0.0088563 -0.0078667 -0.0022772 0.008686 -0.0057328 -0.010367 0.013754 -0.0085625 0.012116 0.0037247 -0.00094886 0.022971 -0.0069727 0.0070139 -0.00023636 -0.0084484 0.010369 -3.5103e-05 -0.013883 -0.013168 -0.010671 0.021642 -0.001202 -0.0014687 0.0083111 0.0009815 0.0043624 -0.0055664 -0.0018937 0.0083474 -0.011932 0.0081367 0.0054428 0.0053969 -0.013833 -0.010308 -0.0025696 0.0079185 -0.013989 -0.0048761 -0.0059841 -0.00046706 -0.003256 -0.013632 0.0010783 -0.01326 -0.010255 -0.0045344 -0.0042109 0.0097434 0.0015256 -0.010741 0.0012815 0.00093536 -0.0028591 0.0074739 0.0021678 -0.00059896 0.001248 0.0064741 0.010718 
_digit_ 0.01104 0.024241 0.00031425 -0.020898 0.054765 0.069272 -0.024836 -0.015537 0.027528 0.025072 -0.048989 0.024845 -0.042254 0.03901 0.02046 -0.029642 -0.020234 -0.049591 0.020097 0.012322 0.050344 0.040691 0.002327 -0.027611 -0.049454 0.005688 0.050841 -0.044199 -0.015026 0.015645 0.038504 0.0081533 -0.0081681 0.035786 -0.036303 0.026012 0.0021226 0.021661 -0.0081682 -0.0022942 -0.0048228 0.023298 -0.016511 0.018406 0.039632 -0.046248 0.05016 -0.012885 0.0089713 0.019874 -0.083196 0.0072833 -0.00052009 -0.016576 -0.0056601 -0.0075436 -0.00012887 0.020524 0.017058 0.018262 -0.076255 0.014711 0.018595 -0.0070111 -0.039686 -0.003478 0.0010335 -0.0065695 -0.020871 0.0079325 -0.00013962 -0.002555 -0.0092674 0.030588 0.0011804 0.034032 -0.00063656 0.064889 0.075278 -0.0064822 0.033242 0.0047806 0.045133 -0.014154 0.044028 0.010864 0.011512 0.048401 -0.039405 -0.043858 0.037281 -0.028969 0.07112 -0.0050338 -0.044293 -0.038647 -0.029592 0.041548 -0.0091104 -0.015527 
</s> 0.0021419 0.014394 0.0027325 -0.0045973 0.025352 0.030861 -0.0016112 -0.014476 0.012419 0.012535 -0.021122 0.0038262 -0.023147 0.019046 0.014963 -0.011097 -0.0031821 -0.025702 0.0036688 0.011147 0.030816 0.011002 -0.00093135 -0.021225 -0.021261 0.0052918 0.030866 -0.01733 0.00068386 0.01196 0.024607 -0.0088411 -0.014988 0.017331 -0.016251 0.018395 -0.0077705 0.020624 -0.0028627 0.0014983 -0.0050641 0.010257 -0.00080344 0.018943 0.022756 -0.038557 0.030683 0.001124 0.0011859 0.0079365 -0.050787 0.013384 0.0036068 -0.01033 0.0082639 0.0030178 -0.0024598 0.017057 0.00096473 0.021635 -0.047296 0.009124 0.011533 -0.0043486 -0.014899 0.00044948 -0.0053729 -0.0060412 -0.015149 0.013101 -0.0087893 -0.0053284 -0.015298 0.026198 0.00069041 0.016214 -0.006776 0.029924 0.04669 -0.0040205 0.012158 0.007529 0.025767 -0.011409 0.023666 0.0032714 0.011152 0.030703 -0.028607 -0.016645 0.030181 -0.016414 0.044111 -0.0031222 -0.030942 -0.023309 -0.019375 0.019131 -0.009892 -0.018445 
y -0.018664 -0.036496 8.6789e-05 0.02642 -0.10003 -0.098489 0.038325 0.021224 -0.052019 -0.022757 0.081885 -0.035216 0.073299 -0.069163 -0.042382 0.06464 0.019145 0.072257 -0.031652 -0.019078 -0.10132 -0.057444 0.0032613 0.049794 0.098237 0.0082684 -0.093519 0.069704 0.0068409 -0.051052 -0.079651 0.0023722 0.013628 -0.069334 0.071773 -0.04403 -0.0090051 -0.048056 0.0089948 0.024147 -0.0055999 -0.04674 0.026921 -0.036468 -0.073477 0.097484 -0.098986 0.01673 -0.012008 -0.02842 0.16281 -0.049419 -0.0066506 0.041365 0.013873 0.018872 -0.0025408 -0.036461 -0.034872 -0.03758 0.14723 -0.057447 -0.028545 -0.00072434 0.079581 0.010867 -0.011948 -0.0055969 0.021269 -0.015955 0.016682 0.019633 0.031845 -0.072942 -0.012285 -0.057292 0.0084799 -0.13111 -0.13729 0.02154 -0.069599 -0.00085513 -0.087941 0.064698 -0.074319 -0.036203 -0.028432 -0.10057 0.069089 0.097941 -0.086667 0.059582 -0.13761 0.022244 0.092576 0.088655 0.051937 -0.090138 0.015072 0.030177 
el 0.0073766 -0.00019266 0.0084919 -0.0085419 -0.0012291 0.006624 0.0029272 -0.0029907 0.0031386 0.0040209 -0.0043774 0.0071634 -0.011323 -0.0058096 -0.0025194 0.0061409 -0.0039929 -0.0088502 0.0034338 0.0056107 0.011777 0.011192 0.0032133 -0.010009 -0.0072364 0.0053336 0.0053944 -0.0085447 -0.0011203 0.01137 0.0013476 -0.0098609 -0.0086826 0.0092605 -0.0047952 0.011298 0.0036553 0.0079663 -0.0010677 0.00055884 -0.0042632 0.0099373 0.0030287 -0.00048295 0.011569 -0.011723 0.011371 -0.0089089 0.0011803 -0.0032833 -0.0032938 0.0066607 -0.0059951 -0.0019275 0.0051653 -0.0028438 -4.7581e-05 0.0081098 0.010503 0.0025758 -0.011696 0.0089053 -0.0063133 -0.0098849 -0.0086132 0.0052316 -0.0099422 0.0044038 0.00028438 0.0070468 -0.0046724 0.0029132 -0.0024452 -0.0058806 0.00057903 -0.0017515 0.00098833 -0.01528 -0.017904 -0.0028451 0.0054258 0.0074213 0.0041925 -0.0055235 0.00088344 -0.0076709 0.0062157 -0.0020332 0.0063574 -0.0027871 0.001014 -0.0068322 0.0075845 -0.001745 -0.01168 -0.011313 -0.0069827 0.0023478 0.0060328 -0.011295 
a 0.0040472 0.016857 0.00031425 -0.020898 0.054765 0.069272 -0.024836 -0.015537 0.019791 0.013091 -0.047063 0.018339 -0.03943 0.043832 0.02046 -0.029642 -0.017302 -0.044597 0.020097 0.012322 0.049718 0.026052 0.002327 -0.027611 -0.049822 -0.0018518 0.047967 -0.040336 -0.015026 0.015645 0.038504 0.0081533 -0.0031169 0.039799 -0.043447 0.028125 0.0090334 0.020505 -0.0081682 -0.0022942 0.0049771 0.035284 -0.014312 0.024848 0.045075 -0.043545 0.067844 -0.0037318 0.0085807 0.02718 -0.081884 0.021579 0.00061693 -0.0082983 0.00094855 -0.0096112 0.006995 0.019176 0.01892 0.012943 -0.076255 0.014711 0.026994 -0.011787 -0.035845 -0.0099415 -0.00037288 0.0015851 -0.020871 0.0079325 -0.012892 -0.0013165 -0.016425 0.027617 0.0097335 0.035464 -0.00063656 0.064889 0.075278 -0.0064822 0.028551 0.0013283 0.045133 -0.014154 0.039495 0.016217 0.011512 0.048401 -0.033831 -0.042115 0.048966 -0.032867 0.048607 -0.010061 -0.047943 -0.043451 -0.024653 0.032174 0.0012112 -0.017397 
se 0.0017181 -0.014443 0.0065428 0.0033355 -0.020973 -0.029038 0.0061644 0.007242 -0.016829 -0.010253 0.013794 -0.01401 0.014674 -0.0087799 -0.0036981 0.0065965 0.0070923 0.019915 -0.0037123 -0.0054285 -0.021008 -0.019385 0.0029399 0.0087301 0.020192 -0.0047142 -0.014334 0.01241 0.011353 -0.0052463 -0.020388 0.0075698 0.009493 -0.020126 0.015495 -0.011313 0.0038314 -0.0094394 0.0064354 0.010704 -0.010199 -0.020031 0.016625 -0.0017927 -0.012062 0.01247 -0.019983 0.01213 -0.0048492 0.00055359 0.032917 -0.002061 -0.0046197 0.014248 -0.0011443 0.010399 -0.0042204 -0.013444 -0.0083258 -0.0024085 0.020166 -0.0058269 -0.0030026 0.0093011 0.010727 -0.0054342 0.0068149 -0.0049311 0.0013576 -0.00997 0.0075661 -0.0030527 0.0079583 -0.0010446 0.0051714 -0.0037844 -0.0042126 -0.020007 -0.020397 0.011579 -0.01401 -0.002698 -0.016603 0.0042184 -0.0087555 -0.0011163 0.00058945 -0.016143 0.012564 0.017961 -0.017668 0.0070977 -0.020247 0.0085965 0.014908 0.020101 0.0099815 -0.011709 0.0073105 0.0046298 
en -0.0029428 0.006288 0.0025572 0.001377 0.015337 0.019399 -0.0015151 -0.0029817 -0.000599 -0.0023907 -0.013844 -0.00087054 0.0008131 -0.0039965 -0.0041428 -0.0087149 -0.0056664 -0.013888 0.0029646 -0.0020065 -0.0018066 -0.0011365 0.0035209 -0.0049822 -0.011035 -0.00047479 0.012141 -0.010582 0.0036927 -0.0050171 0.0059912 -0.0063106 0.0029966 -0.00059269 -0.00613 -0.00014622 -0.0048739 0.010519 -0.0012925 0.00067651 0.0010734 0.0065215 -0.00092328 0.0043393 0.0025031 -0.0040576 0.01036 -0.0032835 -0.00098095 0.00081786 -0.010313 -0.0044192 -0.00014565 -0.0046419 0.0036662 0.0034487 0.003442 0.011952 0.010765 0.0081314 -0.013925 0.0066641 0.0025531 0.0040431 -0.01017 -0.0065928 -0.0033144 0.0070423 -0.00684 0.0059155 0.0030408 -0.0056233 -0.0010444 0.012138 0.00090729 0.011278 -0.001719 0.012022 0.021081 -0.0018153 0.013805 -0.0043467 0.012586 -0.01278 0.0017033 0.0037309 -0.0079802 0.014165 -0.010673 -0.010171 0.012443 4.1935e-05 0.019917 -0.0014097 -0.014139 -0.013695 -0.013813 0.013767 -0.0079564 -0.013824 
le 0.013533 0.014487 -0.0049097 -8.1734e-05 0.031867 0.030524 -0.011263 -0.0087562 0.012275 0.0081198 -0.013392 0.014603 -0.020037 0.017115 0.0086186 -0.01698 -0.0077779 -0.030572 0.016274 0.010914 0.030837 0.016158 0.012187 -0.027482 -0.030364 -0.0056283 0.031533 -0.027414 -0.0095957 0.014097 0.03085 -0.0060762 -0.0078457 0.019594 -0.018318 0.0076508 0.0013165 0.013435 -0.0053921 -0.010757 -0.0074839 0.01487 -0.017512 0.0082555 0.030381 -0.020041 0.030831 -0.002688 -0.0037441 0.013479 -0.051601 0.0045173 0.0034333 -0.0064142 -0.00088968 -0.0094686 0.0020117 0.017385 0.015563 0.0083327 -0.03084 0.01476 0.014699 0.0047969 -0.02146 0.0063674 0.0042817 -0.00059963 -0.015447 0.017335 0.0052129 0.006135 -0.0020369 0.0066873 -0.0018566 0.011911 -0.00039482 0.040247 0.04669 -0.0040205 0.01643 0.0059758 0.018922 -0.013941 0.030432 0.00080675 0.0023486 0.031139 -0.026717 -0.024131 0.017023 -0.013085 0.044111 -0.0031222 -0.031315 -0.030331 -0.0092833 0.023919 -0.0088175 -0.0059727 
con 0.0022964 -0.005825 -0.0089581 0.020445 -0.031903 -0.044169 0.030127 0.01425 -0.027516 -0.022383 0.031677 -0.016892 0.030615 -0.031234 -0.0084746 0.02137 0.0099415 0.023093 -0.013914 -0.0057741 -0.028401 -0.016155 -0.00042587 0.026666 0.023572 0.0083081 -0.03111 0.030519 -0.0065223 -0.0067139 -0.020105 0.010983 0.0039884 -0.030936 0.026899 -0.015103 -0.002387 -0.019617 0.0056545 0.0023245 0.004595 -0.011496 0.017254 -0.0018966 -0.022961 0.030462 -0.030732 0.013865 -0.011267 0.0013312 0.030144 -0.0065684 0.0064303 -0.0029105 0.012909 0.0061995 0.0002997 -0.015843 -0.0032885 -0.021713 0.047933 -0.0026621 -0.0045673 0.014148 0.026016 -0.003455 -0.0046815 0.002757 0.0028323 -0.0054951 0.00057772 0.0047609 0.015499 -0.008564 -0.011008 -0.01113 -0.0025923 -0.03019 -0.028205 -0.0076881 -0.0099639 0.00098475 -0.030278 0.017596 -0.013318 -0.001698 0.0040881 -0.020933 0.01844 0.0062261 -0.021683 0.023897 -0.030798 0.013076 0.027518 0.018602 0.00029386 -0.023542 -0.0056786 0.0028844 
no -0.030157 -0.046804 -0.019771 0.025392 -0.10209 -0.14135 0.038325 0.021224 -0.040952 -0.050855 0.095739 -0.041546 0.090949 -0.065968 -0.036894 0.05412 0.027907 0.085654 -0.031652 -0.019078 -0.10132 -0.057444 -0.0059047 0.060759 0.088761 -0.014798 -0.087498 0.096028 0.026172 -0.035559 -0.079651 0.0023722 0.025785 -0.076031 0.071773 -0.04403 0.0064305 -0.055873 0.018095 0.0074388 0.011524 -0.061921 0.040274 -0.052816 -0.067707 0.085998 -0.098347 0.044371 -0.0029661 -0.035753 0.16281 -0.049419 -0.0019737 0.027578 0.010381 0.0056702 -0.015822 -0.033613 -0.034872 -0.03758 0.14723 -0.057447 -0.038453 0.00938 0.057397 0.0071568 -0.011948 -0.0055969 0.041305 -0.034687 0.016682 0.019633 0.02998 -0.056771 -0.012285 -0.057292 0.015766 -0.098944 -0.13729 0.02154 -0.068197 -0.013133 -0.084586 0.051607 -0.082448 -0.023831 -0.028432 -0.10057 0.068073 0.078114 -0.078989 0.053065 -0.13761 0.022244 0.087693 0.080545 0.056414 -0.099401 0.015072 0.030177 
me 0.00097474 -0.0081939 0.0033523 0.0099261 -0.011748 -0.0071799 0.0072001 -0.0032667 0.0031115 -0.00093453 0.010018 0.0014963 -0.0033835 0.0001841 -0.0050875 0.0090172 0.0069207 0.011484 -0.011572 -0.0041448 -0.0087198 -0.0076232 -0.0040565 0.0041326 0.011467 0.0026636 -0.00048056 0.011408 0.0079133 -0.0011194 -0.00041147 0.00035507 -0.00062984 -0.0099376 0.011517 0.0028061 -0.0081415 -0.011097 0.0060805 -0.0022475 0.0083905 -0.0021414 0.0026371 0.0017285 -0.00062703 0.0021169 -0.011537 0.0019498 0.0032347 -0.0062688 0.011446 0.0036655 -0.0073744 0.0066288 -0.0080776 -0.0019044 -0.0059353 0.0029258 -0.011135 0.003206 -0.0023805 -0.006239 0.0015205 0.0085077 0.00085134 -0.0055086 -0.0044645 0.00012851 0.006335 -0.0032915 -0.0072658 0.0064519 0.0064084 -0.0045099 -0.0056516 -0.010233 0.0065411 -0.011556 -0.017904 -0.0028451 0.00092212 0.0039923 -0.011419 0.010206 -0.0070694 0.0041496 0.0041571 -0.011603 0.0026981 0.0098221 -0.011436 0.0084252 -0.0056613 -0.0051702 0.0047217 0.0068446 0.0018581 -0.008172 0.0099984 0.0001539 
para 0.031981 0.040226 0.0092788 -0.028662 0.1087 0.13749 -0.036044 -0.028021 0.052619 0.036868 -0.097236 0.049313 -0.097201 0.071553 0.030857 -0.070052 -0.022459 -0.082265 0.03989 0.024457 0.098207 0.065816 0.008194 -0.071558 -0.098159 0.01129 0.10091 -0.087728 -0.014978 0.04172 0.076425 0.016183 -0.025107 0.062705 -0.062228 0.046656 0.0083181 0.055019 -0.020245 -0.018521 -0.00048705 0.058156 -0.032772 0.036534 0.078663 -0.091794 0.10539 -0.043585 0.017807 0.039446 -0.16253 0.042832 -0.013259 -0.027374 -0.011234 -0.014973 0.013884 0.038061 0.033857 0.036247 -0.15135 0.029198 0.042525 -0.00041272 -0.060132 -0.0083876 -0.0007401 0.0031462 -0.035892 0.035345 -0.028127 -0.017052 -0.025445 0.044619 0.002343 0.067547 -0.0012635 0.1288 0.14942 -0.012866 0.077778 0.0044261 0.084186 -0.047928 0.075704 0.020325 0.02285 0.096068 -0.067149 -0.083593 0.084133 -0.04802 0.14116 -0.0099913 -0.082276 -0.087814 -0.058735 0.082467 -0.0099018 -0.042073 
por -0.0094031 -0.018387 -0.0051349 0.012554 -0.050398 -0.049621 0.019309 0.010693 -0.026208 -0.011466 0.051072 -0.027235 0.041519 -0.030862 -0.013663 0.034454 0.01406 0.043154 -0.025733 -0.014991 -0.05007 -0.036976 -0.0087644 0.034357 0.044458 -0.0005199 -0.050158 0.049206 0.0034466 -0.025721 -0.032908 0.0037874 0.01832 -0.040617 0.03156 -0.02848 -0.010927 -0.030301 0.013909 0.0097886 -0.0028213 -0.023548 0.025744 -0.016675 -0.044507 0.039971 -0.049549 0.022355 -0.0060501 -0.014318 0.080727 -0.0050544 0.00559 0.0091461 0.0069896 0.0095079 -0.0061888 -0.026399 -0.010132 -0.020951 0.074179 -0.028943 -0.026707 0.0032392 0.03559 -0.00011065 0.0069034 -0.00096678 0.010716 -0.0080386 0.013012 0.015291 0.0062183 -0.031186 0.00098583 -0.032017 0.0042723 -0.066053 -0.069169 0.010852 -0.02999 0.0037031 -0.037579 0.02253 -0.043371 -0.021864 -0.0045071 -0.050609 0.035347 0.027326 -0.043664 0.030019 -0.06933 0.011207 0.040537 0.044388 0.020242 -0.043747 0.0093866 0.022815 
su -0.018664 -0.036496 -0.0080153 0.038472 -0.10209 -0.14135 0.038325 0.021224 -0.040624 -0.035741 0.095739 -0.041546 0.082812 -0.073874 -0.036894 0.05412 0.034524 0.096941 -0.044527 -0.018478 -0.10132 -0.057444 0.00040656 0.073068 0.09903 -0.0065439 -0.098724 0.082105 0.010759 -0.033141 -0.070778 -0.0079721 0.025785 -0.076031 0.062642 -0.056528 -0.0076387 -0.062777 0.030658 0.0017341 -0.0055999 -0.04674 0.037951 -0.028795 -0.073477 0.097484 -0.097281 0.029539 -0.0029661 -0.035753 0.16281 -0.049419 0.011095 0.018154 0.010381 0.0056702 -0.0025408 -0.036461 -0.034872 -0.03758 0.14723 -0.057447 -0.038453 0.00938 0.079581 0.010867 0.013702 -0.0019189 0.041305 -0.034687 0.016682 0.019633 0.042949 -0.051381 -0.00033475 -0.051687 0.0084799 -0.13111 -0.13729 0.02154 -0.081156 -0.0044577 -0.087941 0.064698 -0.082448 -0.023831 -0.028432 -0.10057 0.074445 0.087871 -0.06276 0.066179 -0.13761 0.022244 0.089506 0.071044 0.052574 -0.068318 0.015072 0.030177 
alimentos 0.070852 0.089119 0.020557 -0.0635 0.24082 0.30461 -0.10921 -0.068323 0.11657 0.08168 -0.21542 0.10925 -0.1858 0.17154 0.061104 -0.12038 -0.076083 -0.19611 0.083494 0.024776 0.21757 0.14581 0.010233 -0.12141 -0.21747 0.025012 0.22356 -0.19436 -0.033182 0.092429 0.16267 0.0012282 -0.035918 0.15736 -0.15964 0.11438 0.018428 0.12189 -0.044852 -0.041033 -0.001079 0.12884 -0.072604 0.080939 0.17427 -0.20337 0.22057 -0.056659 0.0019879 0.082608 -0.36007 0.094891 -0.029374 -0.060645 0.0041711 -0.042263 0.030759 0.084323 0.075007 0.080304 -0.33532 0.064687 0.094212 -0.00091435 -0.17451 -0.015294 -0.0016397 0.0069702 -0.079516 0.078306 -0.062313 -0.037777 -0.040752 0.13451 0.033534 0.10353 -0.0027991 0.28534 0.33102 -0.028504 0.14617 0.021022 0.18651 -0.10618 0.19361 0.047774 0.050623 0.21283 -0.14877 -0.18519 0.16394 -0.12738 0.31274 -0.022135 -0.1709 -0.16781 -0.13012 0.1827 -0.040061 -0.068276 
esta -0.041348 -0.080855 -0.02258 0.055203 -0.22618 -0.31315 0.095735 0.081134 -0.11372 -0.096463 0.20043 -0.12015 0.20149 -0.14615 -0.060082 0.15151 0.061826 0.18976 -0.098647 -0.040937 -0.22446 -0.12727 -0.013082 0.13461 0.2194 -0.014498 -0.21872 0.1819 0.039196 -0.098703 -0.18769 -0.022367 0.057125 -0.16844 0.1671 -0.122 -0.016923 -0.13908 0.040089 0.01648 -0.0077843 -0.13113 0.087653 -0.093718 -0.17823 0.19424 -0.21552 0.065443 -0.035773 -0.090739 0.3607 -0.10949 -0.0043727 0.061097 -0.00063618 0.028948 -0.035054 -0.074467 -0.043127 -0.061512 0.32619 -0.12727 -0.085191 0.020781 0.1565 -0.00048655 0.0045446 -0.028888 0.059947 -0.066471 0.036958 0.043495 0.06642 -0.12577 -0.027217 -0.12693 0.018787 -0.29046 -0.30416 0.047721 -0.15109 -0.029096 -0.18739 0.11433 -0.18266 -0.052796 -0.043192 -0.20807 0.15081 0.17306 -0.16807 0.14714 -0.30486 0.04928 0.17306 0.16472 0.11949 -0.17855 0.033392 0.066856 
domicilio 0.070852 0.089119 0.020557 -0.0635 0.24082 0.30461 -0.079854 -0.062079 0.088049 0.088873 -0.21542 0.10925 -0.1858 0.17154 0.089971 -0.13034 -0.076083 -0.19611 0.083494 0.024776 0.21757 0.14581 0.010233 -0.12141 -0.21908 -0.008143 0.22356 -0.19436 -0.033182 0.092429 0.16267 0.0012282 -0.035918 0.15736 -0.15964 0.11438 -0.010197 0.12003 -0.044852 -0.041033 -0.001079 0.12884 -0.072604 0.080939 0.17427 -0.20337 0.22057 -0.056659 0.0019879 0.082608 -0.36007 0.094891 -0.002287 -0.072888 -0.024889 -0.033171 0.030759 0.084323 0.075007 0.080304 -0.33532 0.064687 0.094212 -0.00091435 -0.13322 -0.018582 -0.0016397 0.0069702 -0.079516 0.078306 -0.062313 -0.037777 -0.072226 0.12144 0.026646 0.13466 -0.0027991 0.28534 0.33102 -0.028504 0.14617 0.021022 0.18651 -0.10618 0.17367 0.07131 0.050623 0.21283 -0.14877 -0.18519 0.16394 -0.12738 0.31274 -0.022135 -0.19477 -0.16994 -0.13012 0.1827 -0.040061 -0.068276 
un 0.00018557 -0.0090148 0.0054964 0.0092263 -0.0090826 0.00053018 0.007574 0.0041104 0.0071983 -0.0040704 -0.0034515 0.0010131 0.0066636 0.0049181 0.0027858 0.0061279 0.004338 -0.0028796 0.0076821 -0.0042844 -0.0094237 -0.0053431 0.006276 0.0025886 0.0047775 -0.0034062 -0.0052704 0.0037643 -0.003518 -0.0079303 -0.0026317 -0.0020553 -0.0037581 0.0038549 -0.0090651 -0.0048523 0.0090544 0.0057793 0.0053161 0.0078756 -0.0052927 0.0019618 7.4993e-05 0.0087331 0.0053304 0.0067907 -0.0060796 0.0015354 0.002981 0.0090225 0.0047263 -0.006761 -0.0090059 0.00096908 -0.0051403 -0.0056841 0.0090961 -0.0028159 -0.0057561 0.0066029 -0.0036534 -0.00082147 -0.0062691 0.0059762 -0.0061703 -0.0030417 0.0033966 0.0024684 0.00072614 -0.0073253 -0.0091987 0.0090528 0.0064014 0.0063308 -0.0058023 0.0048424 0.0058129 -0.0055142 -0.0071378 -0.0070266 0.0029615 0.0077666 -0.0090948 -0.0053261 0.00016842 0.0012655 -0.0037206 0.0036726 0.0015747 -0.0052442 0.0016085 0.0089651 0.0016305 0.0026897 -0.0068878 -0.0046286 -0.0026134 -0.0089631 -0.005502 -0.0046456 
caja 0.048548 0.10659 0.020557 -0.0635 0.24082 0.30461 -0.10921 -0.068323 0.088049 0.088873 -0.21542 0.10925 -0.1858 0.17154 0.089971 -0.13034 -0.076083 -0.19611 0.088375 0.054184 0.21757 0.14581 0.010233 -0.12141 -0.21908 -0.008143 0.22356 -0.19436 -0.033182 0.092429 0.16267 0.0012282 -0.035918 0.15736 -0.15964 0.11438 0.018428 0.12189 -0.064746 -0.014875 -0.001079 0.12884 -0.072604 0.080939 0.17427 -0.20337 0.22057 -0.056659 0.0019879 0.082608 -0.36007 0.094891 -0.002287 -0.072888 -0.024889 -0.033171 0.030759 0.084323 0.075007 0.080304 -0.33532 0.064687 0.094212 -0.00091435 -0.17451 -0.015294 -0.0016397 0.0069702 -0.079516 0.078306 -0.034372 -0.051443 -0.072226 0.12144 0.026646 0.13466 -0.0027991 0.28534 0.33102 -0.028504 0.14617 0.021022 0.18651 -0.10618 0.17367 0.07131 0.050623 0.21283 -0.14277 -0.15708 0.16394 -0.12738 0.31274 -0.022135 -0.18228 -0.19455 -0.10691 0.17033 -0.021937 -0.09321 
bien 0.0038877 0.018159 0.0094818 -0.00010293 0.017749 0.045475 -0.012587 -0.0043666 0.021243 0.015685 -0.02919 0.011374 -0.026207 0.024195 0.0013608 -0.011395 -0.0035907 -0.020119 0.0076869 0.010651 0.031225 0.025238 -0.0084033 -0.018544 -0.026544 0.0042246 0.029751 -0.013957 -0.013326 0.0054634 0.027419 0.0018982 0.0047203 0.025696 -0.01951 0.023733 0.0092473 0.02715 -0.012586 0.0011964 -0.0048314 0.019003 -0.020973 0.015801 0.031017 -0.031431 0.032933 -0.01362 -0.0021524 0.0055585 -0.053048 0.023028 0.0015113 -0.00056077 -0.0040889 -0.015918 -0.00012757 0.021744 0.016871 0.015658 -0.047296 0.009124 0.0071493 0.0047998 -0.02073 -0.010219 0.0092215 0.0049872 -0.0028159 0.015133 -0.0048481 -0.0072559 -0.017632 0.010908 0.00473 0.014603 -0.0038072 0.026627 0.04669 -0.0040205 0.01643 0.0059758 0.018922 -0.013941 0.014781 0.01096 0.018243 0.027843 -0.022653 -0.03048 0.021236 -0.02663 0.031531 -0.010986 -0.017284 -0.022344 -0.01508 0.024025 0.0026372 -0.019082 
los 0.01104 0.024241 0.0044055 -0.0074121 0.054765 0.069272 -0.027568 -0.02072 0.02651 0.018575 -0.047063 0.018339 -0.03943 0.043832 0.013896 -0.027376 -0.01254 -0.049292 0.013729 0.010507 0.049479 0.033159 0.002327 -0.027611 -0.049822 -0.0018518 0.043355 -0.037785 -0.0067195 0.014825 0.042936 -0.0048886 -0.0031169 0.039799 -0.03406 0.016326 0.0088506 0.032427 -0.014724 -0.0033827 -0.0048228 0.023298 -0.021439 0.026895 0.045075 -0.043545 0.05016 -0.012885 0.0085167 0.012589 -0.081884 0.021579 -0.0083451 -0.020536 -0.011767 -0.011662 -0.00012887 0.020524 0.012131 0.022459 -0.073846 0.035386 0.018595 -0.0070111 -0.039686 -0.003478 -0.0060198 -0.0028198 -0.020871 0.0079325 -0.0065779 -0.0047679 -0.016425 0.027617 0.0060597 0.030623 -0.0040537 0.049319 0.075278 -0.0064822 0.034373 -0.0019877 0.034453 -0.016872 0.049437 0.020159 0.011512 0.048401 -0.040359 -0.028998 0.037281 -0.028969 0.07112 -0.0050338 -0.038865 -0.038162 -0.017613 0.045821 -0.0018305 -0.011367 
lo 0.013533 0.014487 -0.0065879 -0.0072756 0.031867 0.030524 -0.017099 -0.012851 0.01475 0.019676 -0.030385 0.01541 -0.026207 0.024195 0.012634 -0.0065678 -0.012464 -0.020715 0.016295 0.006404 0.030688 0.020566 0.0025605 -0.022361 -0.020339 -0.0020087 0.039668 -0.03149 -0.013684 0.01944 0.022945 0.00017324 -0.0026651 0.029215 -0.027264 0.02108 0.0025993 0.017193 -0.0091324 -0.0020981 0.00017822 0.010695 -0.0075852 0.0075364 0.022756 -0.038557 0.025314 -0.013727 -0.0037441 0.013479 -0.032039 0.0030856 0.003962 -0.020265 0.0043352 0.0058971 0.012802 0.0058683 0.019296 0.0088222 -0.047296 0.009124 0.010803 0.007458 -0.024614 0.0025133 0.0076966 -0.0029525 0.00076245 0.018893 -0.012145 0.00097176 -0.0097343 0.021516 -0.0059526 0.0080984 -0.00039482 0.040247 0.04669 -0.0040205 0.017708 0.00082388 0.015427 -0.021307 0.021009 0.017472 0.011152 0.030703 -0.025032 -0.017986 0.030181 -0.016414 0.044111 -0.0031222 -0.019524 -0.03066 -0.022581 0.017206 -0.0044358 -0.004451 
tiene -0.016361 -0.053482 -0.0080153 0.038472 -0.10209 -0.14135 0.038325 0.021224 -0.040952 -0.050855 0.095739 -0.041546 0.079596 -0.087145 -0.042382 0.06464 0.027907 0.085654 -0.044527 -0.018478 -0.10132 -0.057444 -0.0059047 0.060759 0.09903 -0.0065439 -0.098724 0.082105 0.010759 -0.033141 -0.070778 -0.0079721 0.014799 -0.079257 0.062642 -0.056528 -0.0076387 -0.062777 0.018095 0.0074388 -0.0055999 -0.04674 0.039565 -0.042302 -0.085746 0.099828 -0.098986 0.01673 -0.016147 -0.040958 0.16281 -0.049419 0.016151 0.033152 0.013873 0.018872 -0.015822 -0.033613 -0.034872 -0.03758 0.14723 -0.057447 -0.038453 0.00938 0.058248 -0.0056666 0.013702 -0.0019189 0.041305 -0.034687 0.016682 0.019633 0.023939 -0.042273 -0.012285 -0.057292 0.0084799 -0.13111 -0.13729 0.02154 -0.068197 -0.013133 -0.084586 0.051607 -0.082448 -0.023831 -0.028432 -0.10057 0.062121 0.064731 -0.078989 0.053065 -0.13761 0.022244 0.078116 0.07435 0.053935 -0.080591 0.015072 0.030177 
una -0.012492 -0.01954 -0.0025047 0.012022 -0.021704 -0.030886 0.020651 0.011321 -0.01357 -0.0029786 0.025588 -0.011005 0.016161 -0.022698 -0.017625 0.010376 0.010243 0.019296 -0.011226 -0.010484 -0.03166 -0.017951 0.0010191 0.01556 0.030698 0.0025838 -0.03085 0.025657 0.00094777 -0.0028726 -0.023318 0.0054004 -0.0016887 -0.026644 0.028525 -0.018209 -0.0067775 -0.018794 0.013074 -0.0027375 -0.010189 -0.01572 0.0089837 -0.0063001 -0.021157 0.026873 -0.031283 0.00036021 0.0066351 -0.0058847 0.050876 -0.015443 0.0021407 0.012925 -0.0035106 -0.0046788 -0.0091956 -0.0087189 -0.012664 -0.0036636 0.047933 -0.0026621 -0.015517 -0.0045955 0.020465 0.0051484 -0.0013647 -0.0087098 0.0039386 -0.00051244 0.013325 -0.00092015 -0.00033726 -0.019648 -0.0061851 -0.010029 0.0026498 -0.040969 -0.051598 0.012552 -0.011622 0.004689 -0.016053 0.021454 -0.020836 -0.0075353 -0.012885 -0.030092 0.030232 0.01518 -0.028567 0.014939 -0.043001 0.0069509 0.03161 0.027857 0.0049819 -0.02191 0.0077504 0.0056169 
pero -0.031307 -0.032761 -0.0080153 0.038472 -0.10209 -0.14135 0.043212 0.036622 -0.051328 -0.043541 0.095739 -0.041546 0.090352 -0.079746 -0.02712 0.068386 0.041337 0.083351 -0.044527 -0.018478 -0.10132 -0.057444 -0.0059047 0.060759 0.09903 -0.0065439 -0.098724 0.082105 0.010759 -0.033141 -0.079651 0.0023722 0.025624 -0.064674 0.075426 -0.055067 -0.0090051 -0.048056 0.018095 0.0074388 0.0067394 -0.049361 0.039565 -0.042302 -0.080448 0.087677 -0.097281 0.029539 -0.0029661 -0.035753 0.16281 -0.049419 0.016151 0.033152 -0.00028716 0.013066 -0.012284 -0.052398 -0.020111 -0.041585 0.14723 -0.057447 -0.046626 0.018583 0.070641 -0.00021962 -0.0007401 0.0031462 0.027059 -0.030003 0.025827 0.030351 0.018086 -0.052915 -0.012285 -0.057292 0.015766 -0.098944 -0.13729 0.02154 -0.068197 -0.013133 -0.084586 0.051607 -0.082448 -0.023831 -0.019496 -0.093919 0.061159 0.087432 -0.078989 0.053065 -0.13761 0.022244 0.069195 0.088924 0.040177 -0.086832 0.015072 0.030177 
ya 0.048548 0.10659 0.0013818 -0.091895 0.24082 0.30461 -0.079854 -0.062079 0.088049 0.088873 -0.21542 0.10925 -0.1858 0.17154 0.089971 -0.13034 -0.076083 -0.19611 0.088375 0.054184 0.21757 0.14581 0.010233 -0.12141 -0.21908 -0.008143 0.22356 -0.19436 -0.033182 0.092429 0.16932 0.035853 -0.035918 0.15736 -0.15964 0.11438 0.018428 0.12189 -0.044852 -0.041033 -0.001079 0.12884 -0.062935 0.10926 0.19464 -0.21757 0.22057 -0.056659 0.0019879 0.082608 -0.36007 0.094891 -0.029374 -0.060645 -0.024889 -0.033171 -0.00056666 0.090249 0.053342 0.098757 -0.33532 0.064687 0.11714 -0.020459 -0.17451 -0.015294 -0.0016397 0.0069702 -0.079516 0.078306 -0.034372 -0.051443 -0.072226 0.12144 0.026646 0.13466 -0.0027991 0.28534 0.33102 -0.028504 0.14617 0.021022 0.18651 -0.10618 0.19771 0.072724 0.050623 0.21283 -0.14877 -0.18519 0.16394 -0.12738 0.31274 -0.022135 -0.19477 -0.16994 -0.10691 0.17033 -0.040061 -0.068276 
del -0.01412 -0.029713 4.3726e-05 0.013311 -0.051436 -0.071214 0.01205 0.011628 -0.029433 -0.016743 0.050054 -0.033868 0.049928 -0.030766 -0.0090694 0.016178 0.011202 0.048985 -0.024843 -0.0031752 -0.051045 -0.028942 -0.011805 0.02129 0.049893 -0.0032969 -0.049739 0.041366 0.013186 -0.017915 -0.043875 0.0069637 0.014331 -0.02633 0.043369 -0.024351 0.002086 -0.021484 0.021955 0.012035 -0.0028213 -0.023548 0.0094883 -0.023483 -0.038369 0.037483 -0.049012 0.014883 0.0045137 -0.020509 0.082027 -0.024898 0.00559 0.0091461 -0.00014467 0.0065831 -0.0079716 -0.016935 -0.0098075 -0.013989 0.074179 -0.028943 -0.022011 -0.0019239 0.039193 0.011551 0.0069034 -0.00096678 0.011638 -0.021325 0.012506 0.0044927 0.015105 -0.028602 -0.0061895 -0.028865 0.0042723 -0.066053 -0.069169 0.010852 -0.042515 -0.013638 -0.037579 0.02253 -0.033594 -0.012149 -0.020775 -0.048517 0.031298 0.032613 -0.04333 0.017407 -0.05001 -0.0024225 0.036561 0.049297 0.021087 -0.049799 -0.0016176 0.006117 
ella 0.021242 0.029582 0.0092788 -0.028662 0.1087 0.13749 -0.036044 -0.028021 0.052619 0.036868 -0.097236 0.049313 -0.085778 0.065576 0.030857 -0.070052 -0.034342 -0.088519 0.037687 0.011183 0.098207 0.065816 0.0046187 -0.054803 -0.098889 -0.0036756 0.10091 -0.087728 -0.014978 0.04172 0.087743 0.0060746 -0.025107 0.062705 -0.072056 0.05163 0.004213 0.042995 -0.016213 -0.0045536 0.0076075 0.046222 -0.032772 0.036534 0.087857 -0.098206 0.10539 -0.043585 0.003795 0.025398 -0.16253 0.042832 -0.0010323 -0.0329 -0.011234 -0.014973 0.013884 0.038061 0.033857 0.036247 -0.15135 0.029198 0.042525 -0.00041272 -0.07877 -0.0069033 0.00043907 0.016246 -0.041426 0.015745 -0.025589 -0.002613 -0.018394 0.060713 0.015137 0.046731 -0.0012635 0.1288 0.14942 -0.012866 0.076799 0.017329 0.072401 -0.044243 0.089241 0.032826 0.02285 0.096068 -0.075647 -0.07209 0.084882 -0.064745 0.14116 -0.0099913 -0.087915 -0.076708 -0.054543 0.091806 -0.018083 -0.030818 
las 0.013213 0.010365 -0.0040743 -0.0047754 0.033967 0.042965 -0.0099142 -0.015255 0.0081872 0.0055961 -0.028527 0.022709 -0.030599 0.017935 0.0013608 -0.011395 -0.015908 -0.022282 0.017942 0.016433 0.031225 0.025238 -0.0016404 -0.025216 -0.038392 0.0048345 0.030537 -0.021241 0.005099 0.012221 0.030243 0.0054291 -0.0060829 0.015792 -0.020133 0.019388 0.0072559 0.016338 -0.0053921 -0.010757 0.003087 0.021885 -0.013297 0.016682 0.016584 -0.030615 0.028964 -0.011278 -0.0021726 0.0018114 -0.050787 0.013384 -0.005176 -0.012737 0.0038661 -0.011272 -0.00012757 0.021744 0.0075238 0.01393 -0.029786 0.0073664 0.016523 -0.0028857 -0.014899 0.00044948 -0.0046815 0.002757 -0.0038585 0.0061857 -8.66e-05 -0.0015847 -0.0012702 0.022495 -0.0059526 0.0080984 -0.00039482 0.040247 0.04669 -0.0040205 0.017708 0.00082388 0.027993 -0.0087788 0.018154 0.013031 0.0071403 0.03002 -0.013936 -0.022175 0.013392 -0.023399 0.031531 -0.010986 -0.021509 -0.027344 -0.015291 0.019956 0.00075125 -0.01079 
es -0.030157 -0.046804 -0.0080153 0.038472 -0.10209 -0.14135 0.053392 0.025245 -0.051328 -0.043541 0.10137 -0.054057 0.082812 -0.073874 -0.02712 0.068386 0.027907 0.085654 -0.051076 -0.029755 -0.10132 -0.057444 -0.0059047 0.060759 0.09903 -0.0065439 -0.098724 0.082105 0.026172 -0.035559 -0.070778 -0.0079721 0.013628 -0.069334 0.062642 -0.056528 -0.0090051 -0.048056 0.030658 0.0017341 -0.0035136 -0.05919 0.039565 -0.042302 -0.085746 0.099828 -0.097281 0.029539 -0.0029661 -0.035753 0.16281 -0.049419 -0.0019737 0.027578 -0.00028716 0.013066 -0.015822 -0.033613 -0.019466 -0.027765 0.14723 -0.057447 -0.038453 0.00938 0.070641 -0.00021962 -0.0007401 0.0031462 0.027059 -0.030003 0.016682 0.019633 0.02998 -0.056771 -0.012285 -0.057292 0.0084799 -0.13111 -0.13729 0.02154 -0.068197 -0.013133 -0.085836 0.034231 -0.095954 -0.031977 -0.028432 -0.10057 0.076037 0.072373 -0.086667 0.059582 -0.13761 0.022244 0.078116 0.07435 0.053935 -0.080591 0.0013237 0.024516 
si 0.070852 0.089119 0.020557 -0.0635 0.24082 0.30461 -0.079854 -0.062079 0.088049 0.088873 -0.19351 0.13088 -0.1858 0.17154 0.089971 -0.13034 -0.055143 -0.21675 0.088375 0.054184 0.21757 0.14581 0.010233 -0.12141 -0.21747 0.025012 0.22356 -0.19436 -0.033182 0.092429 0.16267 0.0012282 -0.068163 0.16775 -0.15964 0.11438 0.0093336 0.095252 -0.064746 -0.014875 -0.001079 0.12884 -0.072604 0.080939 0.17427 -0.20337 0.22057 -0.056659 0.0019879 0.082608 -0.36007 0.094891 -0.029374 -0.060645 -0.024889 -0.033171 0.030759 0.084323 0.053342 0.098757 -0.33532 0.064687 0.094212 -0.00091435 -0.13322 -0.018582 -0.0016397 0.0069702 -0.058942 0.052248 -0.062313 -0.037777 -0.040752 0.13451 0.033534 0.10353 -0.0027991 0.28534 0.33102 -0.028504 0.14617 0.021022 0.18651 -0.10618 0.19771 0.072724 0.050623 0.21283 -0.16759 -0.15971 0.16394 -0.12738 0.31274 -0.022135 -0.18228 -0.19455 -0.13012 0.1827 -0.040061 -0.068276 
entrego 0.031981 0.040226 0.0092788 -0.028662 0.1087 0.13749 -0.049295 -0.030839 0.039743 0.040115 -0.097236 0.049313 -0.083867 0.077428 0.040611 -0.058834 -0.02489 -0.097836 0.03989 0.024457 0.098682 0.051709 0.0046187 -0.054803 -0.088663 0.0019099 0.10091 -0.087728 -0.013337 0.029425 0.073426 0.00055438 -0.018151 0.08431 -0.075746 0.039122 0.0083181 0.055019 -0.020245 -0.018521 -0.00048705 0.058156 -0.032772 0.036534 0.087857 -0.098206 0.099559 -0.025575 0.017807 0.039446 -0.16253 0.042832 -0.0010323 -0.0329 -0.011234 -0.014973 -0.00025578 0.040737 0.023892 0.028294 -0.15135 0.029198 0.052876 -0.0092345 -0.071147 -0.019732 0.013804 0.012899 -0.035892 0.035345 -0.015515 -0.02322 -0.018394 0.060713 0.019319 0.070391 -0.0012635 0.1288 0.14942 -0.012866 0.077778 0.0044261 0.072401 -0.044243 0.078391 0.032188 0.035687 0.098254 -0.064444 -0.070904 0.073997 -0.057498 0.14116 -0.0099913 -0.077141 -0.075745 -0.058735 0.082467 -0.022449 -0.04574 
muy -0.066812 -0.10369 0.00019228 0.058532 -0.22618 -0.31315 0.095735 0.081134 -0.090001 -0.079183 0.22458 -0.11976 0.18347 -0.16366 -0.093895 0.14321 0.061826 0.18976 -0.098647 -0.040937 -0.22017 -0.1626 -0.013082 0.13461 0.2194 -0.014498 -0.21872 0.1819 0.023835 -0.073423 -0.1568 -0.017662 0.030192 -0.1536 0.15901 -0.097545 -0.01995 -0.10647 0.040089 0.01648 -0.0077843 -0.13113 0.087653 -0.093718 -0.18997 0.22116 -0.21552 0.065443 -0.0065713 -0.07921 0.3607 -0.10949 -0.0043727 0.061097 0.022999 0.012562 -0.035054 -0.074467 -0.077257 -0.083257 0.32619 -0.12727 -0.085191 0.020781 0.1565 -0.00048655 -0.0016397 0.0069702 0.059947 -0.066471 0.036958 0.043495 0.040069 -0.11723 -0.027217 -0.12693 0.018787 -0.29046 -0.30416 0.047721 -0.15419 -0.0018945 -0.16525 0.099071 -0.18266 -0.052796 -0.019819 -0.22254 0.15081 0.17306 -0.175 0.11756 -0.30486 0.04928 0.19428 0.17844 0.11949 -0.17855 0.015042 0.098657 
hoy -0.0094031 -0.018387 4.3726e-05 0.013311 -0.050398 -0.049621 0.021771 0.018451 -0.02586 -0.021937 0.048235 -0.020932 0.031625 -0.036092 -0.027209 0.037487 0.020826 0.041994 -0.025733 -0.014991 -0.051045 -0.028942 -0.0087644 0.034357 0.049893 -0.0032969 -0.049739 0.041366 0.0089137 -0.022446 -0.035704 -0.010046 0.012991 -0.038306 0.03156 -0.02848 0.002086 -0.021484 0.0091166 0.0037478 0.0033954 -0.024869 0.01912 -0.014508 -0.037019 0.049114 -0.049871 0.0084287 -0.0081352 -0.020635 0.082027 -0.024898 -0.0009944 0.013894 0.0052302 0.0028567 -0.0079716 -0.016935 -0.0098075 -0.013989 0.077281 -0.0042921 -0.019373 0.0047258 0.040094 0.005475 0.0010335 -0.0065695 0.02081 -0.017476 0.012506 0.0044927 0.0091122 -0.02666 -0.0035649 -0.02106 0.0042723 -0.066053 -0.069169 0.010852 -0.041739 -0.0077747 -0.043246 0.017246 -0.037443 -0.01824 -0.0045071 -0.050609 0.027274 0.038008 -0.043664 0.030019 -0.06933 0.011207 0.044181 0.04058 0.026488 -0.03442 0.0093866 0.022815 
dia 0.01104 0.024241 0.00031425 -0.020898 0.054765 0.069272 -0.020442 -0.020628 0.02651 0.018575 -0.044006 0.029764 -0.042254 0.03901 0.010043 -0.03389 -0.020234 -0.049591 0.020097 0.012322 0.066358 0.026788 0.0097307 -0.033239 -0.049822 -0.0018518 0.047967 -0.040336 -0.0075461 0.021019 0.030513 0.0038933 -0.015501 0.038147 -0.038162 0.01971 0.0041908 0.02772 -0.014724 -0.0033827 0.00028734 0.017244 -0.016511 0.018406 0.037604 -0.050084 0.05016 -0.012885 0.0017447 0.025378 -0.083196 0.0072833 0.0030859 -0.025341 -0.011767 -0.011662 0.006995 0.019176 0.0061429 0.019939 -0.076255 0.014711 0.018595 -0.0070111 -0.039684 0.0040522 -0.00037288 0.0015851 -0.013404 0.011882 -0.0065779 -0.0047679 -0.0092674 0.030588 0.0011131 0.026142 -0.0040537 0.049319 0.075278 -0.0064822 0.038693 0.0087306 0.044553 -0.029719 0.044961 0.016538 0.010437 0.039009 -0.032468 -0.035723 0.042765 -0.03262 0.07112 -0.0050338 -0.044293 -0.038647 -0.029592 0.041548 -0.01131 -0.023045 
entrega 0.048548 0.10659 0.035578 -0.092001 0.24082 0.30461 -0.10921 -0.068323 0.088049 0.088873 -0.21542 0.10925 -0.1858 0.17154 0.089971 -0.13034 -0.076083 -0.19611 0.083494 0.024776 0.21757 0.14581 0.018153 -0.15853 -0.21747 0.025012 0.22356 -0.19436 -0.033182 0.092429 0.16932 0.035853 -0.068163 0.16775 -0.15964 0.11438 0.018428 0.12189 -0.044852 -0.041033 -0.001079 0.12884 -0.072604 0.080939 0.17427 -0.20337 0.22057 -0.056659 0.0019879 0.082608 -0.36007 0.094891 -0.002287 -0.072888 -0.0076528 -0.0062235 0.030759 0.084323 0.075007 0.080304 -0.33532 0.064687 0.094212 -0.00091435 -0.13322 -0.018582 -0.0016397 0.0069702 -0.058942 0.052248 -0.034372 -0.051443 -0.072226 0.12144 0.0048948 0.11495 -0.0027991 0.28534 0.33102 -0.028504 0.14617 0.021022 0.18651 -0.10618 0.19361 0.047774 0.050623 0.21283 -0.16759 -0.15971 0.16394 -0.12738 0.31274 -0.022135 -0.18228 -0.19455 -0.10691 0.17033 -0.021937 -0.09321 
am 0.031981 0.040226 0.0092788 -0.028662 0.1087 0.13749 -0.036044 -0.028021 0.052619 0.036868 -0.087344 0.059078 -0.093219 0.082594 0.027581 -0.054338 -0.034342 -0.088519 0.03989 0.024457 0.099925 0.080764 0.008194 -0.071558 -0.098159 0.01129 0.095208 -0.08006 -0.014978 0.04172 0.076425 0.016183 -0.030767 0.075717 -0.075746 0.039122 0.004213 0.042995 -0.016213 -0.0045536 -0.0095725 0.046244 -0.028408 0.04932 0.074638 -0.09941 0.099559 -0.025575 0.00089727 0.037287 -0.16253 0.042832 -0.0010323 -0.0329 -0.011234 -0.014973 -0.00025578 0.040737 0.024077 0.044577 -0.15135 0.029198 0.036908 -0.013916 -0.07877 -0.0069033 -0.0007401 0.0031462 -0.019456 0.035704 -0.013056 -0.0094635 -0.018394 0.060713 0.0022094 0.051887 -0.0012635 0.1288 0.14942 -0.012866 0.056669 0.0026365 0.072401 -0.044243 0.078391 0.032188 0.02285 0.096068 -0.067149 -0.083593 0.073997 -0.057498 0.14116 -0.0099913 -0.082276 -0.087814 -0.058735 0.082467 -0.0036333 -0.022561 
como -0.015194 -0.023581 -0.0051349 0.012554 -0.051436 -0.071214 0.021771 0.018451 -0.02586 -0.021937 0.041255 -0.017743 0.045072 -0.046181 -0.010891 0.026545 0.0096457 0.036405 -0.015947 -0.0096118 -0.05007 -0.036976 0.00020483 0.036813 0.049893 -0.0032969 -0.049739 0.041366 0.012808 -0.027079 -0.032908 0.0037874 0.01291 -0.032584 0.038001 -0.027744 -0.0038485 -0.031628 0.013909 0.0097886 -0.0017702 -0.029821 0.01397 -0.027048 -0.037019 0.049114 -0.049871 0.0084287 0.0051021 -0.014193 0.082027 -0.024898 -0.0009944 0.013894 0.010026 -0.0020114 -0.005269 -0.0099108 -0.017569 -0.018934 0.074179 -0.028943 -0.014382 -0.00036493 0.040094 0.005475 0.0010335 -0.0065695 0.02081 -0.017476 0.005359 0.0020754 0.012061 -0.021298 -0.012907 -0.030752 0.0021228 -0.047243 -0.083191 0.020237 -0.029846 -0.010873 -0.042616 0.026001 -0.043371 -0.021864 -0.014325 -0.050667 0.030813 0.04405 -0.038941 0.021155 -0.06933 0.011207 0.040537 0.044388 0.026167 -0.045413 -0.0027617 0.018855 
porque -0.0042847 0.0091555 0.0071584 -0.0034154 0.02233 0.028246 -0.011241 -0.0084486 0.015669 0.0067185 -0.012392 0.008897 -0.010069 0.0134 -0.0017513 -0.0049522 -0.0082504 -0.020221 0.013094 0.0033106 0.018191 0.018053 0.0066273 -0.015353 -0.020097 0.0076545 0.020292 -0.011393 -0.011982 0.0027628 0.020165 0.0074688 -0.0099672 0.0059043 -0.012784 0.0095847 0.0066747 0.0080486 -0.00014059 -0.0084743 0.00011716 0.0070313 -0.010776 0.0020285 0.018049 -0.020175 0.027664 -0.0015216 -0.005293 0.0063924 -0.033924 0.0029698 -0.00068585 0.0024491 -0.00070963 -0.00057709 -0.0064924 -0.0010782 0.011231 -0.0012876 -0.031093 0.0059983 0.0047 0.0031555 -0.019488 -5.4617e-05 -0.0024546 -0.0011498 -0.0025224 0.0010771 0.0048428 -0.0033304 -0.00062892 0.01198 -0.005252 0.002258 -0.0041181 0.012626 0.030695 -0.0026431 0.017401 0.010215 0.01942 -0.015035 0.0097174 0.0072054 -0.0041093 0.020151 -0.013262 -0.0052348 0.017218 -0.017089 0.019176 -0.0095262 -0.0099196 -0.012663 -0.010906 0.020601 0.0039315 -0.0021394 
necesita 0.021914 0.048114 0.0092788 -0.028662 0.1087 0.13749 -0.040575 -0.040943 0.039743 0.040115 -0.093413 0.036399 -0.085778 0.065576 0.030857 -0.070052 -0.034342 -0.088519 0.03989 0.024457 0.098207 0.065816 0.018797 -0.052125 -0.088663 0.0019099 0.090088 -0.090504 -0.013337 0.029425 0.073426 0.00055438 -0.025107 0.062705 -0.08573 0.044476 0.004213 0.042995 -0.029225 -0.0067141 -0.0095725 0.046244 -0.042553 0.053383 0.074638 -0.09941 0.099559 -0.025575 0.017807 0.039446 -0.16253 0.042832 -0.0010323 -0.0329 -0.011234 -0.014973 0.013884 0.038061 0.023892 0.028294 -0.15135 0.029198 0.042525 -0.00041272 -0.078767 0.008043 -0.014981 0.0088229 -0.035892 0.035345 -0.015515 -0.02322 -0.025445 0.044619 0.015137 0.046731 -0.0012635 0.1288 0.14942 -0.012866 0.06598 0.0094887 0.077301 -0.062746 0.075704 0.020325 0.0075157 0.099648 -0.055697 -0.076539 0.084882 -0.064745 0.14116 -0.0099913 -0.082276 -0.087814 -0.058876 0.071183 -0.022449 -0.04574 
encuentra -0.030157 -0.046804 -0.010192 0.024917 -0.10209 -0.14135 0.038325 0.021224 -0.040624 -0.035741 0.10137 -0.054057 0.090949 -0.065968 -0.042382 0.06464 0.041337 0.083351 -0.035923 -0.033549 -0.10132 -0.057444 -0.0059047 0.060759 0.088242 -0.0010319 -0.098724 0.082105 0.010759 -0.033141 -0.070778 -0.0079721 0.013628 -0.069334 0.075426 -0.055067 -0.0090051 -0.048056 0.0045296 0.0069496 -0.017857 -0.055705 0.039565 -0.042302 -0.091537 0.090304 -0.097281 0.029539 -0.0029661 -0.035753 0.16281 -0.049419 0.0068506 0.041363 0.010381 0.0056702 -0.015822 -0.033613 -0.027817 -0.054149 0.14723 -0.057447 -0.046626 0.018583 0.057397 0.0071568 0.013702 -0.0019189 0.041305 -0.034687 0.0074715 0.028685 0.02998 -0.056771 -0.025619 -0.061037 0.0084799 -0.13111 -0.13729 0.02154 -0.069599 -0.00085513 -0.084586 0.051607 -0.074319 -0.036203 -0.028432 -0.10057 0.076037 0.072373 -0.075863 0.066416 -0.13761 0.022244 0.078116 0.07435 0.052574 -0.068318 0.018631 0.045285 
mas -0.030157 -0.046804 -0.0080153 0.038472 -0.10209 -0.14135 0.043212 0.036622 -0.040624 -0.035741 0.10137 -0.054057 0.082812 -0.073874 -0.036894 0.05412 0.027907 0.085654 -0.051076 -0.029755 -0.10132 -0.057444 -0.017396 0.068193 0.09903 -0.0065439 -0.098724 0.082105 0.014648 -0.019994 -0.065317 0.0075174 0.014799 -0.079257 0.071773 -0.04403 -0.0076387 -0.062777 0.027608 0.019429 -0.0035136 -0.05919 0.026921 -0.036468 -0.073477 0.097484 -0.098986 0.01673 -0.0039073 -0.048337 0.16281 -0.049419 -0.0019737 0.027578 0.010381 0.0056702 -0.015822 -0.033613 -0.020111 -0.041585 0.14723 -0.057447 -0.038453 0.00938 0.079581 0.010867 0.0020513 -0.01304 0.027059 -0.030003 0.016682 0.019633 0.018086 -0.052915 -0.023596 -0.047879 0.015766 -0.098944 -0.13729 0.02154 -0.068197 -0.013133 -0.073508 0.058985 -0.074319 -0.036203 -0.028432 -0.10057 0.068073 0.078114 -0.078989 0.053065 -0.13761 0.022244 0.087693 0.080545 0.04224 -0.075245 0.015072 0.030177 
puede 0.018047 0.0042132 -0.0046101 -0.011009 0.027097 0.027015 -0.021251 -0.0040287 0.0081872 0.0055961 -0.03171 0.0081492 -0.015255 0.027628 0.0013608 -0.011395 -0.01255 -0.030758 0.01452 0.014427 0.031575 0.030007 0.01316 -0.011174 -0.038392 0.0048345 0.030866 -0.01733 0.00075303 0.019979 0.018151 -0.0025054 -0.0056721 0.026346 -0.023768 0.023848 -0.0029817 0.0060377 -0.010511 -0.0064708 -0.0084257 0.006267 -0.010241 0.011416 0.022756 -0.038557 0.030831 -0.002688 0.01139 0.020878 -0.051601 0.0045173 -0.0039963 -0.00032462 0.0043352 0.0058971 0.014273 0.015593 0.0089237 0.0048918 -0.047296 0.009124 0.011533 -0.0043486 -0.012093 0.0038786 0.0092215 0.0049872 -0.0085332 0.021684 -0.0089102 0.0039419 -0.014473 0.022428 -0.002787 0.019543 0.00024765 0.026245 0.04669 -0.0040205 0.01643 0.0059758 0.024156 -0.019607 0.029643 0.016108 0.011152 0.030703 -0.019131 -0.011764 0.023123 -0.017967 0.029611 0.0054341 -0.019649 -0.018678 -0.026427 0.023282 -0.0056506 -0.0096302 
estaba -0.031307 -0.032761 8.6789e-05 0.02642 -0.10209 -0.14135 0.038325 0.021224 -0.040624 -0.035741 0.095739 -0.041546 0.082409 -0.061257 -0.036894 0.05412 0.022234 0.097227 -0.035923 -0.033549 -0.099381 -0.073392 -0.0059047 0.060759 0.088242 -0.0010319 -0.098724 0.082105 0.026172 -0.035559 -0.079651 0.0023722 0.013628 -0.069334 0.071773 -0.04403 0.0064305 -0.055873 0.018095 0.0074388 -0.0035136 -0.05919 0.039565 -0.042302 -0.091537 0.090304 -0.098347 0.044371 -0.0039073 -0.048337 0.16281 -0.049419 -0.0019737 0.027578 0.013873 0.018872 -0.0025408 -0.036461 -0.019466 -0.027765 0.14723 -0.057447 -0.05301 0.0064293 0.079581 0.010867 0.0020513 -0.01304 0.041305 -0.034687 0.024822 0.0089173 0.02998 -0.056771 -0.0070757 -0.041801 0.0084799 -0.13111 -0.13729 0.02154 -0.068197 -0.013133 -0.074589 0.044718 -0.074319 -0.036203 -0.028432 -0.10057 0.068073 0.078114 -0.075863 0.066416 -0.13761 0.022244 0.092576 0.088655 0.053935 -0.080591 0.018631 0.045285 
poco -0.041348 -0.080855 -0.017758 0.085233 -0.22618 -0.31315 0.084908 0.047021 -0.11372 -0.096463 0.20043 -0.12015 0.18347 -0.16366 -0.093895 0.14321 0.061826 0.18976 -0.098647 -0.040937 -0.22446 -0.12727 -0.013082 0.13461 0.2194 -0.014498 -0.21872 0.1819 0.023835 -0.073423 -0.18769 -0.022367 0.057125 -0.16844 0.1671 -0.122 0.014246 -0.12378 0.040089 0.01648 -0.012406 -0.10355 0.087653 -0.093718 -0.18997 0.22116 -0.21552 0.065443 -0.0065713 -0.07921 0.3607 -0.10949 -0.0043727 0.061097 -0.00063618 0.028948 -0.035054 -0.074467 -0.044554 -0.09213 0.32619 -0.12727 -0.11744 0.014244 0.1565 -0.00048655 -0.0016397 0.0069702 0.059947 -0.066471 0.036958 0.043495 0.06642 -0.12577 -0.027217 -0.12693 0.018787 -0.29046 -0.30416 0.047721 -0.15109 -0.029096 -0.18739 0.11433 -0.18266 -0.052796 -0.043192 -0.20807 0.15081 0.17306 -0.175 0.11756 -0.30486 0.04928 0.19428 0.17844 0.11949 -0.17855 0.033392 0.066856 
hija -0.008243 -0.026945 4.3726e-05 0.013311 -0.051436 -0.071214 0.021771 0.018451 -0.02586 -0.021937 0.041037 -0.024376 0.036929 -0.034846 -0.021353 0.032567 0.011202 0.048985 -0.025733 -0.014991 -0.05007 -0.036976 -0.0029749 0.030611 0.044719 -0.0074557 -0.050158 0.049206 0.013186 -0.017915 -0.035659 -0.0040165 0.012991 -0.038306 0.042577 -0.017738 0.0032398 -0.02815 0.0091166 0.0037478 0.0033954 -0.024869 0.01397 -0.027048 -0.0432 0.050295 -0.049012 0.014883 -0.0019686 -0.024353 0.082027 -0.024898 0.00559 0.0091461 -0.00014467 0.0065831 0.0004832 -0.025544 -0.0074245 -0.028367 0.074179 -0.028943 -0.015211 0.01041 0.032995 0.0083007 -0.0060198 -0.0028198 0.017371 -0.0096404 0.012506 0.0044927 0.0091122 -0.02666 -0.0061895 -0.028865 0.0042723 -0.066053 -0.069169 0.010852 -0.028345 -0.0036562 -0.037035 0.029718 -0.048344 -0.016111 -0.014325 -0.050667 0.037507 0.044271 -0.043664 0.030019 -0.06933 0.011207 0.045095 0.035793 0.021281 -0.03791 0.00066692 0.012352 
llamo 0.010702 0.014904 0.010918 -0.0079339 0.054765 0.069272 -0.024836 -0.015537 0.027528 0.025072 -0.047063 0.018339 -0.036391 0.037767 0.015546 -0.035294 -0.0051304 -0.041439 0.015483 -0.0011058 0.049718 0.026052 0.0097307 -0.033239 -0.049454 0.005688 0.045388 -0.045598 -0.0075461 0.021019 0.042936 -0.0048886 -0.0081681 0.035786 -0.043447 0.028125 0.0021226 0.021661 -0.0019076 -0.0064239 0.0038328 0.023287 -0.014312 0.024848 0.044264 -0.049478 0.04327 -0.013109 0.0017447 0.025378 -0.083196 0.0072833 -0.0050699 -0.006652 -0.01005 0.0001373 0.002417 0.012813 0.012131 0.022459 -0.076255 0.014711 0.014023 0.00020631 -0.030295 -0.0042258 -0.0075479 0.0044451 -0.020871 0.0079325 -0.014171 -0.0085909 -0.015694 0.03469 0.0011804 0.034032 0.0032654 0.049104 0.075278 -0.0064822 0.033242 0.0047806 0.043514 -0.034842 0.032709 0.0080073 0.0037865 0.050205 -0.038113 -0.03632 0.037281 -0.028969 0.07112 -0.0050338 -0.038865 -0.038162 -0.029663 0.035863 0.0012112 -0.017397 
ir 0.021914 0.048114 0.016059 -0.041527 0.1087 0.13749 -0.036044 -0.028021 0.052619 0.036868 -0.097236 0.049313 -0.083867 0.077428 0.040611 -0.058834 -0.034342 -0.088519 0.03989 0.024457 0.098207 0.065816 0.0046187 -0.054803 -0.098889 -0.0036756 0.095208 -0.08006 -0.014978 0.04172 0.073426 0.00055438 -0.018151 0.08431 -0.072056 0.05163 0.0083181 0.055019 -0.020245 -0.018521 -0.00048705 0.058156 -0.032772 0.036534 0.087857 -0.098206 0.099559 -0.025575 0.017807 0.039446 -0.16253 0.042832 -0.0010323 -0.0329 -0.0034543 -0.0028091 0.0047973 0.025433 0.023892 0.028294 -0.15135 0.029198 0.052876 -0.0092345 -0.07877 -0.0069033 -0.0007401 0.0031462 -0.035892 0.035345 -0.013056 -0.0094635 -0.018394 0.060713 0.002343 0.067547 -0.0012635 0.1288 0.14942 -0.012866 0.06598 0.0094887 0.084186 -0.047928 0.078391 0.032188 0.02285 0.096068 -0.064444 -0.070904 0.073997 -0.057498 0.14116 -0.0099913 -0.077141 -0.075745 -0.054543 0.091806 -0.018083 -0.030818 
hace -0.0058322 -0.011405 -0.010048 0.0079536 -0.031903 -0.044169 0.021597 0.016229 -0.012695 -0.011169 0.022004 -0.014615 0.031339 -0.015581 -0.00081073 0.017253 0.0066446 0.018309 -0.019312 -0.0062535 -0.03166 -0.017951 0.0060777 0.021735 0.030698 0.0025838 -0.03111 0.030519 0.0021377 -0.015953 -0.018115 -0.0044048 0.01175 -0.01317 0.014447 -0.01626 0.0085694 -0.0056313 0.0014155 0.0021716 -0.0024946 -0.025186 0.016177 -0.018437 -0.014839 0.022155 -0.030732 0.013865 -0.0092816 -0.019282 0.050876 -0.015443 0.0097443 0.011157 0.013761 -0.0035999 0.0002997 -0.015843 -0.014457 -0.0085467 0.046008 -0.017951 -0.0073628 -0.0037787 0.024868 0.0033958 -0.0046815 0.002757 0.019048 -0.018208 0.011509 -0.0046435 0.010377 -0.027227 -0.012112 -0.016365 0.0026498 -0.040969 -0.042901 0.0067311 -0.021311 -0.004104 -0.025255 0.0064167 -0.030153 -0.0012664 -0.0088846 -0.031426 0.013623 0.021189 -0.024153 0.013121 -0.043001 0.0069509 0.019873 0.016183 0.015183 -0.017811 -0.0017129 0.011694 
llamado -0.012005 -0.011 -0.0051349 0.012554 -0.051436 -0.071214 0.015118 0.017761 -0.014556 -0.021931 0.050385 -0.014483 0.041519 -0.030862 -0.0046574 0.022331 0.026346 0.041249 -0.031136 -0.010082 -0.051045 -0.028942 -0.0087644 0.034357 0.044458 -0.0005199 -0.038201 0.044162 0.0073801 -0.010073 -0.037596 0.0087069 0.003603 -0.043948 0.025001 -0.032665 0.002086 -0.021484 0.021955 0.012035 -0.0089966 -0.028065 0.01397 -0.027048 -0.037019 0.049114 -0.037768 0.0026533 -0.0081352 -0.020635 0.082027 -0.024898 0.0095644 0.0032872 0.010026 -0.0020114 -0.0012801 -0.01837 -0.0074245 -0.028367 0.077281 -0.0042921 -0.014382 -0.00036493 0.039193 0.011551 -0.011831 0.010875 0.027385 -0.014228 0.0070826 0.020627 0.021639 -0.025887 0.0052821 -0.02034 0.0042723 -0.066053 -0.077394 -0.012299 -0.040888 -0.0022459 -0.044306 0.032596 -0.048344 -0.016111 -0.014325 -0.050667 0.034296 0.039355 -0.031958 0.021404 -0.06933 0.011207 0.040537 0.044388 0.021087 -0.049799 0.0034206 0.022436 
hable 0.021914 0.048114 0.0092788 -0.028662 0.1087 0.13749 -0.049295 -0.030839 0.054638 0.049765 -0.087344 0.059078 -0.072231 0.074961 0.030857 -0.070052 -0.022459 -0.082265 0.037687 0.011183 0.098207 0.065816 -0.0029805 -0.067924 -0.087229 -0.011779 0.10091 -0.087728 -0.013337 0.029425 0.076425 0.016183 -0.016212 0.071029 -0.062228 0.046656 0.0083181 0.055019 -0.009161 0.0047948 0.0098787 0.070034 -0.032772 0.036534 0.087857 -0.098206 0.099559 -0.025575 0.017031 0.053949 -0.16253 0.042832 -0.013259 -0.027374 -0.0034543 -0.0028091 0.0047973 0.025433 0.037488 0.048207 -0.15135 0.029198 0.042525 -0.00041272 -0.07877 -0.0069033 0.013702 -0.0019189 -0.026605 0.023583 -0.015515 -0.02322 -0.043438 0.059982 0.0022094 0.051887 -0.0080459 0.09789 0.14942 -0.012866 0.06598 0.0094887 0.094928 -0.041541 0.078391 0.032188 0.02285 0.096068 -0.075647 -0.07209 0.084882 -0.064745 0.14116 -0.0099913 -0.082276 -0.087814 -0.058735 0.082467 -0.0099018 -0.042073 
hacer -0.003772 0.011727 0.0010819 0.0026355 0.017509 0.015384 -0.016509 0.0018536 0.0054844 -0.0016472 -0.0074229 0.018263 -0.019964 0.0206 -0.0029685 -0.017046 -0.0043822 -0.010266 0.0065974 0.012318 0.013975 0.0022779 0.00050843 -0.0022809 -0.018486 -0.010097 0.017336 -0.020383 -0.006127 0.0063794 0.013333 -0.010134 0.0040096 0.014392 -0.015626 0.015678 -0.0036194 0.016172 -0.0052976 0.0018432 -0.0085674 0.014837 0.000671 0.0017424 0.01496 -0.025348 0.021651 -0.0089538 -0.0064663 0.014659 -0.033924 0.0029698 0.0022571 -0.0042168 0.00285 0.0038769 -0.0083586 0.016582 0.0049082 0.0058126 -0.019582 0.0048428 0.0075821 -0.0028588 -0.010998 0.0042424 0.0041665 0.0054335 0.00061966 0.0047968 0.003427 0.0040332 0.0037103 0.0089138 0.0052184 0.011788 0.0021531 0.014569 0.030695 -0.0026431 0.012761 0.0067837 0.020147 -0.0012645 0.020393 0.0056762 -0.0028601 0.017417 -0.0046341 -0.01744 0.01972 -0.015695 0.029 -0.0020526 -0.020127 -0.0095085 -0.0076317 0.016692 -0.0090061 -0.01411 
dice -0.018664 -0.036496 -0.010192 0.024917 -0.10209 -0.14135 0.043212 0.036622 -0.051328 -0.043541 0.095739 -0.041546 0.082812 -0.073874 -0.036894 0.05412 0.027907 0.085654 -0.031652 -0.019078 -0.099381 -0.073392 -0.0059047 0.060759 0.09903 -0.0065439 -0.098724 0.082105 0.026172 -0.035559 -0.079651 0.0023722 0.025785 -0.076031 0.071773 -0.04403 0.0041404 -0.042643 0.018095 0.0074388 -0.0055999 -0.04674 0.026921 -0.036468 -0.073477 0.097484 -0.097281 0.029539 -0.0029661 -0.035753 0.16281 -0.049419 0.0068506 0.041363 -0.00028716 0.013066 -0.0025408 -0.036461 -0.020111 -0.041585 0.14723 -0.057447 -0.038453 0.00938 0.079581 0.010867 -0.0007401 0.0031462 0.027059 -0.030003 0.016682 0.019633 0.02998 -0.056771 -0.012285 -0.057292 0.0084799 -0.13111 -0.13729 0.02154 -0.068197 -0.013133 -0.074589 0.044718 -0.095954 -0.031977 -0.019496 -0.093919 0.076037 0.072373 -0.078989 0.053065 -0.13761 0.022244 0.078116 0.07435 0.053935 -0.080591 0.015072 0.030177 
dias 0.021303 0.016712 0.010918 -0.0079339 0.054765 0.069272 -0.020293 -0.0070403 0.020023 0.020211 -0.050393 0.03236 -0.03732 0.030708 0.027072 -0.024329 -0.020096 -0.033398 0.020097 0.012322 0.066358 0.026788 0.0094703 -0.026262 -0.043947 -0.0059347 0.049235 -0.034247 -0.0052515 0.007849 0.036993 0.00027931 -0.004297 0.047102 -0.03246 0.03126 0.0021226 0.021661 -0.016946 -0.010433 0.0049771 0.035284 -0.01223 0.012151 0.050008 -0.050675 0.067844 -0.0037318 0.0089713 0.019874 -0.081884 0.021579 0.00061693 -0.0082983 -0.0014344 -0.015266 0.014011 0.014005 0.012037 0.014255 -0.076255 0.014711 0.02664 -0.0046525 -0.039684 0.0040522 -0.0075479 0.0044451 -0.01321 0.0035718 0.00023983 -0.01183 -0.01282 0.02248 0.013395 0.021352 -0.00063656 0.064889 0.075278 -0.0064822 0.038701 -0.0074433 0.044553 -0.029719 0.049569 0.0073342 0.011512 0.048401 -0.033831 -0.042115 0.036811 -0.036624 0.07112 -0.0050338 -0.027867 -0.036025 -0.029663 0.035863 -0.0049887 -0.021197 
fue -0.015773 -0.016506 -0.0099611 0.012793 -0.051436 -0.071214 0.014315 0.02459 -0.020632 -0.025622 0.051072 -0.027235 0.036929 -0.034846 -0.018588 0.027267 0.020826 0.041994 -0.01701 -0.0019269 -0.05007 -0.036976 -0.0087644 0.034357 0.049493 0.0041658 -0.047116 0.035118 0.013186 -0.017915 -0.029206 -0.0071019 0.0021227 -0.03871 0.02923 -0.023022 -0.0045369 -0.024211 0.0045318 0.012166 0.0011776 -0.035595 0.01397 -0.027048 -0.037019 0.049114 -0.049871 0.0084287 -0.0081352 -0.020635 0.082027 -0.024898 -0.0033507 0.02084 -0.00014467 0.0065831 -0.0012801 -0.01837 -0.020478 -0.025327 0.074179 -0.028943 -0.026707 0.0032392 0.03559 -0.00011065 0.0010335 -0.0065695 0.02081 -0.017476 0.005359 0.0020754 0.016044 -0.036749 -0.012907 -0.030752 0.0042723 -0.066053 -0.083191 0.020237 -0.029846 -0.010873 -0.042616 0.026001 -0.041539 -0.012006 -0.0045071 -0.050609 0.027274 0.038008 -0.038221 0.033461 -0.06933 0.011207 0.044181 0.04058 0.026488 -0.03442 0.00066692 0.012352 
pami 0.048548 0.10659 0.020557 -0.0635 0.24082 0.30461 -0.10921 -0.068323 0.11657 0.08168 -0.21542 0.10925 -0.20652 0.18298 0.061104 -0.12038 -0.076083 -0.19611 0.11552 0.045402 0.21757 0.14581 0.018153 -0.15853 -0.21747 0.025012 0.21093 -0.17737 -0.029548 0.065189 0.16932 0.035853 -0.068163 0.16775 -0.15964 0.11438 0.0093336 0.095252 -0.064746 -0.014875 -0.001079 0.12884 -0.10197 0.083403 0.17427 -0.20337 0.22057 -0.056659 0.03945 0.087391 -0.36007 0.094891 -0.029374 -0.060645 0.0041711 -0.042263 0.030759 0.084323 0.053342 0.098757 -0.33532 0.064687 0.094212 -0.00091435 -0.17451 -0.015294 -0.0016397 0.0069702 -0.058942 0.052248 -0.034372 -0.051443 -0.072226 0.12144 0.026646 0.13466 -0.0027991 0.28534 0.33102 -0.028504 0.14617 0.021022 0.18651 -0.10618 0.17367 0.07131 0.050623 0.21283 -0.16759 -0.15971 0.16394 -0.12738 0.31274 -0.022135 -0.1709 -0.16781 -0.10691 0.17033 -0.021937 -0.09321 
ayuda 0.0056931 -0.00078608 0.0044216 -0.0094279 0.0080138 0.020533 0.0016973 0.00037814 0.011145 0.0016212 -0.013844 -0.00087054 -0.0093937 0.0060194 0.00277 -0.011585 0.004064 -0.011853 0.006556 0.006514 0.0026193 0.008225 0.01003 -0.010168 -0.011434 -0.0055293 0.0048843 -0.0058159 -0.0061785 0.0087776 0.013849 0.0051296 0.0039066 0.012043 -0.013865 0.013762 -0.0025491 0.013496 -0.0036747 -0.0081784 0.0054641 0.0087568 -0.0052313 0.013711 0.013907 -0.012714 0.009896 -0.0078392 0.0069513 -0.0036547 -0.023952 0.010398 0.0070673 -0.010247 0.0069001 0.004636 0.00067686 0.0035883 0.003691 0.0079397 -0.013833 -0.0029639 -0.0039543 -0.0036311 -0.0084841 -0.0011834 0.00028942 -0.0018398 0.0030008 -0.0022512 -0.0085284 0.0020326 -0.009925 0.0087828 0.0088605 0.011512 0.0014787 0.010006 0.021081 -0.0018153 0.0031779 -0.00072138 0.0054107 0.0012731 0.013741 0.00036426 -0.0010099 0.013784 -0.0041035 -0.00098422 0.013864 -0.00095188 0.013831 -0.0082161 -0.01375 -0.0031519 -0.0094271 0.00095231 -0.000453 0.001713 
semana 0.0056212 -0.011701 -0.0015299 0.0018021 -0.0097996 -0.013946 -0.0015614 0.0029728 -0.0054091 0.0037419 0.013862 0.0022622 0.012748 -0.011252 -0.011624 -0.0027676 0.013294 0.012637 -0.01202 -0.005888 -0.0037641 -0.013943 -0.0077766 0.010597 0.01091 0.0070559 -0.013683 0.0065787 -0.0029449 -0.0030314 -0.013896 -0.0055551 -0.0024384 -0.013475 0.013793 -0.0051075 -0.0040003 -0.013237 -0.0061039 0.0027656 -0.0085124 0.0048311 0.0021112 -0.013602 -0.0064596 0.013766 -0.013553 0.010059 -9.1376e-05 -0.012364 0.013857 0.0044373 -0.0023679 0.0031459 0.0053536 0.011762 -0.011019 0.0045804 0.0040292 0.0022087 0.0089155 -0.0098976 0.0048778 0.0033674 -0.0015104 -0.0097674 0.0019477 0.0018199 0.0083474 -0.011932 0.0051964 -0.0020966 -0.0039515 -0.00533 0.0075082 -0.008334 0.0065811 -0.0095926 -0.011916 0.00020499 -0.0069979 0.0098726 -0.0021068 0.00036126 -0.013926 0.0012579 -0.0061535 -0.0025615 0.01368 0.0051263 -0.0019165 0.013958 -0.0068534 -0.006259 0.013879 0.00341 0.011848 0.0031187 -0.0016237 0.009234 
senora -0.0094031 -0.018387 -0.011806 0.019456 -0.051436 -0.071214 0.0269 0.012719 -0.02586 -0.021937 0.048235 -0.020932 0.041722 -0.037219 -0.013663 0.034454 0.017394 0.04884 -0.015947 -0.0096118 -0.051045 -0.028942 -0.006209 0.039589 0.044458 -0.0005199 -0.049739 0.041366 0.0054203 -0.016697 -0.042683 -0.0050865 0.01832 -0.040617 0.042577 -0.017738 -0.0029132 -0.016147 0.013909 0.0097886 -0.0089966 -0.028065 0.01912 -0.014508 -0.046118 0.045497 -0.049012 0.014883 -0.0081352 -0.020635 0.082027 -0.024898 -0.0033507 0.02084 0.0052302 0.0028567 0.0004832 -0.025544 -0.016313 -0.01153 0.074179 -0.028943 -0.022011 -0.0019239 0.039193 0.011551 -0.0075479 0.0044451 0.017371 -0.0096404 0.012506 0.0044927 0.021639 -0.025887 -0.011888 -0.024122 -0.0041796 -0.048674 -0.069169 0.010852 -0.028345 -0.0036562 -0.036664 0.016205 -0.048187 -0.0086736 -0.014325 -0.050667 0.031298 0.032613 -0.043664 0.030019 -0.06933 0.011207 0.033683 0.033699 0.032988 -0.044642 0.00066692 0.012352 
sra -0.012199 -0.0067834 -0.0049097 -8.1734e-05 -0.031903 -0.044169 0.0093767 0.011016 -0.011625 -0.0067887 0.025588 -0.011005 0.022648 -0.030936 -0.017678 0.019677 0.0029402 0.030915 -0.011226 -0.010484 -0.031055 -0.022934 0.0013252 0.010293 0.024516 0.0011491 -0.027342 0.030008 0.0033619 -0.010356 -0.026498 -0.0066652 -7.828e-05 -0.021116 0.022428 -0.013759 0.0037712 -0.0092152 0.0014155 0.0021716 -0.0017499 -0.014605 0.015967 -0.010343 -0.022961 0.030462 -0.030732 0.013865 -0.0080394 -0.0097926 0.050876 -0.015443 -0.0010433 0.0037254 -0.0036489 0.0027092 -0.0074118 -0.013771 -0.0072642 -0.0037829 0.046008 -0.017951 -0.016565 0.0020091 0.026741 0.00030474 -0.0028339 0.0071875 0.0020651 -0.015165 0.00057772 0.0047609 0.0099511 -0.022793 -0.0022111 -0.013062 0.0013167 -0.029302 -0.048003 -0.0076281 -0.025888 -0.0048222 -0.016648 0.0045419 -0.030508 -0.014745 -0.0088846 -0.031426 0.015692 0.027771 -0.023706 0.020754 -0.031219 0.0087837 0.021067 0.024579 0.021187 -0.019587 0.004016 0.018378 
sus -0.008243 -0.026945 -0.0054631 0.0064349 -0.051436 -0.071214 0.0269 0.012719 -0.013983 -0.027665 0.048235 -0.020932 0.045521 -0.040178 -0.018588 0.027267 0.0047404 0.049844 -0.022434 -0.0093095 -0.05007 -0.036976 0.00020483 0.036813 0.049493 0.0041658 -0.04384 0.041496 0.014938 -0.010851 -0.035659 -0.0040165 0.014045 -0.044456 0.04599 -0.029358 -0.010515 -0.015646 0.0091166 0.0037478 0.0074084 -0.018535 0.013563 -0.018373 -0.044507 0.039971 -0.049871 0.0084287 -0.0014068 -0.010162 0.082027 -0.024898 0.0034515 0.020839 -0.0062537 0.010849 -0.014826 -0.014057 -0.011712 -0.0060991 0.077281 -0.0042921 -0.0296 -0.0031939 0.039193 0.011551 0.0077265 -0.011012 0.027608 -0.021434 0.013012 0.015291 0.015105 -0.028602 -0.0040744 -0.035365 0.007943 -0.04985 -0.069169 0.010852 -0.028345 -0.0036562 -0.04953 0.016524 -0.048344 -0.016111 -0.0098224 -0.047318 0.034296 0.039355 -0.03162 0.033342 -0.06933 0.011207 0.039356 0.037459 0.021087 -0.049799 0.012496 0.0090561 
ver -0.0062252 -0.0031027 -0.0067591 -0.004972 -0.011748 -0.0071799 0.0038443 -0.001455 -0.00049481 -0.0019748 0.010313 0.0063648 0.011258 -0.0032762 0.0054532 0.010368 0.010957 -0.002833 -0.0072028 -0.0023324 0.00050051 0.0012034 -0.00068819 0.0070814 0.0037991 0.0085051 -0.011603 0.011383 0.0035004 0.00052251 -0.011408 -0.0082213 -0.00055039 -0.0050423 0.0053886 -0.0060647 -0.0073198 -0.0031807 0.0066614 0.0098685 -0.0035155 0.0039478 -0.0053646 0.0043877 -0.0035354 0.0050866 -0.011291 -0.0022139 0.001023 0.0014154 0.0091896 -0.0039424 -0.00023004 0.0032142 -0.0083477 0.0077759 -0.0014317 -0.0061069 -0.011412 -0.010031 0.017878 -0.0009929 -0.0019391 0.0082135 0.011438 0.0071837 0.0060406 0.0067725 -0.0044862 -0.0031485 0.0096169 0.0015495 0.0058795 -0.011383 -0.0071568 0.0044451 -0.0013975 -0.0079697 -0.011371 -0.0087348 -0.0005145 -0.00093404 -3.4959e-05 0.00070503 -0.0070694 0.0041496 0.0028655 0.0012428 -0.0027845 0.011398 -0.011299 0.011371 -0.011569 -0.00056041 0.0005253 0.0076154 0.011422 -0.0093467 0.0049925 -0.00086271 
salud -0.030157 -0.046804 -0.0080153 0.038472 -0.10209 -0.14135 0.043212 0.036622 -0.051328 -0.043541 0.10137 -0.054057 0.082812 -0.073874 -0.042382 0.06464 0.027907 0.085654 -0.031652 -0.019078 -0.099381 -0.073392 -0.0059047 0.060759 0.09903 -0.0065439 -0.099556 0.097666 0.017692 -0.044552 -0.084719 -0.010096 0.025785 -0.076031 0.08608 -0.048332 -0.0090051 -0.048056 0.027608 0.019429 0.0067394 -0.049361 0.037951 -0.028795 -0.085746 0.099828 -0.097281 0.029539 -0.0029661 -0.035753 0.16281 -0.049419 0.0068506 0.041363 -0.00028716 0.013066 -0.0025408 -0.036461 -0.019466 -0.027765 0.14723 -0.057447 -0.043689 -0.0038186 0.070641 -0.00021962 -0.011948 -0.0055969 0.027059 -0.030003 0.016682 0.019633 0.022039 -0.06883 -0.00033475 -0.051687 0.0084799 -0.13111 -0.13729 0.02154 -0.069599 -0.00085513 -0.074589 0.044718 -0.082448 -0.023831 -0.019496 -0.093919 0.068073 0.078114 -0.075863 0.066416 -0.13761 0.022244 0.08046 0.088103 0.053935 -0.080591 0.018631 0.045285 
todo -0.030157 -0.046804 -0.0080153 0.038472 -0.10209 -0.14135 0.030007 0.035252 -0.040952 -0.050855 0.09047 -0.054235 0.082812 -0.073874 -0.02712 0.068386 0.034524 0.096941 -0.051076 -0.029755 -0.099381 -0.073392 -0.0096768 0.04619 0.09903 -0.0065439 -0.098724 0.082105 0.010759 -0.033141 -0.070778 -0.0079721 0.025624 -0.064674 0.071773 -0.04403 -0.0090051 -0.048056 0.027608 0.019429 -0.0035136 -0.05919 0.037951 -0.028795 -0.085746 0.099828 -0.097281 0.029539 -0.0029661 -0.035753 0.16281 -0.049419 -0.0066506 0.041365 0.010381 0.0056702 -0.0025408 -0.036461 -0.034872 -0.03758 0.14723 -0.057447 -0.05301 0.0064293 0.057397 0.0071568 -0.011948 -0.0055969 0.034479 -0.019135 0.016682 0.019633 0.018086 -0.052915 -0.012285 -0.057292 0.015766 -0.098944 -0.13729 0.02154 -0.068197 -0.013133 -0.084586 0.051607 -0.095954 -0.031977 -0.019496 -0.093919 0.068073 0.078114 -0.075863 0.066416 -0.13761 0.022244 0.08046 0.088103 0.051937 -0.090138 0.015072 0.030177 
casa -0.018664 -0.036496 8.6789e-05 0.02642 -0.10209 -0.14135 0.053392 0.025245 -0.051328 -0.043541 0.095739 -0.041546 0.090949 -0.065968 -0.036894 0.05412 0.027907 0.085654 -0.031652 -0.019078 -0.10132 -0.057444 -0.0059047 0.060759 0.09903 -0.0065439 -0.098724 0.082105 0.010759 -0.033141 -0.079651 0.0023722 0.014799 -0.079257 0.075426 -0.055067 -0.0076387 -0.062777 0.027608 0.019429 -0.017857 -0.055705 0.039565 -0.042302 -0.080448 0.087677 -0.097281 0.029539 -0.016147 -0.040958 0.16023 -0.010032 0.0068506 0.041363 -0.00028716 0.013066 -0.015822 -0.033613 -0.020111 -0.041585 0.14723 -0.057447 -0.043689 -0.0038186 0.06549 0.016476 0.0020513 -0.01304 0.034479 -0.019135 0.025827 0.030351 0.02998 -0.056771 0.0019567 -0.06355 0.0084799 -0.13111 -0.13729 0.02154 -0.056261 -0.007257 -0.084586 0.051607 -0.074319 -0.036203 -0.0089459 -0.10045 0.054135 0.07544 -0.078989 0.053065 -0.13761 0.022244 0.078116 0.07435 0.04224 -0.075245 0.0067894 0.044532 
comento -0.015773 -0.016506 -0.0095369 0.025944 -0.051436 -0.071214 0.0269 0.012719 -0.020467 -0.018007 0.045581 -0.027324 0.040102 -0.043905 -0.021992 0.038979 0.01406 0.043154 -0.018099 -0.016903 -0.05007 -0.036976 -0.0048754 0.023271 0.044458 -0.0005199 -0.049739 0.041366 0.014938 -0.010851 -0.035659 -0.0040165 0.012991 -0.038306 0.04599 -0.029358 -0.0038485 -0.031628 0.012798 -0.0054547 -0.0089966 -0.028065 0.01912 -0.014508 -0.037019 0.049114 -0.049871 0.0084287 -0.0091926 -0.02763 0.082027 -0.024898 -0.0009944 0.013894 0.0052302 0.0028567 -0.0079716 -0.016935 -0.016313 -0.01153 0.074179 -0.028943 -0.019373 0.0047258 0.028918 0.0036057 -0.0075479 0.0044451 0.017371 -0.0096404 0.0037643 0.014452 0.021446 -0.031333 -0.012907 -0.030752 -0.0041796 -0.048674 -0.069169 0.010852 -0.042992 0.0038033 -0.037035 0.029718 -0.037443 -0.01824 -0.0045071 -0.050609 0.040045 0.031345 -0.046058 0.024086 -0.06933 0.011207 0.044181 0.04058 0.032988 -0.044642 -0.0027617 0.018855 
cuando -0.0034086 -0.021403 -0.0162 0.012824 -0.051436 -0.071214 0.013982 0.0045008 -0.020632 -0.025622 0.050385 -0.014483 0.033943 -0.045849 -0.027258 0.024959 0.01406 0.043154 -0.031136 -0.010082 -0.05007 -0.036976 -0.0087644 0.034357 0.049521 -0.011561 -0.049739 0.041366 0.013186 -0.017915 -0.028465 -0.013114 0.008208 -0.028705 0.036161 -0.022183 -0.010927 -0.030301 0.0022821 0.0035013 0.00057552 -0.016942 0.01912 -0.014508 -0.030262 0.048879 -0.049549 0.022355 0.008374 -0.026 0.082027 -0.024898 0.011079 0.023592 0.0069896 0.0095079 -0.014826 -0.014057 -0.0098075 -0.013989 0.077281 -0.0042921 -0.015211 0.01041 0.029455 -0.0087309 -0.0086627 -0.0097402 0.0045665 -0.0088597 0.0084047 0.0098914 0.015105 -0.028602 0.00098583 -0.032017 -0.0041796 -0.048674 -0.069169 0.010852 -0.028345 -0.0036562 -0.037579 0.02253 -0.049188 -0.023773 -0.016258 -0.044109 0.027274 0.038008 -0.033927 0.027632 -0.071721 -0.012577 0.038313 0.030392 0.014165 -0.048106 0.00066692 0.012352 
llame -0.030157 -0.046804 -0.023434 0.038618 -0.10209 -0.14135 0.038325 0.021224 -0.040952 -0.050855 0.09047 -0.054235 0.090949 -0.065968 -0.036894 0.05412 0.027907 0.085654 -0.044527 -0.018478 -0.10132 -0.057444 -0.0059047 0.060759 0.09903 -0.0065439 -0.098724 0.082105 0.02965 -0.021537 -0.079651 0.0023722 0.025785 -0.076031 0.071773 -0.04403 0.0064305 -0.055873 0.0089948 0.024147 -0.0035136 -0.05919 0.026921 -0.036468 -0.085746 0.099828 -0.097281 0.029539 -0.016147 -0.040958 0.16281 -0.049419 -0.0019737 0.027578 0.013873 0.018872 -0.0025408 -0.036461 -0.034872 -0.03758 0.15339 -0.0085191 -0.046626 0.018583 0.06549 0.016476 -0.0007401 0.0031462 0.037663 -0.047861 0.016682 0.019633 0.02998 -0.056771 -0.025619 -0.061037 0.0084799 -0.13111 -0.13729 0.02154 -0.068197 -0.013133 -0.084586 0.051607 -0.066679 -0.024114 -0.0089459 -0.10045 0.068073 0.078114 -0.078989 0.053065 -0.13761 0.022244 0.08046 0.088103 0.065475 -0.088607 0.015072 0.030177 
dijo -0.0094031 -0.018387 -0.0099611 0.012793 -0.051436 -0.071214 0.027425 0.022033 -0.020467 -0.018007 0.043979 -0.03216 0.033943 -0.045849 -0.013663 0.034454 0.0047404 0.049844 -0.015947 -0.0096118 -0.05007 -0.036976 0.00020483 0.036813 0.044458 -0.0005199 -0.044083 0.048381 0.019095 -0.024433 -0.040129 0.0011952 0.003603 -0.043948 0.043369 -0.024351 0.0093963 -0.02315 0.015446 0.00087365 -0.0067053 -0.034034 0.020291 -0.02661 -0.046118 0.045497 -0.049549 0.022355 0.0051021 -0.014193 0.082027 -0.024898 -0.001682 0.0060064 0.0052302 0.0028567 -0.005269 -0.0099108 -0.010132 -0.020951 0.077281 -0.0042921 -0.014382 -0.00036493 0.044692 0.012046 0.00022121 0.008185 0.0045665 -0.0088597 0.020033 0.0043363 0.0037207 -0.018962 -0.011888 -0.024122 0.007943 -0.04985 -0.069169 0.010852 -0.023773 -0.0089747 -0.048596 0.022667 -0.037443 -0.01824 -0.016258 -0.044109 0.034296 0.039355 -0.033927 0.027632 -0.06933 0.011207 0.039356 0.037459 0.034159 -0.031579 0.0063358 0.0074641 
hijo -0.030157 -0.046804 -0.010192 0.024917 -0.10209 -0.14135 0.038325 0.021224 -0.040624 -0.035741 0.095739 -0.041546 0.090949 -0.065968 -0.042382 0.06464 0.027907 0.085654 -0.031652 -0.019078 -0.10132 -0.057444 -0.0059047 0.060759 0.088242 -0.0010319 -0.098724 0.082105 0.010759 -0.033141 -0.070778 -0.0079721 0.025624 -0.064674 0.071773 -0.04403 -0.0090051 -0.048056 0.018095 0.0074388 -0.0035136 -0.05919 0.026921 -0.036468 -0.080448 0.087677 -0.097281 0.029539 -0.016147 -0.040958 0.16281 -0.049419 -0.0019737 0.027578 -0.00028716 0.013066 -0.0025408 -0.036461 -0.034872 -0.03758 0.14723 -0.057447 -0.05301 0.0064293 0.070641 -0.00021962 -0.0007401 0.0031462 0.027059 -0.030003 0.024822 0.0089173 0.02998 -0.056771 -0.012285 -0.057292 0.0084799 -0.13111 -0.13729 0.02154 -0.068197 -0.013133 -0.084586 0.051607 -0.082448 -0.023831 -0.028432 -0.10057 0.068073 0.078114 -0.067341 0.054845 -0.13761 0.022244 0.08046 0.088103 0.053935 -0.080591 0.0067894 0.044532 
situacion -0.041348 -0.080855 -0.017758 0.085233 -0.22618 -0.31315 0.095735 0.081134 -0.090001 -0.079183 0.20043 -0.12015 0.18347 -0.16366 -0.093895 0.14321 0.049257 0.2154 -0.098647 -0.040937 -0.22017 -0.1626 -0.013082 0.13461 0.2194 -0.014498 -0.21872 0.1819 0.039196 -0.098703 -0.17646 0.0052555 0.030192 -0.1536 0.1671 -0.122 -0.01995 -0.10647 0.040089 0.01648 -0.0077843 -0.13113 0.059642 -0.080792 -0.16278 0.21597 -0.21552 0.065443 -0.0065713 -0.07921 0.3607 -0.10949 0.035782 0.073446 -0.00063618 0.028948 -0.035054 -0.074467 -0.077257 -0.083257 0.32619 -0.12727 -0.11744 0.014244 0.1565 -0.00048655 -0.0016397 0.0069702 0.059947 -0.066471 0.036958 0.043495 0.040069 -0.11723 -0.027217 -0.12693 0.018787 -0.29046 -0.30416 0.047721 -0.15109 -0.029096 -0.16525 0.099071 -0.18266 -0.052796 -0.062989 -0.2228 0.15081 0.17306 -0.175 0.11756 -0.30486 0.04928 0.17825 0.19519 0.11949 -0.17855 0.033392 0.066856 
estan 0.010702 0.014904 -0.0045873 -0.024519 0.051378 0.049214 -0.027197 -0.0095762 0.019791 0.013091 -0.037182 0.029132 -0.049334 0.028916 0.0066193 -0.027943 -0.017302 -0.044597 0.026272 0.010325 0.050344 0.040691 0.0041283 -0.036052 -0.048478 0.012232 0.049235 -0.034247 0.0011026 0.019283 0.042936 -0.0048886 -0.0081681 0.035786 -0.036303 0.026012 -0.0023188 0.027296 -0.0081682 -0.0022942 0.0038328 0.023287 -0.027773 0.023521 0.044272 -0.036155 0.049708 -0.0043338 0.015326 0.027462 -0.085528 0.037128 -0.012167 -0.0080789 -0.01005 0.0001373 0.002417 0.012813 0.01892 0.012943 -0.076255 0.014711 0.026994 -0.011787 -0.039684 0.0040522 0.00022121 0.008185 -0.024466 0.01422 -0.019865 -0.014024 -0.02484 0.024419 0.0011804 0.034032 -0.00063656 0.064889 0.075278 -0.0064822 0.026489 0.0096347 0.035369 -0.027423 0.049569 0.0073342 0.0064344 0.043918 -0.028061 -0.038562 0.03021 -0.028862 0.07112 -0.0050338 -0.038865 -0.038162 -0.018716 0.040936 -0.014216 -0.0096297 
tambien 0.0047008 0.013984 -0.004331 -0.0047831 0.011668 0.029896 -0.015918 -0.010599 0.006263 0.017917 -0.020847 0.0053574 -0.020015 0.0081146 0.0039875 -0.0086785 -3.013e-05 -0.019889 0.0012529 -0.0029709 0.01277 0.013795 0.0093644 -0.0024976 -0.011156 -0.0022645 0.016399 -0.0095751 -0.011982 0.0027628 0.012283 0.0046334 -0.0083003 0.0085142 -0.020187 0.020038 0.0036089 0.013222 -0.010577 0.0072708 0.0053021 0.019842 0.00016563 0.019288 0.01752 -0.012229 0.013107 0.0016441 -0.005293 0.0063924 -0.033389 0.0087991 -0.00015162 -0.013185 -0.011123 -0.0031029 -5.2545e-05 0.0083687 8.3088e-05 0.017289 -0.020142 -0.0043156 0.005706 -0.0056283 -0.014108 0.004186 0.00020045 0.010383 -0.0099593 0.0086131 -0.010423 -0.0071299 -0.0033903 0.019729 -0.0012206 0.0078303 -0.0016529 0.02011 0.020277 0.00027573 0.017401 0.010215 0.011375 -0.011732 0.007338 0.0086979 -0.0056717 0.018113 -0.0091615 -0.014578 0.015094 -0.0041942 0.029 -0.0020526 -0.011363 -0.014689 -0.0018978 0.020564 0.0021885 -0.0045595 
mail 0.021914 0.048114 0.0092788 -0.028662 0.1087 0.13749 -0.049295 -0.030839 0.039743 0.040115 -0.097236 0.049313 -0.083867 0.077428 0.027581 -0.054338 -0.02489 -0.097836 0.052145 0.020494 0.098207 0.065816 0.008194 -0.071558 -0.098159 0.01129 0.090088 -0.090504 -0.013337 0.029425 0.073426 0.00055438 -0.016212 0.071029 -0.072056 0.05163 0.01793 0.040699 -0.020245 -0.018521 0.0076075 0.046222 -0.028408 0.04932 0.089467 -0.08643 0.099559 -0.025575 0.017807 0.039446 -0.16513 0.014456 0.0012245 -0.016471 0.0018827 -0.019077 -0.00025578 0.040737 0.024077 0.044577 -0.15135 0.029198 0.052876 -0.0092345 -0.063198 0.0062951 -0.0007401 0.0031462 -0.035892 0.035345 -0.013056 -0.0094635 -0.031151 0.068854 0.012028 0.060781 -0.0012635 0.1288 0.14942 -0.012866 0.06598 0.0094887 0.077301 -0.062746 0.078391 0.032188 0.02285 0.096068 -0.067149 -0.083593 0.073997 -0.057498 0.14116 -0.0099913 -0.09516 -0.086243 -0.058735 0.082467 -0.0099018 -0.042073 
mucho -0.030157 -0.046804 -0.0080153 0.038472 -0.10209 -0.14135 0.038325 0.021224 -0.040952 -0.050855 0.095739 -0.041546 0.082812 -0.073874 -0.02712 0.068386 0.034524 0.096941 -0.031652 -0.019078 -0.099381 -0.073392 -0.0059047 0.060759 0.09903 -0.0065439 -0.099556 0.097666 0.010759 -0.033141 -0.079651 0.0023722 0.025785 -0.076031 0.08608 -0.048332 -0.0090051 -0.048056 0.027608 0.019429 -0.0035136 -0.05919 0.027729 -0.053687 -0.080448 0.087677 -0.097281 0.029539 -0.016147 -0.040958 0.16281 -0.049419 0.016151 0.033152 -0.00028716 0.013066 -0.0025408 -0.036461 -0.034872 -0.03758 0.14723 -0.057447 -0.046626 0.018583 0.057397 0.0071568 -0.0007401 0.0031462 0.034479 -0.019135 0.016682 0.019633 0.02998 -0.056771 -0.012285 -0.057292 0.0084799 -0.13111 -0.13729 0.02154 -0.068197 -0.013133 -0.074589 0.044718 -0.095954 -0.031977 -0.019496 -0.093919 0.062121 0.064731 -0.067341 0.054845 -0.13761 0.022244 0.087693 0.080545 0.053935 -0.080591 0.015072 0.030177 
atencion 0.021914 0.048114 -0.0040856 -0.025346 0.1087 0.13749 -0.049295 -0.030839 0.039743 0.040115 -0.10002 0.06423 -0.083867 0.077428 0.043613 -0.074154 -0.034342 -0.088519 0.03989 0.024457 0.098207 0.065816 0.018797 -0.052125 -0.098159 0.01129 0.10091 -0.087728 -0.014978 0.04172 0.076425 0.016183 -0.0065935 0.060337 -0.064428 0.062045 -0.0046025 0.054179 -0.029225 -0.0067141 0.0076075 0.046222 -0.032772 0.036534 0.087857 -0.098206 0.099559 -0.025575 0.003463 0.050371 -0.16253 0.042832 -0.0073751 -0.050672 -0.0028471 -0.030301 0.017457 0.016672 0.024077 0.044577 -0.15135 0.029198 0.036908 -0.013916 -0.07877 -0.0069033 -0.0007401 0.0031462 -0.035892 0.035345 -0.015515 -0.02322 -0.025445 0.044619 0.015137 0.046731 -0.0012635 0.1288 0.14942 -0.012866 0.06598 0.0094887 0.082459 -0.036511 0.089241 0.032826 0.02285 0.096068 -0.055173 -0.063341 0.084133 -0.04802 0.14116 -0.0099913 -0.082276 -0.087814 -0.058876 0.071183 -0.018083 -0.030818 
manana -0.0087576 -0.018429 -0.0059152 0.016091 -0.031259 -0.030777 0.01621 -0.00085356 -0.022343 -0.011999 0.031677 -0.016892 0.021053 -0.028437 -0.0028887 0.01385 0.010788 0.030293 -0.006277 0.001351 -0.024979 -0.029741 -0.0030239 0.014434 0.024514 0.004615 -0.030971 0.018755 0.0033619 -0.010356 -0.029497 0.0081487 0.014487 -0.026942 0.016459 -0.024167 -0.002387 -0.019617 0.0061738 0.01168 -0.00558 -0.017407 0.0084124 -0.011396 -0.026794 0.031195 -0.031283 0.00036021 -0.001221 -0.015105 0.050876 -0.015443 -0.0020782 0.012926 0.0062183 -0.0012475 -0.0025661 -0.020504 -0.0086924 -0.016921 0.046008 -0.017951 -0.0065487 0.0034565 0.012391 0.0098068 0.0092215 0.0049872 0.017106 -0.0037859 -0.0034579 0.0016069 0.015499 -0.008564 -0.0080056 -0.019073 0.0026498 -0.040969 -0.042901 0.0067311 -0.017581 -0.0022677 -0.016889 0.01012 -0.025764 -0.0074468 0.0048194 -0.030992 0.01872 0.015024 -0.015755 0.021222 -0.043001 0.0069509 0.030866 0.020922 0.008968 -0.024365 0.00041365 0.007661 
sigue -0.018664 -0.036496 -0.0080153 0.038472 -0.10209 -0.14135 0.030007 0.035252 -0.058421 -0.033232 0.09047 -0.054235 0.082812 -0.073874 -0.042382 0.06464 0.027907 0.085654 -0.035923 -0.033549 -0.10132 -0.057444 -0.017396 0.068193 0.098237 0.0082684 -0.098724 0.082105 0.010759 -0.033141 -0.084719 -0.010096 0.025785 -0.076031 0.062642 -0.056528 -0.0090051 -0.048056 0.027608 0.019429 -0.0035136 -0.05919 0.039565 -0.042302 -0.073477 0.097484 -0.098986 0.01673 -0.0029661 -0.035753 0.16281 -0.049419 -0.0019737 0.027578 -0.00028716 0.013066 -0.012284 -0.052398 -0.034872 -0.03758 0.14723 -0.057447 -0.05301 0.0064293 0.079581 0.010867 -0.011948 -0.0055969 0.027059 -0.030003 0.010637 0.0041193 0.02998 -0.056771 -0.012285 -0.057292 0.0084799 -0.13111 -0.13729 0.02154 -0.068197 -0.013133 -0.084586 0.051607 -0.082448 -0.023831 -0.028432 -0.10057 0.076037 0.072373 -0.086667 0.059582 -0.13761 0.022244 0.087693 0.080545 0.053935 -0.080591 0.0013237 0.024516 
hablamos 0.0094105 -5.5396e-06 -0.0071761 0.0053451 0.00018966 -0.00047152 -0.0045648 -0.005044 0.0086446 -0.0080926 -0.0038522 -0.0038777 0.0056996 0.0051038 -0.0003337 -0.0056207 0.0082388 0.0013944 -0.0066153 0.0039132 0.00265 -0.00081694 0.0015596 -0.0091962 -0.0086013 0.00018528 0.0059155 0.00082877 0.0073335 -0.0059809 0.0071084 0.0074423 0.0083938 -0.0065546 -0.0094498 -0.0036116 -0.0055289 0.0081516 -0.0087941 -0.0063707 0.0086631 -0.0080221 0.007886 0.0008039 0.0037897 -0.0096435 0.0072113 0.0078118 -0.0092593 0.00069369 -0.0048651 0.0018503 0.00046917 -0.00017409 -0.0014487 -0.0091435 -0.0056882 -0.0049639 -0.0053607 0.0013555 -0.0094088 -0.00034532 0.0051296 -0.00089585 -0.0092153 -0.0040122 -0.0006661 -0.0074433 0.00075735 -0.0076402 -0.0082769 -0.0080441 0.0066307 -0.0039263 0.0034201 -0.0029665 -0.0029546 -0.0032699 -0.0033474 0.0022603 0.0094502 0.0070134 0.009496 -0.005056 -0.0012148 -0.0081798 -0.005174 0.0066992 -0.0094873 0.0056476 -0.0021939 0.0068473 0.0093594 -0.0019372 -0.0078738 0.0034444 0.0040741 0.008394 -0.0018231 -0.0069531 
medico -0.015194 -0.023581 -0.011806 0.019456 -0.050398 -0.049621 0.021771 0.018451 -0.029433 -0.016743 0.051072 -0.027235 0.033943 -0.045849 -0.018588 0.027267 0.023864 0.048679 -0.018099 -0.016903 -0.05007 -0.036976 -0.0029749 0.030611 0.044719 -0.0074557 -0.050158 0.049206 0.0054203 -0.016697 -0.035659 -0.0040165 0.018702 -0.034285 0.036161 -0.022183 0.0032398 -0.02815 0.0091166 0.0037478 -0.0063153 -0.018164 0.01397 -0.027048 -0.0432 0.050295 -0.049012 0.014883 -0.0081352 -0.020635 0.082027 -0.024898 0.0081373 0.016703 0.0069896 0.0095079 -0.0012801 -0.01837 -0.017569 -0.018934 0.077281 -0.0042921 -0.019373 0.0047258 0.029346 -0.0028549 0.0069034 -0.00096678 0.011638 -0.021325 0.013012 0.015291 0.011103 -0.034678 -0.011888 -0.024122 0.007943 -0.04985 -0.069169 0.010852 -0.029846 -0.010873 -0.044306 0.032596 -0.037443 -0.01824 -0.020775 -0.048517 0.035347 0.027326 -0.043664 0.030019 -0.06933 0.011207 0.040537 0.044388 0.026167 -0.045413 0.0034206 0.022436 
vez -0.0072642 -0.00099007 -0.0069524 -0.0093205 0.0096462 0.0016626 0.0028899 0.0033951 -0.0027825 -0.0041923 -0.0052811 -0.0042813 -0.002319 0.0047261 -0.0044825 -0.0093015 0.0014846 -0.0093668 0.0034507 0.0082438 0.0097315 0.0092482 0.0031069 -0.0071978 0.0036091 0.0017892 -0.0029364 -0.0092484 0.00022458 0.0092614 0.0034759 0.0065757 -0.0093998 0.0049821 -0.004936 -0.0027486 -0.0086304 0.0010377 0.0055045 0.0081547 -0.0024279 -0.00026876 -0.00096837 -0.00023464 -0.0054823 -0.0092964 0.0030936 0.00067438 -0.0070337 0.0048403 -0.0029936 0.0001749 -0.00071029 -0.0048802 0.0092667 -0.0045017 0.0016812 0.0016056 0.0025162 0.0077633 0.0012497 0.0067777 -0.0056583 -0.00061054 -0.0078339 -0.0035297 0.0054941 -0.0066728 -0.0074041 -0.0012739 -0.0086392 0.0033008 -0.0024506 0.0042972 -0.00097211 0.0095042 -0.0054426 0.0020213 0.0083457 0.0006878 -0.0019234 -0.0018927 0.0016789 -0.0095947 -0.00045103 -0.0022859 0.0069018 -0.0048081 -0.0020839 -0.0038337 0.0055657 0.004028 0.0096222 0.0070195 -0.0040719 -0.0037047 -0.0022856 0.0017176 -0.00095363 -0.004052 
agradece 0.017561 0.029273 0.014742 -0.02132 0.054765 0.069272 -0.020293 -0.0070403 0.020023 0.020211 -0.041269 0.023562 -0.03732 0.030708 0.0097792 -0.021284 -0.023821 -0.041907 0.018827 0.018966 0.049718 0.026052 0.0094703 -0.026262 -0.042796 0.0068112 0.040071 -0.043515 -0.015471 0.022728 0.030513 0.0038933 -0.02005 0.034183 -0.038213 0.032318 0.0090334 0.020505 -0.0046155 0.0024157 -0.00024539 0.0293 -0.016038 0.031211 0.045075 -0.043545 0.05016 -0.012885 0.0085807 0.02718 -0.081884 0.021579 0.0055354 -0.010342 0.0076331 -0.011531 -0.00012887 0.020524 0.012131 0.022459 -0.076255 0.014711 0.021067 -0.01376 -0.035845 -0.0099415 -0.0045691 0.011588 -0.020871 0.0079325 -0.0062159 -0.017826 -0.016425 0.027617 -0.0053553 0.025735 -0.00063656 0.064889 0.075278 -0.0064822 0.033242 0.0047806 0.045133 -0.014154 0.049437 0.020159 0.01798 0.049502 -0.027797 -0.031912 0.039335 -0.017719 0.07112 -0.0050338 -0.047943 -0.043451 -0.029663 0.035863 0.0012112 -0.017397 
contacto -0.015194 -0.023581 4.3726e-05 0.013311 -0.051436 -0.071214 0.007209 0.022894 -0.014556 -0.021931 0.048235 -0.020932 0.04559 -0.026023 -0.022489 0.020827 0.01406 0.043154 -0.018099 -0.016903 -0.051045 -0.028942 -0.006209 0.039589 0.039023 -0.0048618 -0.049739 0.041366 -0.00066723 -0.011207 -0.040129 0.0011952 0.01832 -0.040617 0.038001 -0.027744 -0.0038485 -0.031628 0.0045318 0.012166 -0.0067053 -0.034034 0.025744 -0.016675 -0.037019 0.049114 -0.049871 0.0084287 -0.0019686 -0.024353 0.082027 -0.024898 -0.001682 0.0060064 0.013324 0.0048655 0.0024466 -0.010836 -0.0074245 -0.028367 0.074179 -0.028943 -0.015211 0.01041 0.040094 0.005475 -0.0060198 -0.0028198 0.0033295 -0.024451 0.015626 0.021776 0.016829 -0.015596 0.00098583 -0.032017 0.0042723 -0.066053 -0.077394 -0.012299 -0.03723 0.0060646 -0.048816 0.02837 -0.048344 -0.016111 -0.016258 -0.044109 0.027274 0.038008 -0.031958 0.021404 -0.06933 0.011207 0.033683 0.033699 0.032988 -0.044642 0.014996 0.017542 
o -0.0027423 0.014334 0.00012814 -0.0085213 0.011668 0.029896 -0.0082746 -0.0028707 0.012593 0.017847 -0.020847 0.0053574 -0.012029 0.0044585 0.015992 -0.0043252 0.0031667 -0.01998 0.0060525 0.0098895 0.020132 0.0015508 0.0016833 -0.0147 -0.026642 -0.0068872 0.026078 -0.020702 -0.0027399 0.0060449 0.019882 0.0035692 -0.010733 0.014083 -0.010923 -0.0025868 0.0080184 0.016284 -0.0065444 -0.0067648 -0.0039304 0.001795 -0.0077805 0.0016923 0.0089668 -0.0085561 0.016833 -0.011183 -0.0064663 0.014659 -0.033924 0.0029698 0.00099353 -0.00036866 -0.0087343 -0.0098037 -0.0027838 0.0078778 -0.00097623 0.011886 -0.031093 0.0059983 0.013184 -0.010301 -0.012983 0.0012932 0.0047869 -0.0075846 -0.016161 0.0044795 -0.0047192 0.0054476 0.00059134 0.0066423 0.0052184 0.011788 0.0060133 0.017657 0.020446 -0.0091869 0.012761 0.0067837 0.010142 -0.014008 0.020393 0.0056762 0.005102 0.0084774 -0.020198 -0.0065859 0.0048391 -0.0030526 0.016717 0.0056282 -0.0086857 -0.0079023 -0.0099135 0.015794 -0.0054329 -0.00077417 
nuevamente 0.0034533 0.023207 0.0044055 -0.0074121 0.054765 0.069272 -0.027197 -0.0095762 0.020374 0.025968 -0.051126 0.013139 -0.027575 0.038757 0.0098913 -0.041369 -0.011315 -0.041447 0.013729 0.010507 0.044195 0.028333 0.016253 -0.037653 -0.049454 0.005688 0.049384 -0.049953 -0.015063 0.03083 0.036993 0.00027931 -0.0033219 0.030399 -0.031351 0.023506 0.0021226 0.021661 -0.016946 -0.010433 0.0091782 0.029366 -0.02319 0.018967 0.044264 -0.049478 0.05016 -0.012885 0.001912 0.012796 -0.081884 0.021579 -0.012167 -0.0080789 -0.013495 -0.0045279 0.0099918 0.027304 0.0059074 0.012135 -0.076255 0.014711 0.02664 -0.0046525 -0.024021 0.00072469 0.0010335 -0.0065695 -0.013404 0.011882 0.00023983 -0.01183 -0.020211 0.019981 0.0032398 0.040273 -0.0040537 0.049319 0.075278 -0.0064822 0.026489 0.0096347 0.050316 -0.016687 0.049065 0.0013007 0.01798 0.049502 -0.033831 -0.042115 0.04397 -0.01425 0.07112 -0.0050338 -0.044293 -0.038647 -0.012811 0.033374 -0.0071518 -0.0071763 
hay -0.0083758 -0.008348 -0.0082333 0.0047687 0.0076447 0.0093059 -0.0078863 0.0063391 -0.00063524 0.001132 -0.0017134 0.0078796 -0.0068885 -0.0021264 -0.00052155 0.0004326 0.0054962 0.005418 -0.00071112 -0.0090421 -0.008145 0.00033096 0.0070132 0.004733 -0.0092436 -0.0093708 -0.0012629 0.0066576 -0.0040182 0.0016474 -0.0019758 0.0065199 -0.0045053 0.00081452 -0.0046516 0.0080953 0.0034282 -0.00021208 -0.00123 0.0078046 0.0036143 0.001507 -0.001776 -0.0030683 0.0053286 -0.0080405 0.0048423 -0.007746 0.005506 0.0091644 0.003614 0.009302 -0.004114 0.0066809 -0.002696 -0.0089385 -0.0026701 -0.0081424 -0.00383 -0.0047368 -0.0066442 -0.0013622 0.0034136 -0.0038746 0.0023206 -0.0077816 0.0063364 0.0023119 -0.0080518 -0.0034882 0.0068449 -0.003265 -0.0043642 0.006763 0.0067226 -0.0047399 0.0044636 -0.005217 0.0061311 0.0061403 -0.0072212 0.0062888 -0.0024241 0.0010043 0.00082725 -0.0030793 -0.0090605 -0.0059318 -0.0046879 0.0011814 0.0050006 -0.0091705 0.0090524 0.0080393 0.0079025 -0.0019404 -0.0087119 -0.0072346 0.0063429 0.0079273 
sin 0.015185 0.0066381 0.010889 -0.0051952 0.025352 0.030861 -0.021251 -0.0040287 0.012275 0.0081198 -0.023062 0.018069 -0.030444 0.012343 0.019442 -0.011673 -0.01255 -0.030758 0.020124 -0.00050539 0.041157 0.016615 0.0014433 -0.017125 -0.030901 -0.0011486 0.039668 -0.03149 -0.013684 0.01944 0.014164 0.0044686 -0.016647 0.012773 -0.03053 0.0046768 -0.0058653 0.016258 -0.0080581 0.0028038 0.0023773 0.014444 -0.0030553 0.0045939 0.020128 -0.029875 0.031111 -0.0079918 0.0096708 0.0090724 -0.050787 0.013384 -0.0039963 -0.00032462 -0.00088968 -0.0094686 0.0011448 0.0031449 0.003664 0.0075268 -0.029786 0.0073664 0.018056 0.0021847 -0.029895 0.0042069 0.0042817 -0.00059963 -0.0038585 0.0061857 0.00057772 0.0047609 -0.002841 0.014249 -0.0033216 0.015962 -0.010658 0.030601 0.04669 -0.0040205 0.01192 -0.0028838 0.018159 -0.0087396 0.030745 0.004549 0.0023486 0.031139 -0.011852 -0.028546 0.017023 -0.013085 0.030198 -0.0022027 -0.019524 -0.03066 -0.017044 0.028688 -0.011271 -0.014265 
cuenta -0.018664 -0.036496 8.6789e-05 0.02642 -0.10209 -0.14135 0.030007 0.035252 -0.051328 -0.043541 0.081452 -0.048382 0.082812 -0.073874 -0.042382 0.06464 0.041337 0.083351 -0.044527 -0.018478 -0.099381 -0.073392 -0.01986 0.056121 0.09903 -0.0065439 -0.098724 0.082105 0.02965 -0.021537 -0.084719 -0.010096 0.025785 -0.076031 0.075426 -0.055067 -0.0090051 -0.048056 0.018095 0.0074388 -0.0035136 -0.05919 0.039565 -0.042302 -0.073477 0.097484 -0.097281 0.029539 -0.0039073 -0.048337 0.16281 -0.049419 -0.0019737 0.027578 -0.00028716 0.013066 -0.0025408 -0.036461 -0.034872 -0.03758 0.14723 -0.057447 -0.038453 0.00938 0.079581 0.010867 0.0020513 -0.01304 0.034479 -0.019135 0.016682 0.019633 0.02998 -0.056771 -0.0070757 -0.041801 0.015766 -0.098944 -0.13729 0.02154 -0.068197 -0.013133 -0.073508 0.058985 -0.095643 -0.017216 -0.019496 -0.093919 0.054135 0.07544 -0.067341 0.054845 -0.099263 -0.0048084 0.092576 0.088655 0.065475 -0.088607 0.0067894 0.044532 
hablar -0.018664 -0.036496 -0.0080153 0.038472 -0.10209 -0.14135 0.030007 0.035252 -0.058421 -0.033232 0.09047 -0.054235 0.082812 -0.073874 -0.036894 0.05412 0.027907 0.085654 -0.044527 -0.018478 -0.099381 -0.073392 -0.0059047 0.060759 0.09903 -0.0065439 -0.098724 0.082105 0.010759 -0.033141 -0.070778 -0.0079721 0.013628 -0.069334 0.071773 -0.04403 -0.0090051 -0.048056 0.030658 0.0017341 -0.0055999 -0.04674 0.039565 -0.042302 -0.085746 0.099828 -0.097281 0.029539 -0.0029661 -0.035753 0.16281 -0.049419 0.0068506 0.041363 0.010381 0.0056702 -0.0025408 -0.036461 -0.020111 -0.041585 0.14723 -0.057447 -0.05301 0.0064293 0.070641 -0.00021962 -0.0007401 0.0031462 0.027059 -0.030003 0.016682 0.019633 0.02998 -0.056771 -0.012285 -0.057292 0.0084799 -0.13111 -0.13729 0.02154 -0.056261 -0.007257 -0.084586 0.051607 -0.082448 -0.023831 -0.028432 -0.10057 0.068073 0.078114 -0.075863 0.066416 -0.13761 0.022244 0.078116 0.07435 0.051937 -0.090138 0.015072 0.030177 
este -0.0033667 -0.0090447 -0.0035177 0.005133 -0.0089756 -0.0090997 0.010273 0.0018967 -0.010379 -0.00047274 0.0041359 0.0011053 0.0076176 -0.010405 0.003251 -0.0032968 0.0040101 0.0038201 -0.010228 -0.010342 -0.010748 -0.0099182 -0.0028186 0.0086221 -0.00050099 -0.0024254 -0.0069487 -0.0017116 -0.003979 -0.004686 -0.010429 -0.0064172 -0.0039285 -0.0092551 0.010543 -0.0081268 -0.008794 -0.0025438 0.0032223 0.00018226 -0.00080557 0.0020909 -0.0049153 -0.0026535 -0.01213 0.013759 -0.0073889 0.0036534 0.0037563 -0.0019775 0.010139 -0.0022093 -0.00012756 0.0056148 -0.0038096 0.00032607 -0.0016185 -0.00037843 -0.0049301 0.0070757 0.00020065 0.0021197 -0.0089219 -0.0061664 -3.6423e-05 0.0018333 0.005672 -0.00033652 0.0064068 -0.0061243 0.010156 -0.0025186 0.0086799 -0.0048661 -0.006144 -0.0025289 -0.0062333 -0.0089547 -0.0011666 0.0093301 -0.0070239 0.0094712 -0.010212 0.01029 0.0007967 -0.0069177 -0.0042052 -0.00053446 -0.0023832 0.0014587 0.0028432 0.0021039 0.00039206 -0.0065257 0.0055677 0.0016149 -8.6717e-05 -0.009105 0.00025394 -0.0011094 
indica -0.0042108 0.0096194 0.0095172 -0.0020541 0.0097299 0.0056878 0.0051113 -0.00026914 0.0035542 -0.0081875 -0.0096677 -0.00060794 0.0029286 -0.0068632 -0.0053988 0.0006809 0.0054718 0.0069308 0.0056615 -0.006681 0.0086431 0.0055411 -0.0042969 -0.0053868 0.0041672 0.00075681 0.0096287 -0.0066976 0.0082493 0.0010396 0.0054055 -0.0037629 0.0019231 0.0069028 -0.0015022 0.0073391 0.0022165 0.0097345 -0.0027308 -0.0070918 -0.0017594 -0.0054886 0.0067881 0.00013888 0.0049721 -0.002812 -0.004341 0.0058674 0.0073881 0.0063748 0.0025311 0.0010011 0.0070988 -0.0014146 0.0036541 -0.0080177 -0.0012152 0.0066655 0.0086556 0.0035526 -0.0010848 0.0096012 -0.0042726 -0.0074177 -0.0084157 -0.0052342 0.0094872 0.00072691 -0.005988 -0.0039489 -0.0045314 0.0069815 -0.007287 0.0016152 -0.0056726 0.0095651 0.0053395 0.0050521 0.0099517 -0.0085511 0.0084121 -0.0004902 -0.0050616 0.0067647 0.0029406 -0.0050469 -0.0027203 0.0086873 0.0028811 0.00051605 -0.0019088 0.0032817 0.00085347 0.0043542 0.0053953 -0.0050552 0.0062182 0.0087679 -0.001733 -0.0096951 
preocupada -0.041348 -0.080855 -0.017758 0.085233 -0.22618 -0.31315 0.095735 0.081134 -0.090001 -0.079183 0.22458 -0.11976 0.18347 -0.16366 -0.081736 0.1199 0.061826 0.18976 -0.098647 -0.040937 -0.22017 -0.1626 -0.013082 0.13461 0.2194 -0.014498 -0.21872 0.1819 0.023835 -0.073423 -0.17646 0.0052555 0.057125 -0.16844 0.1671 -0.122 -0.01995 -0.10647 0.040089 0.01648 -0.0077843 -0.13113 0.059642 -0.080792 -0.16278 0.21597 -0.21552 0.065443 -0.0065713 -0.07921 0.3607 -0.10949 -0.0043727 0.061097 0.030735 0.041809 -0.035054 -0.074467 -0.077257 -0.083257 0.32619 -0.12727 -0.085191 0.020781 0.14509 0.036501 0.0045446 -0.028888 0.059947 -0.066471 0.036958 0.043495 0.06642 -0.12577 -0.027217 -0.12693 0.018787 -0.29046 -0.30416 0.047721 -0.15109 -0.029096 -0.18739 0.11433 -0.18266 -0.052796 -0.062989 -0.2228 0.15081 0.17306 -0.175 0.11756 -0.30486 0.04928 0.19428 0.17844 0.11949 -0.17855 0.033392 0.066856 
maria -0.019668 -0.010937 -0.0051349 0.012554 -0.051436 -0.071214 0.019309 0.010693 -0.025923 -0.029399 0.048235 -0.020932 0.041722 -0.037219 -0.018588 0.027267 0.01406 0.043154 -0.025733 -0.014991 -0.05007 -0.036976 0.00020483 0.036813 0.044719 -0.0074557 -0.049739 0.041366 0.0054203 -0.016697 -0.035659 -0.0040165 0.007456 -0.039931 0.037217 -0.033056 -0.0045369 -0.024211 0.0045318 0.012166 0.005806 -0.031197 0.026021 -0.023158 -0.040531 0.044173 -0.049549 0.022355 -0.0019686 -0.024353 0.082027 -0.024898 -0.0009944 0.013894 0.0069896 0.0095079 0.0024466 -0.010836 -0.010132 -0.020951 0.074179 -0.028943 -0.022011 -0.0019239 0.028918 0.0036057 -0.0060198 -0.0028198 0.010716 -0.0080386 0.005359 0.0020754 0.021639 -0.025887 -0.0061895 -0.028865 0.0042723 -0.066053 -0.069169 0.010852 -0.028345 -0.0036562 -0.037035 0.029718 -0.048344 -0.016111 -0.0098224 -0.047318 0.027274 0.038008 -0.039796 0.026735 -0.06933 0.011207 0.044181 0.04058 0.021281 -0.03791 0.00066692 0.012352 
q 0.016113 0.020267 0.012031 -0.014471 0.054765 0.069272 -0.01816 -0.014118 0.020374 0.025968 -0.037182 0.029132 -0.036391 0.037767 0.015546 -0.035294 -0.017302 -0.044597 0.027227 0.0031643 0.066358 0.026788 0.002327 -0.027611 -0.04467 0.00096224 0.047967 -0.040336 -0.015026 0.015645 0.030513 0.0038933 -0.009145 0.042477 -0.043447 0.028125 0.0041908 0.02772 -0.020292 0.0019289 0.0038328 0.023287 -0.02319 0.018967 0.044264 -0.049478 0.053098 -0.021959 0.0017447 0.025378 -0.081884 0.021579 -0.0083451 -0.020536 -0.0056601 -0.0075436 0.006995 0.019176 0.017058 0.018262 -0.076255 0.014711 0.017546 0.0054835 -0.03184 0.0031716 0.0069034 -0.00096678 -0.013404 0.011882 -0.0065779 -0.0047679 -0.016425 0.027617 0.0011131 0.026142 -0.00063656 0.064889 0.075278 -0.0064822 0.028551 0.0013283 0.042415 -0.024147 0.033921 0.015657 0.0037865 0.050205 -0.032468 -0.035723 0.042388 -0.024193 0.07112 -0.0050338 -0.033335 -0.037772 -0.032394 0.04984 -0.0018305 -0.011367 
vive -0.0034086 -0.021403 -0.0040383 0.019383 -0.051436 -0.071214 0.0269 0.012719 -0.020467 -0.018007 0.051072 -0.027235 0.049928 -0.030766 -0.013663 0.034454 0.017394 0.04884 -0.015947 -0.0096118 -0.05007 -0.036976 -0.0029749 0.030611 0.049893 -0.0032969 -0.049739 0.041366 0.0089137 -0.022446 -0.035704 -0.010046 0.008208 -0.028705 0.042577 -0.017738 -0.0038485 -0.031628 0.013909 0.0097886 0.0033954 -0.024869 0.019933 -0.021313 -0.044507 0.039971 -0.049012 0.014883 -0.014725 -0.022274 0.082027 -0.024898 0.0081373 0.016703 0.0069896 0.0095079 -0.0012801 -0.01837 -0.016313 -0.01153 0.074179 -0.028943 -0.019373 0.0047258 0.041945 -0.0055705 0.0069034 -0.00096678 0.02081 -0.017476 0.012506 0.0044927 0.012061 -0.021298 -0.0035649 -0.02106 0.007943 -0.04985 -0.069169 0.010852 -0.028345 -0.0036562 -0.044306 0.032596 -0.037443 -0.01824 -0.020775 -0.048517 0.030813 0.04405 -0.031958 0.021404 -0.050333 0.014162 0.033967 0.039629 0.032887 -0.037684 0.0034206 0.022436 
medicamentos 0.010702 0.014904 0.00031425 -0.020898 0.054765 0.069272 -0.024836 -0.015537 0.032687 0.018413 -0.048989 0.024845 -0.036391 0.037767 0.02046 -0.029642 -0.017302 -0.044597 0.020097 0.012322 0.050344 0.040691 0.0094703 -0.026262 -0.049454 0.005688 0.050841 -0.044199 -0.0075461 0.021019 0.036993 0.00027931 -0.0031169 0.039799 -0.043579 0.01577 0.0021226 0.021661 -0.0019076 -0.0064239 -0.00024539 0.0293 -0.008638 0.020177 0.040718 -0.040908 0.053098 -0.021959 0.0017447 0.025378 -0.083196 0.0072833 -0.0066801 -0.013791 -0.01005 0.0001373 -0.0039659 0.0275 0.0061429 0.019939 -0.076255 0.014711 0.026994 -0.011787 -0.030295 -0.0042258 0.0069549 0.0064986 -0.013404 0.011882 -0.0065779 -0.0047679 -0.0092674 0.030588 0.0011804 0.034032 -0.00063656 0.064889 0.075278 -0.0064822 0.026489 0.0096347 0.042415 -0.024147 0.042429 0.022428 0.016448 0.04181 -0.039405 -0.043858 0.042388 -0.024193 0.07112 -0.0050338 -0.041452 -0.044242 -0.029663 0.035863 -0.0071518 -0.0071763 
telefono 8.1585e-06 -0.017444 0.0035016 0.0078773 -0.031259 -0.030777 0.013503 0.011444 -0.016255 -0.0071114 0.031251 -0.0089829 0.025752 -0.019142 -0.0041192 0.020796 0.0050278 0.026588 -0.01998 -0.010322 -0.028401 -0.016155 -0.0062061 0.017537 0.027737 -0.0046243 -0.023792 0.030963 0.0045774 -0.0062478 -0.023802 -0.010284 0.0080071 -0.02021 0.02357 -0.017208 0.0058279 -0.014358 0.0028108 0.0075456 0.00035696 -0.010508 0.00832 -0.022267 -0.018347 0.018968 -0.030732 0.013865 -0.001221 -0.015105 0.050876 -0.015443 0.0015113 -0.00056077 0.0089759 -0.0053315 -0.0074118 -0.013771 -0.017382 -0.017464 0.047933 -0.0026621 -0.0016082 0.0034874 0.015777 0.0058577 -0.0082199 -0.0026175 0.017106 -0.0037859 0.014145 0.014702 0.0029673 -0.022478 0.0060924 -0.023482 -0.0093733 -0.027569 -0.042901 0.0067311 -0.015644 -0.0097713 -0.019332 0.018094 -0.030717 -0.019055 -0.002375 -0.027197 0.015466 0.017699 -0.030095 0.026637 -0.044484 -0.0078005 0.034665 0.037963 0.013199 -0.023513 -0.0010033 0.003794 
asistencia 0.0021419 0.014394 0.0027466 -0.016203 0.033967 0.042965 -0.021251 -0.0040287 0.01255 0.0036741 -0.030385 0.01541 -0.02913 0.025809 0.0015238 -0.014834 0.0012913 -0.026484 0.012465 0.0076426 0.028514 0.023951 0.010081 -0.023354 -0.030901 -0.0011486 0.022297 -0.018674 -0.0046804 0.013037 0.027022 0.0086384 -0.0090071 0.027503 -0.022516 0.016134 0.0056028 0.012718 -0.0080581 0.0028038 -0.0084257 0.006267 -0.0030553 0.0045939 0.030381 -0.020041 0.042079 -0.0023146 -0.0037441 0.013479 -0.050787 0.013384 -0.0092434 -0.00052219 -0.00088968 -0.0094686 0.0020117 0.017385 0.015563 0.0083327 -0.047296 0.009124 0.017025 -0.011662 -0.01879 -0.002621 -0.0073382 0.0067452 -0.0038585 0.0061857 -0.00081816 -0.013715 -0.015407 0.015146 -0.0049577 0.022356 0.00024765 0.026245 0.030167 -0.0065624 0.014171 0.0022848 0.030699 -0.0062886 0.016907 0.017634 0.011152 0.030703 -0.030824 -0.014147 0.030181 -0.016414 0.044111 -0.0031222 -0.023316 -0.020049 -0.01659 0.031336 -0.011271 -0.014265 
animo 0.016971 0.011345 -0.0020584 -0.01277 0.054765 0.069272 -0.020293 -0.0070403 0.027528 0.025072 -0.048989 0.024845 -0.037921 0.024424 0.018841 -0.022239 -0.01254 -0.049292 0.010773 0.0051929 0.050344 0.040691 -0.0026448 -0.040656 -0.049454 0.005688 0.050841 -0.044199 0.00015761 0.012559 0.038504 0.0081533 -0.015501 0.038147 -0.043447 0.028125 -0.0023188 0.027296 -0.01605 -0.016591 -0.0048228 0.023298 -0.021439 0.026895 0.049376 -0.03907 0.05016 -0.012885 0.00045206 0.018786 -0.083196 0.0072833 -0.0083451 -0.020536 -0.0056601 -0.0075436 -0.0068271 0.01932 0.012037 0.014255 -0.049723 0.023797 0.014023 0.00020631 -0.02817 -0.011611 0.00022121 0.008185 -0.024466 0.01422 -0.0078166 -0.011699 -0.0092674 0.030588 0.0060597 0.030623 -0.00063656 0.064889 0.075278 -0.0064822 0.033242 0.0047806 0.029277 -0.014091 0.033921 0.015657 0.01798 0.049502 -0.033831 -0.042115 0.029892 -0.036076 0.07112 -0.0050338 -0.049887 -0.037581 -0.033945 0.044685 -0.01803 -0.015879 
